{"layers":[{"out_depth":59,"out_sx":1,"out_sy":1,"layer_type":"input"},{"out_depth":50,"out_sx":1,"out_sy":1,"layer_type":"fc","num_inputs":59,"l1_decay_mul":0,"l2_decay_mul":1,"filters":[{"sx":1,"sy":1,"depth":59,"w":{"0":0.26869268792096723,"1":-0.15083878017915117,"2":-0.05172892247488805,"3":0.13941156255952566,"4":-0.20035639740309255,"5":0.19698748415729717,"6":0.14442462951075286,"7":-0.13163454362645832,"8":0.051197209253085234,"9":0.13701333046499184,"10":-0.47072795784814087,"11":0.39309570653408993,"12":-0.0182854405765343,"13":-0.33200179942451263,"14":0.16689766798040703,"15":0.15537005396290815,"16":-0.37701821309606903,"17":0.03992647994831895,"18":0.06465220914691559,"19":-0.11038151864980916,"20":-0.06050289033602195,"21":0.02583977472850347,"22":-0.10969155717228468,"23":0.07072740375664799,"24":-0.04126833650500786,"25":-0.028425439815463218,"26":-0.0756878642055575,"27":-0.04566865255536853,"28":-0.14124805970563212,"29":0.14079086059583498,"30":0.15847983194448706,"31":-0.02467257272776684,"32":-0.16140978134204695,"33":0.03794576488122509,"34":-0.016736163265104173,"35":0.07327060684059622,"36":0.009741232715928699,"37":-0.06758911082980541,"38":0.21707568733035318,"39":-0.07321172278549469,"40":-0.048914258494263646,"41":0.1311223586228565,"42":0.01613940004048463,"43":-0.11088601841889205,"44":0.041331319841940904,"45":-0.08250664735023097,"46":-0.029688924700350082,"47":0.16739027243979962,"48":-0.05936639746741533,"49":0.06944267299143894,"50":0.032302488589118356,"51":-0.26701872103209984,"52":0.003861196694821362,"53":0.13349621708539403,"54":0.043568250661906234,"55":0.05301504517949261,"56":0.11058284918841171,"57":0.05241771568303234,"58":0.02229895696560606}},{"sx":1,"sy":1,"depth":59,"w":{"0":-0.06554454635182501,"1":0.05371481626220998,"2":0.02896796448140895,"3":0.23678151206952,"4":-0.07490563441589188,"5":0.02756589228016999,"6":-0.13764221266201612,"7":-0.08980663053842566,"8":-0.1424625320707374,"9":-0.11945333354969355,"10":0.09709646164326109,"11":-0.038272125218283395,"12":0.07458334623790809,"13":-0.010055392182281925,"14":-0.05952156192316893,"15":0.13173300528614224,"16":-0.1774606234742251,"17":0.01429251160383939,"18":-0.06447027768835577,"19":-0.06518303521871155,"20":-0.03402582645555352,"21":-0.1426333612699138,"22":-0.054406795080775276,"23":0.08206004382836399,"24":-0.10495227524152305,"25":-0.056253235566418786,"26":0.015134608790596778,"27":0.14638227632784734,"28":-0.034042819583445696,"29":0.1532725171844977,"30":-0.1512041203823717,"31":0.010617623172228372,"32":0.12057767236858012,"33":-0.13061779412197197,"34":-0.16270514584748108,"35":-0.019191239233766443,"36":0.09342391688979203,"37":-0.130948187026157,"38":0.06748424213222161,"39":-0.0034253743065253773,"40":-0.09288047426866784,"41":0.07291686710087504,"42":-0.1453869685358868,"43":-0.11725726069022925,"44":0.011123204894290603,"45":0.21318664736691023,"46":0.031074548713650278,"47":-0.06687532470085973,"48":-0.06805169853984824,"49":-0.11393762793212657,"50":0.02857835958686571,"51":-0.004724476393405702,"52":-0.10418782469425801,"53":-0.06198239080099748,"54":-0.09274125254387286,"55":-0.04674513757390329,"56":-0.0012451593889313604,"57":-0.09788643031345884,"58":-0.10904617013134356}},{"sx":1,"sy":1,"depth":59,"w":{"0":-0.0891665679264798,"1":-0.004457646243021554,"2":0.11709795617194452,"3":0.23727583510079167,"4":-0.05570869229234166,"5":0.09159857549179756,"6":0.03193853483728127,"7":-0.18116970905029625,"8":-0.08762161617677959,"9":0.16442911653413417,"10":-0.04232588479153407,"11":0.08445148292662771,"12":-0.013757726815586036,"13":-0.07190781161125384,"14":0.20347663017589454,"15":0.20087723434105414,"16":0.033753653831153745,"17":0.24969141673107217,"18":0.11264670272418081,"19":-0.07433193567080196,"20":-0.14649520697173463,"21":0.19517054936098335,"22":0.10746720122222816,"23":-0.003541006022014097,"24":-0.09051166433956839,"25":-0.05935739834276809,"26":-0.056623990162525326,"27":0.1460536742081737,"28":-0.05529361590632945,"29":0.01123118470174152,"30":-0.11380265034200923,"31":0.002643237101265087,"32":-0.12782705973186068,"33":0.0309698195941096,"34":-0.057143350860444767,"35":0.015920526955625368,"36":-0.07936231212120809,"37":0.08484187147807011,"38":-0.01246774662283621,"39":-0.010148595243679056,"40":-0.20595034744838153,"41":0.02745109433805267,"42":-0.15322496621142387,"43":0.0404097896176699,"44":0.046698585992170694,"45":-0.02674193625167149,"46":0.0706559259953299,"47":0.1372269957606447,"48":-0.12263558623254388,"49":0.03182571512948473,"50":0.057179361071798426,"51":0.02394926437186865,"52":-0.015049785923954293,"53":0.14693759223217,"54":-0.12086427011054818,"55":0.007620376564430133,"56":-0.05543838369073038,"57":-0.034909328186553304,"58":-0.050994216372561865}},{"sx":1,"sy":1,"depth":59,"w":{"0":-0.09185820337732284,"1":0.08068274037115347,"2":-0.12092895572055531,"3":0.030325830860609235,"4":0.08744941008267804,"5":-0.08032480490849508,"6":-0.037413113494769445,"7":-0.05019135385997496,"8":0.07789062365883474,"9":-0.003195732253169871,"10":-0.14860638419978298,"11":-0.05277321889225038,"12":0.1181717520550132,"13":0.0543950418798299,"14":-0.04497252356889917,"15":0.03997883311250522,"16":0.06781254802636723,"17":0.09148823923511669,"18":0.07441695386181182,"19":0.15930857036573176,"20":-0.23701337801199365,"21":0.09830967084958353,"22":0.1467432190591635,"23":-0.2337506024818295,"24":0.023918450847193226,"25":-0.08720515478754713,"26":0.14008164101073042,"27":-0.0646984955371411,"28":-0.021323226427841544,"29":-0.026530509024020273,"30":0.10278103705031755,"31":-0.18935237931175322,"32":-0.003131010639238903,"33":0.05836655404619053,"34":0.015499952950805857,"35":0.010385487501952182,"36":0.029398981365286715,"37":0.12805248521701387,"38":-0.13542772194667838,"39":0.06329549980692661,"40":-0.15911172850545616,"41":-0.03408398935678665,"42":-0.01847110519899309,"43":-0.10049900744273467,"44":-0.0498241866955467,"45":-0.15556101730869698,"46":0.0631338154107088,"47":0.021533972898309033,"48":-0.22859479328706991,"49":0.09796370628936094,"50":-0.06941346440983892,"51":-0.12511486408105818,"52":-0.15645700477455524,"53":-0.03267757207788258,"54":-0.007993124979258479,"55":0.014369953683461903,"56":-0.0737124186454744,"57":0.010058031124066589,"58":-0.05566695815938014}},{"sx":1,"sy":1,"depth":59,"w":{"0":-0.23223550420584696,"1":0.07766910782463188,"2":0.029275848820818406,"3":-0.20629035314387298,"4":0.04363498834359793,"5":-0.14424331478347943,"6":-0.26153342085703196,"7":0.05350406684020345,"8":-0.06021909701043786,"9":-0.3190556618800267,"10":0.14211524112540058,"11":0.05150874254528069,"12":-0.164352890279133,"13":0.03978864220319608,"14":0.16549351039974963,"15":-0.25900390802982304,"16":0.031923247887352915,"17":0.09199634591995698,"18":-0.13586729471167705,"19":0.2125986912530766,"20":0.22708144699506472,"21":-0.41732871214540423,"22":0.12986989533563462,"23":0.03465873900517029,"24":-0.40054211692312947,"25":0.08746517758162996,"26":-0.06123597303883952,"27":0.015449854617993105,"28":0.08406150609421693,"29":-0.10036505808340758,"30":0.06343198255638557,"31":-0.02408395638429079,"32":-0.008010367035240187,"33":0.09233343066220583,"34":-0.0887665638777962,"35":0.06431847968573912,"36":-0.11469594085315954,"37":0.12215895519695236,"38":-0.037249852155556804,"39":-0.14644253026621945,"40":-0.014951681387715904,"41":-0.03831651229120177,"42":-0.06498729782648233,"43":0.0429741943129682,"44":0.025661093559277603,"45":-0.04536810115509279,"46":0.12289129405124216,"47":-0.0174017435164262,"48":-0.07366259684772673,"49":-0.07490592565811818,"50":-0.017589579846358942,"51":-0.036464895600106226,"52":0.14396471043417414,"53":0.044428818336281595,"54":-0.09412395086792208,"55":-0.10162701976400075,"56":-0.13764631019867005,"57":0.008530667355632631,"58":0.010634814328981742}},{"sx":1,"sy":1,"depth":59,"w":{"0":-0.053500407237437105,"1":-0.37408915748071137,"2":0.18165465287331561,"3":0.06663772904899366,"4":-0.116096067886578,"5":0.19795923602569732,"6":-0.08837317183403338,"7":-0.09809311555288143,"8":0.1387966936925482,"9":-0.09736531496637467,"10":-0.31865333391122025,"11":0.38851700108365883,"12":-0.1273407498624007,"13":-0.09341254012653073,"14":0.1324103026281269,"15":-0.0014185244792078774,"16":-0.2430341969739383,"17":-0.12221758542827467,"18":-0.029672652516517132,"19":-0.15677113835587553,"20":0.10391270404458702,"21":0.003766526081369877,"22":-0.18184878842568056,"23":0.02180118147078207,"24":0.33479193650713496,"25":-0.08537498196396547,"26":0.08820821279804447,"27":-0.06568205144368523,"28":-0.05562545094824243,"29":0.03054893292726492,"30":-0.16418408548488972,"31":0.1439308319054097,"32":0.10538011029787178,"33":-0.11404810318631042,"34":-0.05572267823801582,"35":0.08468253370701731,"36":-0.045205723429129145,"37":-0.019573237735713903,"38":-0.09533139858173033,"39":-0.014104784294284325,"40":-0.19087422725037392,"41":-0.13853465985312438,"42":-0.10366482495322403,"43":-0.14843086487476925,"44":0.05182795359939997,"45":-0.08029332733931775,"46":-0.004500568161417604,"47":-0.09025515580449074,"48":-0.05133606270727129,"49":-0.12005938668194864,"50":-0.02056904553070397,"51":0.10218450653609472,"52":-0.10051171680510755,"53":0.025921288479421743,"54":0.05271652865914202,"55":-0.0350840652988904,"56":-0.08922002907493139,"57":0.0897502302600126,"58":0.07459117273619392}},{"sx":1,"sy":1,"depth":59,"w":{"0":-0.14346199286060832,"1":-0.25788778552970065,"2":-0.24164564843897257,"3":-0.02669867752032897,"4":-0.051075131162974796,"5":-0.03800358838920922,"6":0.006771651250958462,"7":-0.1396889808295939,"8":-0.15209867340777417,"9":0.04132002150611864,"10":0.08869211245984285,"11":-0.07311356627569662,"12":-0.08524203703731044,"13":-0.11194643154066806,"14":0.09442174073191606,"15":0.044236384277398906,"16":-0.07322453310521519,"17":0.040041942163558594,"18":-0.014101708755504498,"19":0.16368918848025946,"20":-0.1552771822278054,"21":0.13011515188660563,"22":0.07468352295006114,"23":0.041741444065126546,"24":-0.05008539220116673,"25":0.035302380609651844,"26":0.01404160680543179,"27":0.1519504257291161,"28":-0.16716940859357649,"29":0.018811752528872204,"30":-0.2067190467905386,"31":-0.027034494662177767,"32":-0.16511323530274827,"33":0.011490905786076592,"34":-0.016318076564491357,"35":-0.08220077051368149,"36":-0.02642933097623153,"37":-0.08576125824160824,"38":-0.07998096742167977,"39":-0.23512916042983353,"40":0.05810083487071639,"41":-0.1783997111050501,"42":0.033452340765722566,"43":-0.002692125758377902,"44":-0.04685319180950477,"45":0.039304607601571555,"46":0.07645383934813624,"47":0.056047032484314946,"48":-0.01797851234971029,"49":-0.08108275438740493,"50":-0.11701152588388947,"51":0.015805224832280477,"52":0.1476703225779881,"53":-0.05410044090078796,"54":0.13281235868405517,"55":-0.04957644559575573,"56":-0.1610092664514518,"57":0.11805545562173536,"58":-0.034721817579777735}},{"sx":1,"sy":1,"depth":59,"w":{"0":-0.09155362822577125,"1":0.144348617355484,"2":0.004750455227635926,"3":-0.029192366724154133,"4":0.26670109296697797,"5":-0.13967128069460133,"6":-0.06013282944963991,"7":0.02484989985805041,"8":-0.13860724673093106,"9":0.16701204870838185,"10":-0.05784890054365063,"11":-0.002827870690210364,"12":-0.07987767226859112,"13":-0.20764615918163284,"14":0.10328312365832559,"15":-0.051680893613687995,"16":-0.17060505949929997,"17":-0.0970631385601947,"18":0.1736288762085307,"19":0.008984546508821873,"20":-0.07613899318345181,"21":-0.152856635297669,"22":0.10440880120512003,"23":0.010779248290857735,"24":0.08550856564065416,"25":0.0775111290274213,"26":0.17961471864234282,"27":0.015648614306158094,"28":0.024445518237254243,"29":-0.16455573416786506,"30":0.007622116702113575,"31":-0.07063883115876204,"32":-0.056534630724481054,"33":-0.02293706341716637,"34":-0.02576281667551916,"35":-0.010093116691727988,"36":-0.06363460147388506,"37":-0.02332671551038166,"38":-0.026650224212365625,"39":-0.1112659052738786,"40":-0.0612826033915931,"41":-0.09485225236413863,"42":0.12347849572930597,"43":0.028734379152538157,"44":-0.12773582640445738,"45":0.10402668997088287,"46":0.08959839000459953,"47":-0.11715360812211657,"48":-0.03327218048036101,"49":-0.010956158729369884,"50":0.027912985178391463,"51":-0.07512647208174829,"52":0.03189339864164475,"53":0.10503004660726274,"54":-0.05616396784656031,"55":-0.20682982181093504,"56":0.1403398323899251,"57":-0.13849707663421135,"58":-0.037006869210097174}},{"sx":1,"sy":1,"depth":59,"w":{"0":-0.4128750979262869,"1":0.0015143579476662936,"2":-0.15644099178739668,"3":-0.02014849403640922,"4":0.09069325428685439,"5":-0.09364363070611109,"6":-0.09361041039202476,"7":0.037899935888828146,"8":-0.21488335597502406,"9":-0.15926550198172282,"10":0.08390874639953046,"11":0.03850676732677698,"12":-0.04152047545203689,"13":-0.018273404611396097,"14":0.08102954071388054,"15":-0.054011717842712956,"16":-0.046156014298353594,"17":0.0835990795068545,"18":-0.1228798655146099,"19":0.15016815932081484,"20":-0.09535518686544348,"21":-0.11104896086960098,"22":-0.07960086647501188,"23":-0.05414357046758799,"24":-0.14404886437482325,"25":0.06056474768005687,"26":-0.06345671858797955,"27":-0.09432891297493898,"28":0.04598367543292438,"29":-0.005923590389121352,"30":0.026922984038653,"31":0.1419029350292874,"32":0.10118147095472649,"33":0.04110733034200495,"34":0.07335961317075693,"35":-0.06857148354661383,"36":0.06727313458259612,"37":-0.040404253912693554,"38":-0.018970674029737837,"39":-0.03235580892135342,"40":-0.020576967090305282,"41":0.017566727736344007,"42":-0.08973037031590106,"43":0.01938472284309441,"44":-0.08785393964877204,"45":-0.16711845830844113,"46":0.08321967758294002,"47":-0.265500170348453,"48":-0.036163291488192445,"49":-0.07257048302179153,"50":-0.00961795928978591,"51":-0.06471182020803509,"52":-0.13753457521606582,"53":-0.09140149751777037,"54":0.041575414138661865,"55":-0.05956747753764422,"56":0.044427187745648966,"57":0.11495142354607699,"58":-0.08191172045472753}},{"sx":1,"sy":1,"depth":59,"w":{"0":0.14661856480653673,"1":0.17934312428296584,"2":0.011391343908961711,"3":0.09159340618386083,"4":-0.06359049843974247,"5":-0.1413190423876869,"6":0.04628165515853617,"7":-0.020675368216455783,"8":0.010304285396008396,"9":0.17414045597296596,"10":-0.24072991216465356,"11":-0.10379861835953041,"12":-0.1715905116433003,"13":-0.3012163324057355,"14":0.19088160363719361,"15":0.027275924538972485,"16":0.01286134759428911,"17":-0.01742553794985606,"18":-0.10608653326743676,"19":-0.23126063527834126,"20":-0.046807599485616226,"21":0.028715783129089893,"22":-0.2079838746667046,"23":0.03200200388799582,"24":0.051969717556994234,"25":-0.00729700360102795,"26":0.11712284099175141,"27":-0.05335931270806801,"28":0.032938270590375414,"29":-0.1810286146347388,"30":-0.03583870666165927,"31":-0.052946442951610974,"32":-0.006839099643404144,"33":-0.19094290057401128,"34":-0.0242113417421184,"35":0.15012529228593485,"36":-0.15691538211384712,"37":0.16704674782127046,"38":0.23768435666152965,"39":0.0038270613550750406,"40":-0.08178948569750444,"41":-0.12466568103254755,"42":0.16368110521345947,"43":0.0696829302924543,"44":-0.02275674698127782,"45":-0.06133101193506934,"46":-0.05765059334382566,"47":-0.07605896373171601,"48":0.04157690289806027,"49":-0.15965965546761826,"50":-0.10251060712389647,"51":-0.03646902168346595,"52":-0.07787804740474137,"53":-0.022744711559549526,"54":-0.010778441683088518,"55":-0.0015895810038654844,"56":-0.17854521245756402,"57":0.0021738011419336,"58":-0.10045323626404826}},{"sx":1,"sy":1,"depth":59,"w":{"0":0.045031469759939546,"1":-0.11308104080553505,"2":0.08776680837695905,"3":0.08774367458669514,"4":-0.31472465036941843,"5":0.08901720034911041,"6":0.13933403511790712,"7":-0.20572374670730117,"8":0.07747502803919747,"9":0.0288446683287562,"10":0.04766445881015329,"11":0.05050017731979896,"12":0.046206268295328014,"13":-0.010745365574783963,"14":-0.05985511151991905,"15":-0.09334584681120214,"16":-0.26662413125770906,"17":-0.23979657034343474,"18":-0.056886576967425044,"19":-0.14482974995800144,"20":0.03869317649651358,"21":-0.21021500384364736,"22":0.005755336371914291,"23":-0.1398428955701246,"24":-0.2888353781629794,"25":-0.04195621688247832,"26":-0.09638019536682246,"27":0.23390897466437885,"28":-0.11099151484448477,"29":-0.025346458720441847,"30":0.21098498340685207,"31":-0.18458963229788358,"32":0.12882319964158565,"33":0.1447379061416424,"34":-0.0006247521510644245,"35":0.13417879643406247,"36":-0.016702098522174608,"37":-0.04228561827067392,"38":-0.0798480753216267,"39":0.02059414614875487,"40":0.026302079172546115,"41":0.005452988573304572,"42":-0.2029942167495331,"43":-0.25925774079738495,"44":-0.0681896507764382,"45":-0.10957161593619541,"46":0.03939513189659169,"47":-0.1362247849536957,"48":-0.09448339897940482,"49":0.10571555886088044,"50":0.012579439544219055,"51":-0.1548562559676372,"52":0.10540419501675581,"53":0.04076941180802704,"54":-0.07596856575648503,"55":0.0659871707527361,"56":-0.054428994091910606,"57":-0.031851116233667064,"58":0.061288144023487194}},{"sx":1,"sy":1,"depth":59,"w":{"0":0.04691634810024262,"1":-0.25940957340989473,"2":-0.03642103503912124,"3":0.0009465010888983419,"4":0.08504313824365466,"5":0.13590026107357123,"6":0.02221127401840167,"7":-0.10608055747068061,"8":0.04664292495630321,"9":0.03908205338474592,"10":0.008667859456549607,"11":0.044644912677828386,"12":-0.08141878377399397,"13":-0.21314557899088857,"14":-0.0007567040384618173,"15":-0.1138802211705351,"16":-0.024283637170947975,"17":-0.09585531958901845,"18":0.004218325169146608,"19":-0.14764091752231442,"20":-0.04521665787472381,"21":0.010687077851068531,"22":-0.018196888192590188,"23":0.04143853334546767,"24":0.09150473757866817,"25":-0.16124214883546392,"26":0.10892698674278734,"27":0.045500236528474375,"28":0.03068954927257744,"29":-0.16870317560037268,"30":0.018562885486048848,"31":0.12507617421259476,"32":-0.025304622486579734,"33":0.24570201201959946,"34":-0.2797331995070842,"35":-0.019777174561612956,"36":-0.07869624549550398,"37":0.272293336809161,"38":0.01769071999647499,"39":0.026884332656740496,"40":-0.03904152466314165,"41":-0.11718254135199332,"42":-0.1557872449326352,"43":-0.008518993321449923,"44":0.08352792488552685,"45":-0.0959488822867085,"46":-0.10337051498743284,"47":0.059587715912360235,"48":-0.14062968651803615,"49":0.014715864687147013,"50":0.15747665574935962,"51":0.21060078164117407,"52":0.016862337708539597,"53":0.014020535396127236,"54":-0.18388697769414017,"55":-0.11652924365163897,"56":0.07766961986921866,"57":-0.047540783426739994,"58":-0.13144682667144192}},{"sx":1,"sy":1,"depth":59,"w":{"0":-0.01169941445583847,"1":-0.09291436924280089,"2":0.001264796245937644,"3":-0.1496573195309869,"4":-0.12337142968393085,"5":0.21677829946991914,"6":-0.14328520864670888,"7":-0.2512807486719079,"8":0.15246724917107923,"9":-0.0501295392834679,"10":-0.07130334261854218,"11":0.14041496276543045,"12":-0.12292149372103164,"13":-0.0012611972100043205,"14":-0.11192691761421579,"15":-0.05293760700506056,"16":-0.0975502988318229,"17":-0.10067238730244898,"18":0.06249027840690233,"19":0.06747948395158802,"20":-0.11658028741377008,"21":-0.21491360212005725,"22":0.006197025976767737,"23":-0.14737300082254437,"24":-0.03230453811657434,"25":0.08996610157923995,"26":0.13197046042895189,"27":-0.2672563174038595,"28":-0.020051275153196418,"29":0.014201150848578845,"30":-0.19115178645818207,"31":-0.060494187134781656,"32":0.04732152930545674,"33":0.06346799883496099,"34":-0.2127390712007511,"35":0.10355166211926801,"36":-0.02559861663879199,"37":-0.10176644794144984,"38":0.09356154752554205,"39":-0.13999783994852208,"40":-0.13724403895509601,"41":0.0784118220869882,"42":0.01254427966226475,"43":-0.11154132335789638,"44":-0.03487836612980583,"45":-0.07593009574861581,"46":-0.04291441418681821,"47":0.04955733231213985,"48":-0.1948861386713742,"49":-0.09323028375006776,"50":0.05912809901675187,"51":0.20400943047809675,"52":0.09809377937577406,"53":0.07123783061480281,"54":-0.15325010676368198,"55":-0.1498863447522938,"56":0.0820371289382933,"57":0.08851779726613264,"58":0.0008645791727136267}},{"sx":1,"sy":1,"depth":59,"w":{"0":0.29448366577556173,"1":-0.38085255270056606,"2":0.12483573556369607,"3":0.35776632029856076,"4":-0.36791908881699487,"5":0.15953732243282842,"6":0.32396257306085174,"7":-0.3300438543754756,"8":0.15895302562945365,"9":0.05325694886830574,"10":-0.33251973880147845,"11":0.12874824537878476,"12":0.16700766306606513,"13":-0.26695036123892113,"14":0.1118203789824522,"15":0.01946336583988501,"16":-0.18655920877987017,"17":0.16251684363647018,"18":0.13976675418815723,"19":-0.09397055263721274,"20":0.10418228109532253,"21":0.06143121071523361,"22":-0.05764666611226446,"23":0.16703399114151762,"24":0.11151343610194998,"25":-0.0046696526902857746,"26":0.1758781478691492,"27":0.0997610346734711,"28":-0.25586549486661997,"29":0.0932827983023681,"30":0.043511145831777696,"31":-0.13182552311250662,"32":0.18775935304322044,"33":0.161718817300713,"34":0.04200133835070966,"35":0.14567003794399339,"36":0.14419712498456652,"37":0.04367917174699331,"38":-0.1546557781687772,"39":0.08051884870277928,"40":-0.08942114861819374,"41":0.010941484654943214,"42":0.19543139415588237,"43":0.049917700344726014,"44":0.11612459542548663,"45":0.09868868060799707,"46":0.23229532128426936,"47":0.029647895588570353,"48":0.06506308050832554,"49":-0.08303281194056536,"50":0.02519673364873253,"51":-0.07725751784803583,"52":0.06772301887016277,"53":-0.07481194017110741,"54":0.026549888354441796,"55":-0.06732107116491871,"56":-0.0017104166874296733,"57":0.04350577301254185,"58":0.11060400699949734}},{"sx":1,"sy":1,"depth":59,"w":{"0":-0.16552531178121122,"1":-0.3043523488525416,"2":0.08736393430213252,"3":-0.04145817473873726,"4":-0.23334277087552865,"5":0.15349230971383881,"6":-0.06132493842574205,"7":-0.08171104056477418,"8":-0.007697584089034233,"9":-0.03348871425012469,"10":0.03889950650427598,"11":0.04380607023341492,"12":-0.04847022094109781,"13":-0.0066433149103959695,"14":-0.026113732881243225,"15":-0.1365521627173418,"16":0.10996839495475633,"17":0.051658428824629885,"18":0.12470840813679644,"19":0.2088960721907031,"20":-0.04859630833137242,"21":0.058736230893124936,"22":0.03886441758301356,"23":-0.032732147421864505,"24":0.08463149635192745,"25":-0.12020573648472471,"26":0.0007757613929623178,"27":0.033623062838340566,"28":-0.088910845606359,"29":0.17774421631095969,"30":-0.0875176059157892,"31":-0.11750105919634295,"32":-0.09385749038234396,"33":0.08221431835789103,"34":0.23697334251404084,"35":0.1250671990970034,"36":0.05373576521258564,"37":0.08215811363714831,"38":-0.008907786845257839,"39":-0.0006785096179970007,"40":0.16443097022056305,"41":0.07053877150773384,"42":0.09308822765489479,"43":-0.182775140252379,"44":0.007843993719028424,"45":0.03858732676579518,"46":0.026018915840715102,"47":-0.0013347595247450706,"48":0.04707571349622584,"49":-0.01452299219987566,"50":0.046621526417304694,"51":0.1784151901622714,"52":0.10742610118770571,"53":0.15075201332209198,"54":0.05932430130351172,"55":0.07308797258264514,"56":0.06260887182356063,"57":-0.13769539048578625,"58":-0.11478393987529745}},{"sx":1,"sy":1,"depth":59,"w":{"0":-0.22709221007461428,"1":-0.02691424781932831,"2":0.2041471312860782,"3":-0.0781231222434574,"4":0.1345286870979633,"5":-0.009427157810120544,"6":0.05695981868213086,"7":-0.0054407530703661925,"8":0.027964205586810894,"9":0.08277422913205223,"10":-0.011933395394800303,"11":-0.014148649025793367,"12":-0.03685921512433007,"13":-0.038700982987972136,"14":0.16962744806241659,"15":0.22219175215485154,"16":0.07215813388999749,"17":0.053105567625379185,"18":-0.06140094728432828,"19":-0.05937799465017128,"20":0.16953002815633772,"21":0.07913381009659132,"22":0.09384533516015811,"23":-0.12125199156813912,"24":0.1381382847297892,"25":0.10143888972589987,"26":-0.05628894112658798,"27":-0.1891235254432734,"28":-0.16965224007872945,"29":0.043053235629230795,"30":0.08824666608644875,"31":-0.0013257607716557587,"32":0.23388337673939913,"33":-0.0034030178717695775,"34":0.0021433530592055963,"35":-0.04801638197487587,"36":0.026118920048643593,"37":0.03225115681973334,"38":0.040999889257966604,"39":-0.04515701052982299,"40":-0.046207363335624835,"41":-0.11127567992024147,"42":-0.04933507956114549,"43":0.05191270892626131,"44":-0.014459650110691395,"45":-0.11154113796144927,"46":0.01656910471203341,"47":-0.07972404360753671,"48":-0.04637120503784753,"49":-0.05370328415121385,"50":-0.19373874880469272,"51":0.11002323919692815,"52":-0.14816954758821743,"53":-0.07769887770162003,"54":-0.03743380052803684,"55":-0.021869418858058154,"56":-0.05133528577730045,"57":0.05928800070242715,"58":0.08552142689314396}},{"sx":1,"sy":1,"depth":59,"w":{"0":0.23104874894311608,"1":0.12511313353963088,"2":-0.046607106528704,"3":0.30294139817864796,"4":0.28883363262494177,"5":-0.15707311978281016,"6":0.14200292711395124,"7":0.12707679923399742,"8":0.09977764068405086,"9":0.1749272587492918,"10":0.16190133380872335,"11":0.0649495181437558,"12":-0.061733293138624565,"13":0.09048867556137526,"14":-0.11553844743063917,"15":-0.024064341386817525,"16":0.1606472484849153,"17":-0.05427636124755697,"18":-0.05982932649043149,"19":0.04513761730564238,"20":-0.041376204195027445,"21":-0.13340276683552119,"22":0.06578226044684607,"23":-0.047763921977288265,"24":0.20860262970871046,"25":0.14942050707790808,"26":-0.10728446303955406,"27":0.0882282115007802,"28":0.06715698536062946,"29":-0.03137362338636742,"30":0.09512035543416224,"31":0.028619816290824995,"32":-0.03479111725941965,"33":0.1137956081643414,"34":0.0364684346761046,"35":-0.045965426306219206,"36":0.12489943743097096,"37":-0.13644278686570643,"38":-0.1911767750837616,"39":0.14195495023888413,"40":0.015473964744120067,"41":0.1382207924424735,"42":0.10678081558818873,"43":-0.024722148171005445,"44":-0.1464387365372341,"45":-0.08339820688841754,"46":0.08187083188804875,"47":-0.0005058339914531799,"48":0.055225811640116494,"49":0.06287133824408309,"50":-0.040204186228666894,"51":-0.09441714611208128,"52":0.02510167598513446,"53":0.0017002985279001557,"54":-0.09216444757529019,"55":-0.06131823826311328,"56":-0.03692031501908532,"57":-0.20541416625767775,"58":-0.05529870001262829}},{"sx":1,"sy":1,"depth":59,"w":{"0":0.21618369458413367,"1":0.008076868301764588,"2":0.13137054306848833,"3":0.1644793223545938,"4":-0.18411974270583575,"5":0.14980816938013783,"6":0.043796629651279874,"7":-0.16320925023865918,"8":0.052486002221998486,"9":0.08607637825994141,"10":-0.2388395106968351,"11":-0.17553655555304581,"12":-0.021045539693992928,"13":-0.29867989370850867,"14":-0.03869552158377944,"15":-0.05774084690518675,"16":-0.08866728136402932,"17":0.10531148930880803,"18":-0.022549701187147424,"19":-0.09472987133031618,"20":0.18597276127796075,"21":-0.22749317836051863,"22":-0.04495689997473596,"23":-0.17850893711584237,"24":-0.05621061003397516,"25":0.07081418129819982,"26":0.14886010558827137,"27":0.13811899221376897,"28":-0.05991742096692415,"29":0.07841517232401529,"30":-0.08918640355080644,"31":-0.13929779268709902,"32":-0.009469654100767718,"33":0.118773822462334,"34":-0.12999924874670526,"35":0.12452469482818061,"36":0.1674417724750323,"37":-0.04719339635607799,"38":-0.13569266936976032,"39":-0.03564726562452517,"40":-0.11621351970015154,"41":0.08455530045608114,"42":-0.16381478144451211,"43":-0.09814946600779119,"44":0.047137332116933155,"45":-0.14096309686785646,"46":0.09745001704367655,"47":-0.005893804164528804,"48":-0.06149892401982538,"49":-0.12871361706338746,"50":0.052804327427588706,"51":-0.08067972666179493,"52":-0.11999282041883057,"53":0.09191047033012925,"54":0.023941228263887043,"55":-0.073685836581924,"56":-0.0663586170311609,"57":0.07824048803151186,"58":-0.06482916218052966}},{"sx":1,"sy":1,"depth":59,"w":{"0":0.1667092067335173,"1":-0.5920179403179776,"2":0.14980059144942162,"3":0.19081396412485194,"4":-0.7366524703688982,"5":0.20866962882906143,"6":0.22917631000323102,"7":-0.6741031646360737,"8":0.13150172163139512,"9":0.036244215266656,"10":-0.7522833457685416,"11":0.2573438282092497,"12":-0.0012477854931226275,"13":-0.6835361886258633,"14":0.31186517703381184,"15":0.17964616169556247,"16":-0.5660906816440551,"17":0.188968342391711,"18":0.13297184396253878,"19":-0.4418744135862451,"20":0.15162120011631217,"21":0.03047833011646735,"22":-0.3654641751486859,"23":0.12630559220579332,"24":0.31067690042853047,"25":-0.12082883740967289,"26":0.058982715271043686,"27":-0.023230800526631186,"28":-0.3268009796987857,"29":0.10269131016600401,"30":-0.026827102390969096,"31":-0.19564629256647023,"32":0.07152703240994891,"33":0.023565701816109022,"34":-0.26016385443257584,"35":0.20465425631690837,"36":-0.016922855424467677,"37":-0.14323646490167152,"38":0.02369627616548571,"39":0.12467898126901714,"40":-0.2294040815409348,"41":-0.035628639444340006,"42":-0.017890337613519134,"43":0.000323014944381345,"44":-0.016889799228488465,"45":0.00902525139763535,"46":-0.01777181383868041,"47":-0.1402960782875754,"48":0.18382989977023384,"49":0.07055556193711059,"50":0.09802058100871543,"51":-0.03579990640579542,"52":0.04432781062664208,"53":0.04741596293528216,"54":0.07728396234016553,"55":0.14146332846275766,"56":0.17172552543487812,"57":0.15909903921999205,"58":0.20255856644378079}},{"sx":1,"sy":1,"depth":59,"w":{"0":-0.0035043125830781256,"1":0.04182352782853337,"2":-0.11748369088037584,"3":0.042601680052225865,"4":0.06380748493054068,"5":-0.009075941560623333,"6":0.06855067129706524,"7":0.1659017734525112,"8":-0.23637293796317907,"9":-0.06924892853032605,"10":0.04294731714372595,"11":-0.06317474257791764,"12":0.17728613626287917,"13":0.01120656086575389,"14":-0.0544207281057355,"15":-0.1111738153185083,"16":0.16207126942377975,"17":0.13827392149005105,"18":0.07403312155550992,"19":0.008898309428213942,"20":0.13647639785047685,"21":-0.04537254620116228,"22":0.006442318158292043,"23":-0.05223881568444989,"24":-0.02923402785685861,"25":-0.09489458697454756,"26":-0.059463468215649025,"27":0.08863771427570431,"28":0.2702056071805505,"29":-0.08361887998157402,"30":-0.04581218038469202,"31":0.061084069677067816,"32":-0.2228056703434081,"33":0.21971323375755508,"34":0.08619459008466165,"35":0.059414552975724885,"36":-0.027173203075283255,"37":0.09315506930397308,"38":0.008251123812407833,"39":-0.08515836943388475,"40":-0.1393418588442448,"41":0.03605894461569354,"42":-0.019515317602664343,"43":-0.04587507127755826,"44":0.055674120907073084,"45":-0.051564379112289865,"46":-0.058925105622934175,"47":0.015767357773991356,"48":0.15934926354407883,"49":-0.01574235787727876,"50":-0.011143593596219584,"51":-0.09607101262038241,"52":0.027765662495366134,"53":0.05821425641618248,"54":-0.14197553492867226,"55":-0.08079661393596874,"56":-0.1829853484868501,"57":-0.008477409197672413,"58":-0.08858569537543666}},{"sx":1,"sy":1,"depth":59,"w":{"0":0.04409405761651718,"1":-0.49562722072904875,"2":0.2732841966748722,"3":0.03993637745689404,"4":-0.4277687282458193,"5":0.22543984225026736,"6":-0.14574282118793028,"7":-0.375217343177591,"8":0.24741469794483295,"9":-0.003098505690110984,"10":-0.6475446457248806,"11":0.45643585739488873,"12":0.21344428721376468,"13":-0.5370959256685854,"14":0.22573442402208585,"15":0.19430002737034924,"16":-0.29437248111314035,"17":0.46057917807916865,"18":0.25891707809529124,"19":-0.2486157151080429,"20":0.10849853757919636,"21":-0.005629604845435301,"22":-0.14187307841619773,"23":0.06962255644406629,"24":0.09333541787314018,"25":0.062184878398691336,"26":-0.07451231376603926,"27":-0.08733171233466998,"28":0.01520947040891377,"29":0.036308116654284454,"30":0.08397821949287933,"31":-0.035064177542693545,"32":-0.09748893781491724,"33":-0.14898342433480058,"34":-0.1479135765074647,"35":0.11611693954732973,"36":0.011483234313691443,"37":-0.2609192694769121,"38":0.28108160861871145,"39":-0.03841228538036067,"40":-0.026910123922942557,"41":0.22503012329922067,"42":0.08956303678765538,"43":-0.047209434878775984,"44":0.03078266698923154,"45":0.037298509890631784,"46":-0.2787567405864607,"47":-0.11095714547741531,"48":0.03804334116987799,"49":-0.0017587882049821977,"50":-0.05180122589835522,"51":-0.046754438469375416,"52":-0.15541212269810714,"53":-0.09394567595407913,"54":0.09231234982706381,"55":0.14203546306478895,"56":0.10566915701361915,"57":0.21244542629667562,"58":0.09168305152374161}},{"sx":1,"sy":1,"depth":59,"w":{"0":0.1416802623561457,"1":-0.19867848454241435,"2":-0.036301378499036946,"3":0.02259351808003926,"4":-0.039313777217391696,"5":-0.03972934710031665,"6":-0.08532467380017271,"7":-0.1906870583314918,"8":0.1169446498298213,"9":-0.13227360043589784,"10":-0.40386642660999383,"11":0.1805005160401032,"12":0.0430085467339604,"13":-0.059180003705999185,"14":-0.03317312735215129,"15":0.0016755430290489731,"16":-0.23167011141354177,"17":0.2298977353319082,"18":-0.2553186199527819,"19":-0.14064039922303806,"20":0.10411052887620839,"21":-0.25802237456835836,"22":-0.022103839124324526,"23":0.19381984726928106,"24":-0.31403152943069945,"25":-0.0024713494587138497,"26":0.028634060858370627,"27":0.3172404008967797,"28":-0.03798309354102048,"29":-0.10688901847792122,"30":-0.03959980591303819,"31":0.1119843617406847,"32":0.0671180692692042,"33":0.018714855867712325,"34":0.07064696103152841,"35":-0.09922567374235114,"36":-0.14447826942890113,"37":-0.07035409043965633,"38":-0.10457547275245734,"39":-0.10302226938173865,"40":-0.053092934009760395,"41":0.13349335495253759,"42":-0.09410482799995325,"43":0.08016825502582982,"44":-0.14220083977063072,"45":0.06951074923772074,"46":0.2644153221012795,"47":-0.06197574937072183,"48":-0.04405055601986369,"49":-0.09417232683556594,"50":-0.07188801292702501,"51":-0.21454862951059797,"52":0.04961365768776105,"53":-0.1282378925555208,"54":0.18478564295887948,"55":0.12068824900762602,"56":-0.1204319184670509,"57":0.04823073188783702,"58":0.12677811271841197}},{"sx":1,"sy":1,"depth":59,"w":{"0":-0.09386467721519419,"1":-0.04963909934201007,"2":-0.07247556578735947,"3":-0.007510035304301944,"4":-0.0694499213017744,"5":-0.21454677653652984,"6":0.04095592331338835,"7":-0.1910520189508479,"8":0.21071267797466364,"9":0.009543858979264427,"10":-0.13535926777021406,"11":0.1078355433282669,"12":-0.11453451329183827,"13":-0.019330027823227864,"14":0.022181673501537873,"15":0.01121967962229211,"16":-0.1285032446401472,"17":-0.031237913371996308,"18":0.031005072118300746,"19":0.13531926154453222,"20":-0.053655753210946774,"21":-0.12809326592999365,"22":0.1420270466779173,"23":0.015878038984957106,"24":0.10652376182097552,"25":-0.07133745495107537,"26":0.08403279454844108,"27":0.08444015969021242,"28":0.05468710008570304,"29":-0.006844045976938864,"30":-0.030809117451689766,"31":-0.005690692966185902,"32":-0.042306199118776096,"33":-0.11119082225742917,"34":-0.19974773907149557,"35":-0.13447728523555708,"36":0.10281872982526596,"37":0.055510442378233577,"38":-0.027026926244281716,"39":-0.10781775083375333,"40":0.017016886193993407,"41":-0.12141137262500058,"42":-0.054115027719244015,"43":-0.22909382535274825,"44":0.12086244070097298,"45":-0.03299887798971905,"46":0.11043802151523498,"47":0.173902811856855,"48":0.017124970913460498,"49":-0.17236609761383218,"50":0.13295731115632606,"51":0.019010168615365013,"52":0.12212313465230326,"53":-0.006379855887502987,"54":-0.10996518174812195,"55":0.044327954131829696,"56":-0.006469784046591037,"57":-0.011151531854921687,"58":-0.022874806574864796}},{"sx":1,"sy":1,"depth":59,"w":{"0":0.03295109293568721,"1":-0.014863436481805442,"2":0.04826278854539491,"3":0.0068200497508101605,"4":0.008626304920940865,"5":-0.14360904092046325,"6":0.0018513705863881268,"7":-0.2808078296095614,"8":0.16283749581259482,"9":0.0740107144535175,"10":-0.30314257127832894,"11":0.09497985233983516,"12":0.2537065991297116,"13":-0.5307530772143831,"14":0.3074912408388858,"15":-0.09657565968837342,"16":-0.6875487193476267,"17":0.10262539748802692,"18":0.06531446081808391,"19":-0.5367724638373194,"20":0.023951469221648834,"21":-0.1745062095357307,"22":-0.4333479819454037,"23":0.05044863284642762,"24":0.0480671165020874,"25":-0.2711645669994906,"26":-0.028634112339926632,"27":0.2113458124455549,"28":0.024456138681895993,"29":-0.025589195381222875,"30":0.01772245927290246,"31":0.03289258799941082,"32":0.0855776315041785,"33":-0.011001731092564606,"34":-0.022195869547761288,"35":-0.007963165213766788,"36":0.04621621303259877,"37":-0.15063192945631193,"38":0.03791107154844245,"39":0.00125609381454227,"40":-0.04177493437298951,"41":0.07785790416937266,"42":0.04534312677588288,"43":-0.221124223613487,"44":-0.003007543638107268,"45":0.0193474934923294,"46":-0.019530486448037933,"47":0.0869801155929352,"48":-0.1102332772857566,"49":-0.034974463114797884,"50":-0.015596385396172759,"51":-0.040847508271691875,"52":0.03381109945483735,"53":-0.1660838333615449,"54":0.07643861983240102,"55":0.14255056290146692,"56":0.1573070735658061,"57":0.10531943308464031,"58":0.0650980083324274}},{"sx":1,"sy":1,"depth":59,"w":{"0":0.2655752843804423,"1":0.24921423401511378,"2":-0.1708874712922359,"3":0.10298207572911645,"4":0.2821232814710978,"5":-0.11715958666081534,"6":0.01212740293445316,"7":0.16033398424651119,"8":-0.2736743716784291,"9":0.09231339624275858,"10":0.29881926321140734,"11":-0.07695799583106581,"12":0.06256739157754528,"13":0.4107565629358904,"14":-0.10375658633065485,"15":0.23758243619620772,"16":0.051619402489437936,"17":-0.3374788099494941,"18":0.17509496640198122,"19":-0.025848273636519044,"20":-0.14078297654265146,"21":-0.03238388560619196,"22":-0.09767221954182781,"23":0.0965063991637546,"24":-0.010204443273275823,"25":-0.2268604481277809,"26":-0.03641651996162492,"27":0.24146886358430544,"28":0.27487607214558146,"29":-0.08904373900042166,"30":0.17401234880890623,"31":0.07387006860761844,"32":0.08154021455443618,"33":0.08854846909962172,"34":-0.06448955184282555,"35":0.0724433600240228,"36":-0.032279330468193576,"37":-0.06917437194664987,"38":0.005539874551976144,"39":0.1674275266468319,"40":-0.06225392699609922,"41":-0.14880774885296183,"42":0.10407873416896787,"43":-0.08715307853567751,"44":0.042133128972143594,"45":0.06094514151439433,"46":-0.0803711860545507,"47":-0.09527239738371528,"48":0.07238370873483893,"49":-0.1714041981048474,"50":-0.10371701249443471,"51":0.052083200457101915,"52":-0.33512422255975444,"53":-0.024678639473353563,"54":-0.004220427267568758,"55":0.0016863108836567943,"56":0.01236172454310157,"57":0.030129244440675034,"58":-0.06606183724857312}},{"sx":1,"sy":1,"depth":59,"w":{"0":-0.19865698558807918,"1":-0.2960782025052042,"2":0.15188820149905416,"3":0.08857041288106528,"4":-0.21073582621570847,"5":0.03976416067700641,"6":0.10235309637882095,"7":-0.4407741613480747,"8":0.2761986038080162,"9":0.07982228161890668,"10":-0.8011525704127573,"11":0.1342276767149388,"12":0.027815416545825793,"13":-0.7336042299347428,"14":0.305044799223482,"15":-0.004794957545432134,"16":-0.6107504635183716,"17":0.20878400581939194,"18":0.08333668321852601,"19":-0.538251295726073,"20":0.3307428545184507,"21":0.2827209524505176,"22":-0.4907657784925754,"23":0.01706558769658444,"24":0.11696994715913965,"25":-0.4219939038267712,"26":0.06503722064512121,"27":-0.03173222226736063,"28":-0.06116478492533883,"29":0.05560450765734253,"30":0.08547980629558538,"31":0.08236941856859202,"32":0.007917979494302922,"33":-0.0760145888969238,"34":0.09627218120797393,"35":-0.02234568434693328,"36":0.14737838670042436,"37":-0.06953342754171911,"38":0.03438069026517691,"39":0.0004991556457209497,"40":0.10752854864766725,"41":0.07296283475120886,"42":-0.027218634648972576,"43":-0.13215906028635313,"44":0.10956817813648763,"45":0.0339367348114205,"46":-0.26533787583117496,"47":-0.014118484395692429,"48":0.06254171340156249,"49":-0.16720698143301968,"50":0.12400658684306422,"51":0.2513253847417112,"52":0.017540951104052575,"53":0.1290854845201001,"54":0.19052292695312084,"55":0.12232682477177537,"56":0.12771304773003517,"57":0.15244855884045627,"58":0.1076253440258615}},{"sx":1,"sy":1,"depth":59,"w":{"0":-0.09397935046716331,"1":-0.026743434818150152,"2":-0.16714736464596017,"3":-0.04651078224637657,"4":-0.2511909691670558,"5":-0.09660727654438468,"6":-0.05834232650222045,"7":-0.2587227408137817,"8":0.16350468968916085,"9":-0.03141392738496653,"10":-0.15063073307866254,"11":-0.23432630011725863,"12":-0.07791855863355342,"13":-0.0406585777090567,"14":-0.016063731805633984,"15":-0.0869810420246432,"16":-0.01513450611041201,"17":0.17110441170241825,"18":-0.17244521903664603,"19":0.09403986545339743,"20":0.1528214194123222,"21":-0.09073647913502815,"22":-0.06526949962476933,"23":0.10360626688492901,"24":-0.10195216948699426,"25":-0.1905297366389685,"26":-0.02068810917243171,"27":-0.00702836031471955,"28":-0.24023963457769273,"29":-0.056531376360522224,"30":0.08461024356385753,"31":0.10804488200841296,"32":0.061817128369722016,"33":-0.09800697832309638,"34":-0.09786336250266382,"35":-0.10768248608710573,"36":-0.06228220418285392,"37":-0.009744568962161334,"38":-0.09771979597406771,"39":-0.1106636102631889,"40":0.021803938046372873,"41":-0.0009802965744261968,"42":-0.23646847055209466,"43":-0.06312595831799396,"44":-0.1023727452498975,"45":-0.17941566805643017,"46":-0.10173289313200828,"47":-0.05614546760672387,"48":-0.12249720858550714,"49":-0.2629487164835632,"50":-0.06162448617924174,"51":0.1689159674296586,"52":-0.17493309280230973,"53":-0.08249501449718069,"54":-0.06762370691904913,"55":0.14548805562316233,"56":-0.11492166861845822,"57":0.1698222293893911,"58":0.0349601848586383}},{"sx":1,"sy":1,"depth":59,"w":{"0":-0.15227655709803897,"1":0.22043066577236414,"2":-0.06058250575010648,"3":0.10147188475136804,"4":0.015508891906925342,"5":0.007314061874411849,"6":0.036608036181110575,"7":0.050878916005103546,"8":-0.007113869896401916,"9":-0.2228714336483945,"10":0.14473448560891525,"11":-0.07802336076035339,"12":-0.061045713635604355,"13":0.14651817441162238,"14":-0.019862482096576543,"15":0.03701432421890632,"16":-0.043237190666761245,"17":0.057865308274347264,"18":-0.05437203661704521,"19":0.09584499231149096,"20":0.13576478566402816,"21":-0.07598938596724115,"22":0.2511209018593955,"23":0.027670323255764014,"24":0.035749845062931274,"25":0.13285428860132575,"26":0.018673125318322836,"27":0.008262789899940523,"28":0.07513287259529638,"29":-0.03598613124108694,"30":0.06467662916045529,"31":-0.024324579066823917,"32":0.14131806947605635,"33":0.07927355329342879,"34":0.06258932099530261,"35":0.057779206812824266,"36":0.013465111248602394,"37":0.005463578505253605,"38":0.07821262046112139,"39":0.04420742943734674,"40":0.07378868709766913,"41":-0.2218693836724633,"42":-0.14935046092456247,"43":0.021894184270273752,"44":-0.01882700299388446,"45":-0.0031879352028878647,"46":-0.024215202092524816,"47":0.06692681942209436,"48":0.13063971577895328,"49":-0.02777568855997441,"50":0.0712996569117959,"51":-0.0955603235145247,"52":-0.058798383473160104,"53":0.06612507499139021,"54":-0.13291035553865307,"55":-0.02837803425104683,"56":-0.08505547548220943,"57":-0.07312503123537345,"58":-0.05953514807496488}},{"sx":1,"sy":1,"depth":59,"w":{"0":0.12435218065974908,"1":-0.6409438188418097,"2":0.2641642272415644,"3":-0.19181567564947116,"4":-0.39704116759953434,"5":0.17684806473270073,"6":-0.11028245150917604,"7":-0.5295892375107201,"8":0.09826164781979603,"9":-0.015511246328928509,"10":-0.6131768152634748,"11":-0.020055178121060932,"12":-0.10053284757500047,"13":-0.44859689247896356,"14":0.08161841912334972,"15":-0.03200185452231835,"16":-0.2797314174481999,"17":-0.17103498006964932,"18":-0.12927055104461543,"19":-0.2954273474333555,"20":-0.039238318072577875,"21":-0.0023066279941655957,"22":0.06958429343400264,"23":-0.18094957317152713,"24":-0.40002240011129936,"25":0.07183940342089903,"26":-0.18111679874838432,"27":0.13349163553944288,"28":-0.3127922831976176,"29":0.14486128858540642,"30":0.014677967888403623,"31":-0.17234409235560116,"32":0.19272899773534827,"33":-0.1046820578536562,"34":-0.2880910810984284,"35":-0.04615311409597758,"36":-0.24111254021156825,"37":-0.13400609457521426,"38":0.010839396383658093,"39":-0.15208941531506243,"40":0.008288420116862965,"41":0.025273967162282612,"42":0.013273598217407314,"43":0.011882142877706158,"44":0.10208759703749143,"45":-0.10881897548626832,"46":-0.045316359066242,"47":0.1064130717131004,"48":-0.07598883284067848,"49":0.06174158930720224,"50":-0.16616973253318784,"51":-0.13020129453714635,"52":0.17460335500907664,"53":-0.19233209796134432,"54":0.1988414096029584,"55":0.19013712363264,"56":0.16420285445165733,"57":0.21429866912609424,"58":0.18592235684366676}},{"sx":1,"sy":1,"depth":59,"w":{"0":0.019054383323559014,"1":-0.020421315920987865,"2":-0.1410486558625224,"3":0.1881827669827336,"4":0.13230446902036072,"5":0.07172743186159629,"6":0.014659274290605758,"7":0.17933150679495174,"8":-0.2685075629999994,"9":0.12412960318044487,"10":0.04009794758999262,"11":-0.2801464935180325,"12":-0.15087596412347914,"13":0.03930701739994263,"14":-0.22760356955619454,"15":0.17646161011497496,"16":-0.05075327544624833,"17":-0.16868120197139427,"18":-0.014974780625976642,"19":0.19935417005129474,"20":-0.3487516159933394,"21":0.06981089636989439,"22":0.0997825120035434,"23":-0.09611469912154891,"24":0.13187887807862045,"25":0.004928675019369999,"26":-0.1661282130494415,"27":-0.022606575312134527,"28":-0.08737155521061538,"29":-0.1374175229645289,"30":0.0012208008547909773,"31":0.054097001192490154,"32":0.04173973743375295,"33":0.06275300937759275,"34":-0.0678025466353253,"35":-0.0916932080538865,"36":0.006930669962262935,"37":0.10602571744372617,"38":-0.11406464735747161,"39":0.036362937573088484,"40":-0.02539049753236541,"41":-0.3073900779435094,"42":0.024677072990957262,"43":-0.13541214970212886,"44":-0.055091604509598206,"45":0.1450489568418275,"46":-0.04174564752661126,"47":-0.23183772066733865,"48":0.10023203850291124,"49":0.024270503689816234,"50":-0.02630645686466974,"51":0.151634573146918,"52":0.012138742080078351,"53":-0.147756803341686,"54":-0.046447813216484855,"55":0.03491248892198257,"56":0.01702907103015009,"57":0.07488740833519762,"58":-0.014722067866077458}},{"sx":1,"sy":1,"depth":59,"w":{"0":-0.1344151081912212,"1":-0.10347384416156026,"2":0.036894145057550544,"3":-0.02243027849574584,"4":0.08667897282691006,"5":0.08761077739998559,"6":-0.146743028284906,"7":0.08058456173246314,"8":0.11542834473358216,"9":0.121953751286342,"10":-0.0769977573647395,"11":0.11373628855041905,"12":-0.02832200863881452,"13":-0.05065342020223451,"14":0.0033911409275045453,"15":-0.05308655389006721,"16":-0.09799436270585327,"17":0.1074558535025386,"18":0.0318234407242199,"19":-0.028562584678156384,"20":-0.0976619391922556,"21":-0.002730497324608167,"22":-0.13702447397726591,"23":-0.08031460534216121,"24":0.2683539594024017,"25":0.037358750349616165,"26":0.0071471161001034995,"27":-0.0086665623139521,"28":0.0346296108084096,"29":-0.079492225941269,"30":-0.22739947992330536,"31":-0.05608311757271911,"32":-0.0020920926370625193,"33":-0.04239529481769938,"34":0.047933356383907805,"35":-0.16443759054682922,"36":0.09089727755806583,"37":-0.05916122271735499,"38":0.2611807097513027,"39":-0.03712635713434675,"40":0.13320221682681566,"41":-0.13903035969896455,"42":0.03447487975468702,"43":0.23441057124574177,"44":-0.14441140366967217,"45":-0.019910075149311958,"46":0.02607602277197131,"47":-0.045540059942593435,"48":0.19175492304676564,"49":0.04222586047466869,"50":-0.01022103281725416,"51":-0.05136893290597495,"52":-0.1594386385007161,"53":0.02957778667108919,"54":-0.10257007678313239,"55":0.05758955139980971,"56":-0.04354977531223913,"57":-0.015951055300616593,"58":-0.11152116769575333}},{"sx":1,"sy":1,"depth":59,"w":{"0":0.029161887637944646,"1":0.11672031974037478,"2":-0.1866803792324065,"3":0.1772363286909563,"4":0.12101248122515472,"5":-0.05829792339831138,"6":-0.00801801628660579,"7":0.012199242136069982,"8":-0.1577735478869496,"9":-0.03391730464128312,"10":0.026271906719877933,"11":-0.07697406703470651,"12":0.015690063764538978,"13":-0.06553566154315597,"14":-0.07576068102209231,"15":-0.151481812881662,"16":-0.11813887252232845,"17":0.005650259017210791,"18":-0.21330324433621148,"19":-0.04525362667565212,"20":0.1196159422612619,"21":-0.26089663563208243,"22":-0.1767169805798901,"23":-0.018792666720303206,"24":-0.13397166539443,"25":-0.12110397442986451,"26":0.12188665439360623,"27":0.018007842316210304,"28":0.04268402445824273,"29":-0.13117678409841332,"30":0.05571178670742623,"31":-0.01551434380346177,"32":-0.22325452213677932,"33":0.14801121945229145,"34":0.251417720841326,"35":0.10833471498958772,"36":-0.0872765279573328,"37":0.035341170617900465,"38":0.010174607800688632,"39":-0.023548647172200735,"40":-0.05448095197163696,"41":-0.060745429719000814,"42":0.12873597890918403,"43":0.0681720655082135,"44":-0.06546351650494937,"45":-0.0024819998172382466,"46":0.04851450197842101,"47":-0.24619270420203268,"48":-0.04510256429808963,"49":-0.01729047314748189,"50":0.07678968986695207,"51":-0.005039927721725113,"52":0.07920367174233431,"53":-0.040410428941571874,"54":-0.09867035185201031,"55":-0.026071048236090234,"56":0.07178352784634061,"57":0.004912699910008349,"58":0.13528758868694232}},{"sx":1,"sy":1,"depth":59,"w":{"0":-0.17795249842837876,"1":0.09405947763397765,"2":0.03639070060472607,"3":-0.015835123162399704,"4":0.11714970794909253,"5":-0.2005817156446757,"6":-0.09975816907001074,"7":0.05188891933391966,"8":-0.02654612339588071,"9":-0.096648810993847,"10":0.02776757594382925,"11":-0.08570169143911235,"12":-0.1440726874751179,"13":0.2127459686170994,"14":0.016937716142047105,"15":-0.08096554504454313,"16":0.038525502420214484,"17":-0.13709018699277506,"18":-0.06998830711685014,"19":0.11835395252806867,"20":0.052162825628136525,"21":-0.22454793399910591,"22":-0.06767410910183654,"23":0.0023272574922249567,"24":-0.21848735771266303,"25":0.053755452325149916,"26":-0.006830841996942096,"27":-0.11970787061442427,"28":0.18417471468503502,"29":0.1259643827151273,"30":-0.031585978670894015,"31":0.12355986636082712,"32":-0.13347104627734416,"33":0.03011610892134205,"34":0.044824956707614556,"35":-0.1631644009266422,"36":-0.24632755360628347,"37":-0.16781068567363489,"38":-0.37682823208525834,"39":-0.12295176956986338,"40":0.18045702656085924,"41":0.14019238817398452,"42":0.15133641916765242,"43":0.10998392231221722,"44":-0.000845089520362368,"45":-0.008495389404849283,"46":-0.020328350100504232,"47":0.04182628169838064,"48":-0.2413896782416537,"49":0.1435252344798149,"50":-0.1483494166228692,"51":0.09270895696928685,"52":-0.17459820242980528,"53":0.10162049847560578,"54":0.014451420478854,"55":0.058279655029534166,"56":0.17730333373746612,"57":-0.1780712013231166,"58":-0.23974109377865443}},{"sx":1,"sy":1,"depth":59,"w":{"0":-0.1300011767439963,"1":-0.06278350744398922,"2":-0.12633678513896135,"3":-0.02775452421683613,"4":0.09675872158816379,"5":-0.07998556418572716,"6":-0.05968464025294303,"7":-0.0002446985999476438,"8":0.011664978833539508,"9":0.03175553802257015,"10":0.06454993082785639,"11":0.024668363965897583,"12":0.022493036962177033,"13":-0.06145630004948573,"14":-0.024683854414312516,"15":-0.23115421126363903,"16":-0.06126710523774015,"17":0.039895572297427045,"18":-0.15721109378521392,"19":-0.12206232143233622,"20":-0.08175064496996572,"21":0.028998914620653727,"22":0.1292609754881378,"23":0.09340261641340887,"24":0.0241282095705271,"25":0.018386003438326547,"26":-0.1906373192416778,"27":-0.05891311348303661,"28":0.22438466178216696,"29":0.08369038574933897,"30":0.08116204535233967,"31":0.03992889796149505,"32":-0.08754907789961326,"33":-0.03979237959225946,"34":0.028440393244911828,"35":-0.07311929724429242,"36":-0.08554873309719008,"37":-0.0005398132945298008,"38":-0.03219884087791322,"39":0.14238527850380178,"40":0.031038951657095516,"41":0.054247551040443376,"42":-0.10349811584224367,"43":-0.06155467830388894,"44":-0.049581161045450066,"45":-0.14216605733746054,"46":0.04349191534361573,"47":-0.1063933634093304,"48":-0.22259024848858736,"49":-0.05563456521685807,"50":0.09054776811155982,"51":-0.2522334966978405,"52":-0.1621226274608857,"53":-0.0612835150287359,"54":0.09228257956649395,"55":-0.010314319436001345,"56":-0.07348996871689711,"57":-0.032691463062885916,"58":0.07288220828959065}},{"sx":1,"sy":1,"depth":59,"w":{"0":0.14110123032602243,"1":-0.05706401045501476,"2":-0.0005794549431494682,"3":0.3158894275030889,"4":0.18729693611871237,"5":-0.015823793635448734,"6":0.03028533914680119,"7":-0.023676851652532617,"8":-0.11388603618665194,"9":0.144675826878797,"10":0.10014994977447364,"11":0.06607092318849897,"12":0.025975112197052612,"13":0.1599435407054292,"14":-0.03639974183613188,"15":-0.2188097818124242,"16":0.19153221160409245,"17":-0.09143734365912291,"18":0.12252844456220693,"19":0.04178623298186277,"20":-0.008437447361678998,"21":-0.0034490332715478014,"22":0.12659022505273035,"23":0.046997111347724295,"24":-0.22955925261598611,"25":0.2088072639827673,"26":-0.18169043136594007,"27":-0.042037968250366674,"28":0.03812755603703085,"29":0.1222529351760698,"30":0.11910560209441905,"31":0.06899921183424522,"32":0.0023559204723687744,"33":0.08359822767307967,"34":0.06139888009318934,"35":-0.09129135178951149,"36":0.11979772555480875,"37":0.0323853340524514,"38":0.1165759520805187,"39":0.12228622947150247,"40":0.11452221771167856,"41":-0.04166228741588547,"42":0.0877921556199295,"43":0.04396274856672786,"44":-0.1877577623105661,"45":-0.15339178199529785,"46":0.18543147573823615,"47":-0.19844453289601344,"48":-0.04617483953057937,"49":0.04562270948709101,"50":-0.11065229783931003,"51":-0.2511146070550978,"52":0.12229598561747672,"53":-0.06363379093920303,"54":-0.09966379937376116,"55":-0.0666606000463891,"56":-0.038469243042534684,"57":-0.004201175670914456,"58":0.0327095761665344}},{"sx":1,"sy":1,"depth":59,"w":{"0":-0.136667030497583,"1":-0.0525135116920375,"2":0.02744768655902456,"3":-0.10023277539911768,"4":-0.024728389347140046,"5":-0.16291806509221898,"6":-0.18896472398872105,"7":0.05204455640986825,"8":-0.12316667815477818,"9":-0.001072812774747963,"10":0.1268765441100826,"11":-0.0746934414502656,"12":0.09860652568464034,"13":0.07285298135485468,"14":-0.13568403048645947,"15":-0.16045665812755694,"16":0.010279261240987716,"17":0.08438196258980217,"18":-0.02588488094917674,"19":-0.175353031245939,"20":-0.05555573390478715,"21":0.07854200527210348,"22":0.04444844504405556,"23":0.10624363532231786,"24":-0.03153235028248886,"25":-0.02296514090383187,"26":-0.05491867854514098,"27":-0.07139255278402161,"28":0.11467049616246416,"29":0.0339699648239465,"30":-0.033870330628898486,"31":-0.009919277901647849,"32":0.15584468205099364,"33":-0.065265702414771,"34":0.08651086329304046,"35":0.03032714343025677,"36":-0.14789526997154856,"37":0.21745205630451905,"38":-0.04311572484637409,"39":-0.10593896416383125,"40":0.1797808182889831,"41":-0.21990073956417294,"42":0.03163425397951968,"43":0.15879700656917442,"44":-0.05011011196751533,"45":-0.07664845516495597,"46":0.17085627538437811,"47":0.02434382405251499,"48":-0.03138330195354297,"49":-0.021185147966074496,"50":0.0050257442878776214,"51":0.09386354580815585,"52":0.06701852126456735,"53":0.28049965775721697,"54":-0.046113675148712036,"55":0.10205048680741648,"56":-0.031276246942727216,"57":0.2069417188192666,"58":0.02190597921175478}},{"sx":1,"sy":1,"depth":59,"w":{"0":-0.15505203657688751,"1":-0.20855832898063373,"2":0.2247408869390164,"3":0.008080638639784478,"4":-0.2078011336689087,"5":0.08087169489664596,"6":-0.10119870348681297,"7":-0.10602387315123252,"8":0.1234019696210941,"9":0.10267745614194604,"10":-0.18382113630421362,"11":0.07802825635048657,"12":0.019030212240206398,"13":-0.14034829241249322,"14":0.2128535649296971,"15":0.07399970377719978,"16":-0.09116322770700666,"17":-0.07365514205359565,"18":-0.007108520200758136,"19":-0.1518140147577048,"20":0.010369218108432646,"21":0.1147229920705293,"22":-0.22750799701981148,"23":0.11997338439470183,"24":-0.16432360825225462,"25":-0.1152008502834075,"26":0.055583185262120006,"27":0.13915534156990547,"28":-0.036385167839294213,"29":-0.17964374428346383,"30":0.04246442346231921,"31":-0.0066162246712540744,"32":-0.0006643117581689018,"33":-0.15365843484073835,"34":0.033693804087782546,"35":0.0949454602752136,"36":-0.056518589551068976,"37":-0.07730674006378284,"38":0.026221450814872704,"39":0.06191476840398765,"40":0.15896703061515702,"41":-0.05573639821509889,"42":0.04493475558628756,"43":-0.23892461344576776,"44":0.11265390734971943,"45":-0.1343755595604152,"46":0.09066503940977456,"47":0.06968312491206666,"48":-0.021805076060545485,"49":0.006152314235254966,"50":0.01927376394795434,"51":-0.06666574415105364,"52":-0.06483217962761444,"53":-0.2868887711916749,"54":0.03528143664203117,"55":0.06019965359352597,"56":-0.06964486028756242,"57":0.03760612270456997,"58":-0.1572282876471215}},{"sx":1,"sy":1,"depth":59,"w":{"0":-0.02065384357293244,"1":-0.04936393988198002,"2":0.0990723774832597,"3":0.05842154244730378,"4":0.012669995961887242,"5":0.09101977948662392,"6":0.033098274675110846,"7":-0.15192928270438766,"8":0.022703453235278396,"9":-0.039142268865766924,"10":-0.0754114021203025,"11":0.003691042148286365,"12":0.16579524581059943,"13":-0.03499712787421996,"14":0.0778020815621853,"15":0.1089599584112714,"16":-0.09269124635719744,"17":0.0028686770226748503,"18":-0.00656855896051733,"19":-0.004127855654805224,"20":-0.01287093639429831,"21":0.005997384420746077,"22":-0.11563779358859479,"23":0.14802506919869277,"24":0.14457620605959315,"25":-0.004350516713639215,"26":0.0782390539057675,"27":-0.005580786679468828,"28":-0.1326254714096348,"29":0.06443863338166923,"30":-0.12741548219141874,"31":0.12373454116893434,"32":0.11216725384927173,"33":-0.03376034379781311,"34":-0.016370769692669287,"35":0.09825729348263512,"36":-0.046002332751860255,"37":0.019464983871886346,"38":-0.03367293360730894,"39":0.016110394151730954,"40":-0.1774468952137362,"41":0.07242609709188635,"42":0.04095568506390658,"43":-0.03829209407609365,"44":-0.0423871220739987,"45":0.018611002899895708,"46":-0.06892659791902028,"47":-0.1626738636831163,"48":0.06774231350649795,"49":-0.022256131550766965,"50":0.07309291198085995,"51":0.1001747968317957,"52":0.05014427516872253,"53":-0.07391687845103527,"54":0.08506753045167258,"55":0.10554177055946261,"56":-0.0397278989192045,"57":0.02831356399688984,"58":-0.10411023920705298}},{"sx":1,"sy":1,"depth":59,"w":{"0":-0.054640115952545185,"1":0.13158513102593755,"2":0.062295588156586444,"3":-0.12009406860497819,"4":0.22760823906360853,"5":-0.08626550793725517,"6":0.005790983433040249,"7":0.20218551401400972,"8":-0.12026015035415179,"9":-0.006516199202870062,"10":0.0775669110373877,"11":-0.3364247288211566,"12":0.02459634552471162,"13":0.03584492613370275,"14":0.06498155594713517,"15":0.07536780227586412,"16":-0.1379439525754346,"17":0.018405027829485925,"18":0.08401902077568153,"19":-0.11701469018167562,"20":0.028485268227455913,"21":0.004802160769196471,"22":-0.21152685986083453,"23":-0.011750502041375881,"24":0.04819869189492589,"25":-0.1833163320702843,"26":0.12707810838770564,"27":-0.08737703321402068,"28":0.09480567850570025,"29":-0.06466735645220242,"30":0.0686383230889391,"31":-0.003152981764887199,"32":0.06681391228276898,"33":-0.14071213657125017,"34":-0.15697916707973675,"35":-0.08688103841152776,"36":-0.0076049990229396566,"37":-0.11569517792902004,"38":-0.040253947498227374,"39":0.0862727961916127,"40":-0.16483973821507486,"41":0.004098985869675559,"42":0.0980562911592174,"43":-0.08563399122302826,"44":0.10417934276194747,"45":-0.016437558145367074,"46":0.025712536649308202,"47":0.2631014169458548,"48":0.06876935644303135,"49":-0.05489443812027503,"50":0.08775814129477653,"51":0.11280973085831639,"52":0.061183534696547894,"53":-0.03645759679868295,"54":0.014301515602754937,"55":-0.08141096662045699,"56":0.023406032915676382,"57":0.11307244591949057,"58":-0.17555618961624628}},{"sx":1,"sy":1,"depth":59,"w":{"0":0.19547261154724976,"1":0.07244146008249525,"2":-0.026278637461155812,"3":0.3716892323586915,"4":0.20518445717221628,"5":0.1850669747617754,"6":0.10790492233013707,"7":-0.10081604309663865,"8":0.07332103681522663,"9":0.18631760064714398,"10":-0.18511914512167874,"11":0.08508980975071054,"12":-0.01839258719101358,"13":-0.2971615782794439,"14":0.05845601506741827,"15":-0.05875905908731568,"16":-0.18212787035036268,"17":0.09804847191999116,"18":-0.15876105187418685,"19":-0.4320934717919805,"20":0.06478361133774779,"21":-0.10995409460830646,"22":-0.15477715957151836,"23":-0.07589218622237279,"24":-0.058134934141366,"25":-0.11321710794113739,"26":0.16496162423944927,"27":-0.10292716582869038,"28":0.20138305159060757,"29":-0.028124626262309528,"30":0.013510221572644233,"31":-0.009852037871269235,"32":-0.11002599635683652,"33":0.055483257491814826,"34":-0.05974392675917714,"35":-0.18944649640439315,"36":0.11556714100375841,"37":-0.19623631221739662,"38":0.01416561396908128,"39":-0.13222293864990214,"40":-0.024289495782819737,"41":-0.11293858147992775,"42":0.13951265086938058,"43":0.02561480992784381,"44":0.0970938289374571,"45":-0.0835100304846435,"46":-0.11455324546766221,"47":0.011251219397872925,"48":-0.16706401504199261,"49":-0.06659717193503045,"50":0.12766970443211706,"51":-0.14763674947019026,"52":-0.04281408725651921,"53":-0.008846882873231593,"54":-0.1124506056031621,"55":0.024070488119710524,"56":0.023119313889161414,"57":0.00934067059382731,"58":-0.12605441694944236}},{"sx":1,"sy":1,"depth":59,"w":{"0":0.026608773891612595,"1":-0.2539707951055662,"2":0.040857449766557405,"3":0.05628410462616772,"4":-0.17269170011089888,"5":-0.01101780859842849,"6":-0.022231502774245234,"7":0.008643452607058214,"8":0.2500548471615402,"9":0.06086254291340736,"10":0.07964436191466363,"11":0.4288759895630303,"12":-0.10257071868278368,"13":-0.1876095449329024,"14":0.05998681686543077,"15":0.1094429508671989,"16":-0.353804206122146,"17":0.2118581351167768,"18":-0.014135506124191448,"19":-0.25696284550036513,"20":0.07022712286258956,"21":0.003215370788613058,"22":-0.31084029891470116,"23":0.1503105796517328,"24":0.28996373956920557,"25":-0.19188096773869653,"26":0.20871320561314088,"27":-0.17899790262522092,"28":0.04026340627277376,"29":0.11919086717696822,"30":-0.036218844427637335,"31":0.10794390436231542,"32":-0.016906790054567782,"33":0.04783241606158078,"34":-0.053378371570995745,"35":0.016282936125373855,"36":-0.1279628780483679,"37":-0.08699300446648779,"38":0.10396451110083554,"39":-0.2219763853623472,"40":-0.04513426921018769,"41":0.21879562431026242,"42":0.010944830234496631,"43":-0.10877022358037272,"44":0.17622353830929352,"45":0.08615461672219894,"46":-0.23158575713946572,"47":0.13267068445319558,"48":-0.2285201499715633,"49":-0.2069453211668124,"50":0.20473208514769997,"51":0.16645003920470086,"52":-0.25036573698911235,"53":0.12075311348269427,"54":0.11358830514194573,"55":0.06972272187349425,"56":-0.13845822569097097,"57":-0.205030359855723,"58":0.09556091185057138}},{"sx":1,"sy":1,"depth":59,"w":{"0":-0.5553653730952123,"1":-0.049988477628341646,"2":-0.19729640585657185,"3":-0.25179530666727123,"4":-0.1090302879473007,"5":0.08784121266619331,"6":0.03524994396458879,"7":0.21174592676435952,"8":0.08700469375940849,"9":-0.3092761858980383,"10":0.03284442710270436,"11":-0.12536604211307265,"12":-0.31282434021621824,"13":0.06310604342846786,"14":0.11753679447389238,"15":-0.4063366308423246,"16":-0.0102046818506083,"17":-0.005417355799681064,"18":-0.46560128313690896,"19":0.01418956292922635,"20":0.09168586027691585,"21":-0.3624725954107209,"22":-0.21269834113231104,"23":-0.1761660484015184,"24":0.08133915129579954,"25":0.009028851883241441,"26":0.01253034675341843,"27":-0.2674409372590873,"28":0.01072325295252957,"29":-0.049342538491633677,"30":-0.09963525833717293,"31":0.016302751910595846,"32":0.04293296187394844,"33":-0.10747592092651007,"34":0.08457300618055155,"35":-0.036143232506613644,"36":-0.0370435676336618,"37":-0.1401365331442265,"38":-0.17305037660447783,"39":-0.1091470085550312,"40":-0.201236787252919,"41":0.012742972443856578,"42":-0.029483212196552002,"43":0.06284594981973292,"44":0.17472540339396633,"45":-0.0463070534636291,"46":-0.09634249914155603,"47":0.08355522906411723,"48":-0.07777593943750759,"49":0.07039660509286352,"50":-0.1834005366352189,"51":0.07822086487092661,"52":-0.09999264472169307,"53":-0.002362275652948771,"54":0.08325164651724218,"55":0.09121099320996084,"56":0.08299020886218378,"57":0.0764701873365088,"58":0.0790532520085269}},{"sx":1,"sy":1,"depth":59,"w":{"0":0.05726812404575415,"1":0.06297462463125765,"2":-0.22058063022754568,"3":0.2161894742175012,"4":-0.06998070866399925,"5":0.10874985301936221,"6":0.14327703601222566,"7":0.10743559331929836,"8":-0.2594285366422191,"9":0.04435543264283675,"10":-0.15359371383397613,"11":-0.14985716616613332,"12":0.09940311567948053,"13":0.060915684842946474,"14":0.03659666201386343,"15":0.19875380639272405,"16":0.22351096218449543,"17":-0.028119867329600357,"18":0.13385143198949176,"19":0.14751392720189532,"20":0.07545477219644278,"21":0.14040975026179806,"22":-0.09588124433180623,"23":-0.09588075404581087,"24":0.02016580609645858,"25":0.19499768452757069,"26":-0.059219069741606234,"27":0.06352438335498023,"28":0.006187112253977973,"29":-0.02028950679470364,"30":0.12942555824875854,"31":0.013973871169418022,"32":0.012150991963429303,"33":-0.1632290607457579,"34":0.10319263721156283,"35":0.01366983810129718,"36":-0.19897352704645146,"37":0.13661203073358866,"38":-0.05610068316712451,"39":0.04757378901799127,"40":0.15934712402051762,"41":0.08199283801406732,"42":0.13135891471589548,"43":0.07621917588837723,"44":-0.14138727690848146,"45":-0.02400043115179297,"46":0.14692295137787167,"47":0.07146204305525528,"48":-0.061906057957720084,"49":-0.01956157283865162,"50":0.037541018403011495,"51":0.02508820713617721,"52":-0.04065142579351279,"53":-0.07170901348089984,"54":-0.05783350844048138,"55":-0.025383279511395223,"56":0.040877979068300735,"57":-0.10351482035004493,"58":-0.018335312989830037}},{"sx":1,"sy":1,"depth":59,"w":{"0":0.32841379814610083,"1":-0.041738740729693934,"2":-0.2545426785559325,"3":0.16553468878221436,"4":-0.04790876792464151,"5":0.06899405788831295,"6":0.1416985190093715,"7":-0.15234501160057212,"8":0.042858439474414034,"9":0.12517716116912103,"10":-0.16899530365795573,"11":0.03692491808035926,"12":0.1721172471943155,"13":-0.08111280063756872,"14":0.045138364430917295,"15":0.0572712777639765,"16":0.14902318687892016,"17":-0.003847098659092519,"18":0.1011699152291751,"19":-0.03797322652799302,"20":0.061564704881496804,"21":0.2965437886718088,"22":0.0479560737394295,"23":0.008253375505417332,"24":0.34903101518885066,"25":0.09940647840507134,"26":0.0234042008691347,"27":0.28911729348957377,"28":0.11011647313608346,"29":-0.016154154453790624,"30":0.06521973739742722,"31":-0.025045530259842755,"32":-0.09028643357076162,"33":0.28369831826751796,"34":0.08235076184591372,"35":0.0033610603133479287,"36":0.0456108811135101,"37":0.0012374733912585898,"38":-0.11131898455083869,"39":-0.01888000504911195,"40":-0.023452649973481066,"41":0.13616745705924205,"42":0.06622963061207847,"43":0.1062276807536884,"44":0.020227009779767966,"45":0.14852572066865818,"46":-0.05940537037160449,"47":-0.043535278798514654,"48":0.05070075586306464,"49":0.17345477188884129,"50":-0.23956605192451147,"51":0.22054269505879756,"52":0.046846885904175094,"53":0.012030931372066385,"54":0.0021213154857051813,"55":0.015703018844579596,"56":0.0031870250612804755,"57":-0.014700495936843869,"58":-0.11910240681903612}},{"sx":1,"sy":1,"depth":59,"w":{"0":0.1830430517320633,"1":-0.030654810154085062,"2":-0.0901042851187133,"3":0.1372656629108073,"4":0.13174225659496605,"5":-0.11505066371814734,"6":0.03842598134630127,"7":-0.0546415875910596,"8":0.06853844378641484,"9":0.05181435356792393,"10":0.17038265315763118,"11":-0.11457695674153046,"12":0.1266945858560343,"13":-0.02613561696636577,"14":-0.02073169292349305,"15":-0.0043416295380727795,"16":0.13301858537633102,"17":-0.03873936015784217,"18":-0.1526353712997133,"19":-0.01986856969993009,"20":-0.07274493204457926,"21":-0.18555104292621596,"22":0.13727287051538123,"23":0.14373319474814206,"24":-0.05515276345274559,"25":-0.07796993087905446,"26":-0.10987961556709935,"27":0.13966188303340246,"28":-0.10187707057948524,"29":0.013899494627640906,"30":0.16845482596645417,"31":-0.22683325318079958,"32":-0.10998518406990151,"33":0.0469887582266521,"34":0.017031203728283092,"35":-0.16991098204044058,"36":0.099895586683928,"37":-0.03359635561193436,"38":-0.26557054153787124,"39":-0.04167611220568464,"40":0.12131499451524641,"41":-0.011612308941897844,"42":-0.0499409554118912,"43":0.02249112220181745,"44":-0.14722675658576306,"45":-0.0132729576925165,"46":-0.040675041398755656,"47":-0.04299784145242086,"48":0.015576993226553043,"49":0.19199490808425387,"50":-0.004125398089279092,"51":-0.22947205804026308,"52":0.14758022440037566,"53":-0.0216039007314915,"54":-0.03156312736303675,"55":-0.09284748888605736,"56":0.057990950607807436,"57":-0.021247912413122884,"58":0.003987105040451729}},{"sx":1,"sy":1,"depth":59,"w":{"0":-0.04254235152389922,"1":0.008450401456400643,"2":-0.030198845108648155,"3":-0.03861135740257683,"4":-0.10592572892317978,"5":0.011017842233133453,"6":0.07893846588675392,"7":-0.15067121057408459,"8":-0.23361914689760402,"9":-0.08340953261432736,"10":-0.2547069846671973,"11":0.04137065653927027,"12":-0.04425774765121261,"13":-0.11551016666587266,"14":-0.08234372074227819,"15":-0.08273511292965074,"16":-0.09743399256406428,"17":-0.017401596685039596,"18":-0.03406324914105137,"19":-0.23797803358982825,"20":0.030044683169598612,"21":0.17473807190005866,"22":-0.11665546118101665,"23":0.2636031706254999,"24":0.3024405945374093,"25":-0.3113467826407021,"26":0.11702981016257435,"27":-0.14827405540931285,"28":-0.04847659289296865,"29":0.12469019232888118,"30":-0.12985873220761907,"31":-0.004621332574067038,"32":-0.05150693738476407,"33":-0.18090919647593845,"34":-0.0009517463360724854,"35":-0.04396147648056203,"36":-0.03061740721090762,"37":-0.11633297349109133,"38":-0.03002751980816574,"39":0.07893471395623004,"40":-0.0997083440941205,"41":-0.10728497129486457,"42":0.015615404871281218,"43":0.05940249585768415,"44":0.04568770160932818,"45":-0.04717552336332574,"46":-0.06270921748204529,"47":-0.027027337238415265,"48":-0.06311581583183783,"49":-0.2914358918946025,"50":0.02918964455023438,"51":0.039274143325142445,"52":0.06707045203020859,"53":0.20755860015001906,"54":0.048253078261333654,"55":-0.2868150431071936,"56":-0.0012620779977476633,"57":-0.08662910857355549,"58":0.1342449677211932}},{"sx":1,"sy":1,"depth":59,"w":{"0":0.36471363422562963,"1":-0.2310597362642534,"2":0.18479688248712375,"3":-0.043230235090175505,"4":-0.36974290165404683,"5":0.04548668692779838,"6":0.06624830505882312,"7":-0.20767282718495375,"8":0.0047898787218392525,"9":-0.0306765690159082,"10":-0.10206695240711441,"11":0.10568690033628399,"12":0.005553953882654772,"13":-0.16817269033095578,"14":0.05172195880187302,"15":-0.05170065199346107,"16":-0.14295876748259276,"17":0.043581437754997676,"18":-0.10419223315169146,"19":-0.17941584419398107,"20":0.0027886603731934775,"21":0.011660591609254622,"22":-0.11452333733904667,"23":-0.1588564397133805,"24":-0.005058253694322305,"25":0.004828271428911127,"26":-0.31550603877627154,"27":-0.017442680122148876,"28":-0.23723068797208516,"29":0.08799742705985514,"30":-0.1967324236232162,"31":-0.025864093805007735,"32":-0.043689549135441555,"33":-0.25879090276978367,"34":-0.05437648258315367,"35":0.004061476734047981,"36":-0.1401027189332728,"37":-0.05772886766895224,"38":-0.17130601448828991,"39":-0.06395543697535877,"40":-0.041181881600059755,"41":0.08431119297045157,"42":0.03595793421358409,"43":0.23893272413983757,"44":-0.10609854192700639,"45":-0.07128489830944669,"46":0.057587304533875276,"47":0.2030065690199435,"48":-0.10670049897251244,"49":-0.05685599452733383,"50":-0.05502307207920269,"51":-0.24612336586799227,"52":-0.1202800921328896,"53":0.0005572141045286677,"54":-0.021232340581966658,"55":-0.13048455819298277,"56":0.16255662359429834,"57":0.07469919117197085,"58":0.0010644044566075644}},{"sx":1,"sy":1,"depth":59,"w":{"0":-0.07647699314230258,"1":-0.3851770480781164,"2":0.2548590148064426,"3":-0.061884434982992294,"4":-0.3283617563449322,"5":0.08277988477354535,"6":0.016365135041703584,"7":-0.310902277861965,"8":0.19419453678302304,"9":0.13901385991557877,"10":-0.21712904788721696,"11":0.2601649365423322,"12":0.05799313771097765,"13":-0.3222026997065205,"14":0.08546632917623269,"15":0.13511604878092445,"16":0.09383295853627828,"17":0.16140369838909127,"18":0.07458337442304726,"19":-0.09831493476706749,"20":-0.04912866268413244,"21":-0.040659012324167444,"22":-0.06314458319710525,"23":0.01363497086275736,"24":0.10072229837880729,"25":-0.07132277448421077,"26":0.028799196243348382,"27":-0.08249730753027755,"28":-0.11960857279540237,"29":0.019844657755986022,"30":-0.11283793492243689,"31":-0.09468542110981065,"32":-0.1423934056897439,"33":0.10521977420601783,"34":0.037651022874546955,"35":-0.09750997350719201,"36":0.24443840510998296,"37":0.08963636829979474,"38":-0.007645756506363964,"39":0.25668833095546884,"40":-0.05796306282317138,"41":0.02225193279142132,"42":0.11350796680599506,"43":0.13912691783850936,"44":0.1463390152904624,"45":-0.13224697474503164,"46":-0.048157839364116606,"47":0.03287013893582592,"48":0.03088313724541057,"49":0.15579365290408265,"50":0.05216520338186213,"51":0.03628117916288631,"52":-0.10850852560269435,"53":-0.09524199555598721,"54":0.07867252357316205,"55":0.12475168622180739,"56":0.10893468143115172,"57":0.10762777119580998,"58":-0.07592132365385552}},{"sx":1,"sy":1,"depth":59,"w":{"0":-0.132946297754525,"1":-0.07668072563709463,"2":-0.20010187912476618,"3":-0.010785816544536829,"4":-0.20460942699968818,"5":-0.10386608216600866,"6":-0.07146002181770346,"7":0.03892914140592733,"8":0.02476181017755725,"9":0.2304901099815177,"10":0.04889167162546683,"11":-0.1810908666448916,"12":-0.051617798846565796,"13":0.15813321115496043,"14":0.034057923541828745,"15":-0.08703830485983596,"16":0.22079303325027808,"17":0.09007694415193844,"18":-0.1848197379270569,"19":0.006509294885470099,"20":-0.03038217962425953,"21":-0.11091709689854312,"22":0.0341955346036261,"23":0.02661394182113709,"24":-0.20035689405451146,"25":-0.2191460086823518,"26":0.03169209703931214,"27":-0.03722225101749438,"28":-0.2179505728857634,"29":0.018682583291974086,"30":0.03146953804711205,"31":-0.061400120808794145,"32":0.07630497937730822,"33":-0.10514860917616388,"34":0.010098265034920688,"35":-0.029485086859429535,"36":-0.16579296223534828,"37":0.11527005039398398,"38":0.08345625746092067,"39":-0.025191733257362355,"40":-0.044570475582629596,"41":-0.01443970352546822,"42":0.05629592350595837,"43":0.12497726688367139,"44":-0.0028987797812471115,"45":-0.0694092990941437,"46":-0.057256185442962994,"47":-0.009973178680881387,"48":-0.180573256256856,"49":0.1747994993297604,"50":0.0605463103201997,"51":0.06417862838637428,"52":-0.07340978133728043,"53":-0.0981268451645324,"54":0.09044094218551163,"55":-0.03202543015258703,"56":0.03193755625594772,"57":-0.021810604030220317,"58":0.16045034461591295}},{"sx":1,"sy":1,"depth":59,"w":{"0":-0.08913870043412912,"1":-0.13920431821081972,"2":-0.03815175124720796,"3":-0.04247776757697187,"4":0.06520365010447059,"5":-0.03291554188071261,"6":-0.014063459277490784,"7":0.12599393800920958,"8":-0.028821520140113875,"9":-0.0217792476861705,"10":-0.013475464677892459,"11":-0.1698169717435971,"12":-0.04548505573537713,"13":0.11652909702155502,"14":-0.052666642537149574,"15":0.21171376686851506,"16":-0.06917195353306162,"17":0.1908618058581988,"18":0.05020929405586657,"19":0.053751833035208814,"20":0.11037701798616337,"21":0.08409964179474563,"22":0.10127801157609853,"23":0.019108177785618595,"24":0.03553082063202887,"25":0.004845143677514823,"26":0.04758366610646747,"27":-0.00516472378195301,"28":-0.004105349521694171,"29":-0.13993004050958247,"30":0.028050602129639626,"31":-0.0821867393883302,"32":0.02370172766933529,"33":-0.21474351550570048,"34":0.06696484924499053,"35":0.026410984716416657,"36":0.07380785447054934,"37":0.07869053518568345,"38":-0.1250415819150736,"39":0.17463277443804628,"40":0.1476770249126435,"41":-0.03137718180904947,"42":-0.09148377759979497,"43":-0.0568579056769118,"44":-0.22036425957463543,"45":0.011203093212851066,"46":-0.18957316653653616,"47":-0.019941993596228537,"48":0.05440568736701505,"49":-0.07166111066679003,"50":-0.07626159999374878,"51":0.006358841125506912,"52":0.0052782384688283245,"53":0.09682965852183953,"54":-0.11029152951606745,"55":0.042377408344129515,"56":-0.08833920479177315,"57":0.024461504852156483,"58":0.017857355066543016}}],"biases":{"sx":1,"sy":1,"depth":50,"w":{"0":0.09917057547688847,"1":0.09743101742878937,"2":0.08649782436428997,"3":0.0965190079424839,"4":0.0989381569302964,"5":0.10517119148246613,"6":0.10126015607120764,"7":0.09496432858016761,"8":0.0982232177510593,"9":0.09160942171587329,"10":0.1017222779495993,"11":0.09977384820292824,"12":0.1016523505843028,"13":0.10760422644541238,"14":0.09538134022546527,"15":0.08946090755661164,"16":0.08379386630561367,"17":0.10000699002585418,"18":0.11746103078863214,"19":0.09982879789932303,"20":0.11328233543618624,"21":0.11376737090133769,"22":0.09443637365056616,"23":0.09905021682148682,"24":0.08582712228890522,"25":0.10949873288640584,"26":0.09503945905045386,"27":0.10082806409625172,"28":0.1301232656043366,"29":0.08976515176334374,"30":0.10095126029702156,"31":0.09820671531452144,"32":0.10171264615053102,"33":0.09428467158041128,"34":0.08407059588187618,"35":0.10655807006483659,"36":0.10020010694920617,"37":0.09204429711482695,"38":0.09664463974328387,"39":0.09717494061291262,"40":0.10816740377905286,"41":0.1084457682997166,"42":0.08086726212269534,"43":0.08623330373415855,"44":0.08660889154634968,"45":0.09851861782226523,"46":0.10306519078441766,"47":0.0954294320885633,"48":0.10835273358572726,"49":0.09364628172512376}}},{"out_depth":50,"out_sx":1,"out_sy":1,"layer_type":"relu"},{"out_depth":50,"out_sx":1,"out_sy":1,"layer_type":"fc","num_inputs":50,"l1_decay_mul":0,"l2_decay_mul":1,"filters":[{"sx":1,"sy":1,"depth":50,"w":{"0":0.2872567304206724,"1":0.02769650471772901,"2":-0.005217114795490789,"3":0.13415685813239908,"4":-0.10125278472038389,"5":-0.14211511293763848,"6":0.08320404035014056,"7":-0.023625274988695315,"8":0.172043822212793,"9":-0.04576256645126301,"10":0.12259247696196023,"11":-0.03488792235887169,"12":0.16816791775446074,"13":0.10753521615644877,"14":-0.14148683615836272,"15":-0.13114141774117077,"16":0.07708825483708734,"17":0.02986346737186483,"18":0.05302820038245471,"19":-0.2813928698412521,"20":0.10066777586889485,"21":-0.10004981105483811,"22":-0.009804250281286071,"23":0.11951667002780174,"24":-0.11430498407590566,"25":0.06950282075998893,"26":-0.07138148184273477,"27":0.16722363116833977,"28":0.015356118588593627,"29":-0.08144099579966801,"30":-0.12864255472480124,"31":0.054205423798681526,"32":-0.07721272074515316,"33":0.04511341569461678,"34":0.01165302847931219,"35":-0.11595334844798381,"36":0.044162720739092595,"37":-0.11354460357235245,"38":0.21401887794921975,"39":0.27986706697798525,"40":-0.2293943922060621,"41":-0.07558256406787282,"42":0.02894505628870605,"43":0.00306204631620864,"44":-0.15031203426258793,"45":-0.08028731346310859,"46":0.06596000608564116,"47":0.050492006022402544,"48":0.11111345028547857,"49":0.08133509560177579}},{"sx":1,"sy":1,"depth":50,"w":{"0":0.10282998923536867,"1":-0.01057985471069258,"2":-0.10032005882588588,"3":-0.020842486935268682,"4":0.17041041404220011,"5":0.05005764625965511,"6":-0.07727330931560689,"7":0.1751305831342833,"8":0.1336998357086628,"9":-0.12462621004427328,"10":0.011231581792821344,"11":-0.010568034169073882,"12":0.10693588392940562,"13":-0.09470754753634367,"14":0.08500156950548102,"15":-0.08415191682671824,"16":-0.05943371464274529,"17":-0.009566348386570334,"18":-0.08535992341103943,"19":0.1470551634905736,"20":0.04661864223425065,"21":-0.24242358838896383,"22":0.04995823491429414,"23":-0.07553672452819975,"24":0.2992746414259301,"25":-0.06668834161319696,"26":0.028161684781700766,"27":-0.013980309409421413,"28":0.0471517888690415,"29":0.1320482164765498,"30":-0.042347622787475434,"31":0.13143731385574872,"32":0.1268898511100666,"33":0.0023352889650688252,"34":0.030164891975463265,"35":0.03239601254326592,"36":0.038418532268476614,"37":0.17502507261397426,"38":0.16630179671501602,"39":0.01746658046606948,"40":-0.21810502066689946,"41":0.04021039231950418,"42":-0.07870998275375632,"43":-0.128597581967262,"44":0.05690901722498048,"45":-0.05360838557867521,"46":-0.17249489515067593,"47":0.061202135436846494,"48":-0.0064784294393330525,"49":-0.17736165900636786}},{"sx":1,"sy":1,"depth":50,"w":{"0":0.09852841010384064,"1":-0.0852436973555039,"2":-0.06918278044342382,"3":0.3487785180410532,"4":-0.08657582379091582,"5":0.13153535530169555,"6":0.08786792586874133,"7":0.07522730564342128,"8":-0.20702366007689108,"9":-0.089832033077872,"10":0.12595373732199555,"11":-0.003797521101891539,"12":0.004044547577022776,"13":0.006487556203142869,"14":0.02254507288570081,"15":-0.15241583877157192,"16":-0.00701007670214563,"17":0.06567067525828181,"18":-0.14145985658655755,"19":-0.012968558807612903,"20":0.02274916358221782,"21":0.14002137914894633,"22":-0.11595712893665489,"23":-0.10511625928719905,"24":0.0035432229122469576,"25":0.013423158330351613,"26":0.13833589470946225,"27":-0.06453997722485297,"28":-0.0776638836526441,"29":-0.16148947134186678,"30":-0.040598613982819415,"31":0.08491150710960821,"32":-0.04028123768633844,"33":-0.11934060944803151,"34":0.0015460599043740702,"35":0.08618480255186481,"36":0.1258244613763222,"37":-0.10161458445988276,"38":-0.0850254731704651,"39":-0.05524252091052013,"40":-0.12872073284712854,"41":-0.26196246497400844,"42":-0.03841592843152108,"43":0.08701110355620426,"44":-0.0039825558568752605,"45":-0.19233282593890436,"46":0.06687722658118671,"47":0.2529186557181938,"48":0.11463250977857291,"49":-0.09239517736561643}},{"sx":1,"sy":1,"depth":50,"w":{"0":-0.1695633838092647,"1":0.15756230678942715,"2":0.14419923114772915,"3":0.05630003091253213,"4":-0.0949116467745422,"5":0.011734607653458386,"6":0.03324713518665389,"7":-0.17729143181184562,"8":-0.019603245128088722,"9":-0.11081596200470727,"10":-0.0702897604937589,"11":-0.07131452400143957,"12":0.20907129556782017,"13":-0.025637400401519878,"14":0.04734866669191615,"15":-0.07534086218118931,"16":-0.00912011854123519,"17":0.1801173070191734,"18":-0.020644191559320426,"19":0.12472869923816256,"20":-0.2502387710651641,"21":0.06027028678986028,"22":0.16209829942630086,"23":-0.11181620011388706,"24":0.20842245667821316,"25":0.02288814187218645,"26":-0.01984551413466642,"27":-0.03457740586503552,"28":0.08569683571898894,"29":0.04818316526104306,"30":-0.09049960534331537,"31":0.03927156635588956,"32":-0.06128277772122456,"33":0.11332614414733447,"34":-0.18978198797445348,"35":-0.00965919175864493,"36":0.04549710999251151,"37":-0.0529367893415925,"38":0.040551496307924303,"39":0.0437734716539124,"40":-0.041907394261250945,"41":0.06200938894007632,"42":-0.02064579494081367,"43":0.05246004849482054,"44":-0.01965254741878854,"45":0.03452526983549382,"46":-0.07154177495762563,"47":-0.012794618181589596,"48":-0.006291098362360322,"49":0.10611937977344361}},{"sx":1,"sy":1,"depth":50,"w":{"0":-0.12456260606075706,"1":-0.233558383183867,"2":-0.1925857335316124,"3":0.14933104201865535,"4":0.06731743952091963,"5":0.10674397925048817,"6":-0.017399152197387715,"7":0.059286877377518185,"8":0.03642452209270305,"9":0.062450778014690816,"10":-0.13375666909039685,"11":0.0756126196195591,"12":0.004546981998683992,"13":0.05251730491364688,"14":0.0816934826661599,"15":0.102676504297109,"16":0.0838247079736124,"17":-0.06466454943615967,"18":0.029263957111442494,"19":-0.024654577339538717,"20":-0.1039959596039959,"21":0.036108005668397294,"22":-0.11958549477658413,"23":0.05666655028089951,"24":-0.02221923406714133,"25":0.025664982017834122,"26":0.0980715093546405,"27":-0.14946250650136103,"28":-0.18868243401217916,"29":0.0425516641218211,"30":0.03027195065900938,"31":0.10670519176622618,"32":0.08538262585116663,"33":0.09946884366194782,"34":-0.032658422727335885,"35":0.12973007957409527,"36":-0.03843360858558512,"37":0.08363650736809305,"38":0.004818193920955182,"39":0.03978346521640016,"40":0.08141014387381115,"41":0.10903417076220902,"42":0.06143205969832693,"43":0.17748751806549884,"44":-0.1516362450522188,"45":0.07807654701427315,"46":-0.0999192466263707,"47":0.08729538788531724,"48":0.13118761111900404,"49":0.17123114858769728}},{"sx":1,"sy":1,"depth":50,"w":{"0":0.029233639770778915,"1":-0.051990536851581635,"2":-0.031329480287843874,"3":-0.006090512134871606,"4":-0.028962523780043596,"5":0.00808726943554079,"6":0.05032767411534726,"7":-0.006076890217752816,"8":-0.09784802025840515,"9":-0.057985324623453134,"10":0.22977330980255906,"11":-0.2286596274024118,"12":-0.02366822333452503,"13":-0.3015607392483765,"14":0.19985910230862985,"15":0.01719027588888826,"16":-0.1291598247545116,"17":0.12477871472999359,"18":-0.11569487592271847,"19":0.010139821381812996,"20":0.15802630197728376,"21":0.24260665950119983,"22":-0.09049188210017127,"23":0.13481888228624703,"24":0.07142002654468466,"25":-0.21974976267175922,"26":-0.08974646528123746,"27":0.17952927399309895,"28":0.10633314265571077,"29":-0.010268757011179443,"30":0.0659477012781625,"31":0.25192310727438294,"32":-0.013162631996758321,"33":-0.0953913055630262,"34":0.09965879428923062,"35":0.08444558700306257,"36":0.03558658817410494,"37":-0.05024364286643052,"38":-0.008959510910361589,"39":-0.11148870304566706,"40":0.04272772101326778,"41":0.2187825095789841,"42":-0.13009548813921637,"43":-0.12492213444609732,"44":0.15169879138334072,"45":-0.12039330220597344,"46":0.05095983527231207,"47":0.03287230591905266,"48":-0.06019241965996985,"49":-0.0634137371923135}},{"sx":1,"sy":1,"depth":50,"w":{"0":0.044086766920859125,"1":0.002633776963608352,"2":-0.03451678850781921,"3":0.15447923645461453,"4":0.10607207301062342,"5":-0.16069968195240797,"6":-0.12436026297565513,"7":-0.00870355534783702,"8":0.0022729739205671323,"9":0.013673796086515809,"10":0.11616642333966769,"11":-0.04061762657962613,"12":-0.16303657138020297,"13":0.09456226184617618,"14":0.04775973020965797,"15":-0.058162463737906504,"16":-0.0747338349323028,"17":-0.030781131186030625,"18":0.0054904048160162415,"19":0.009024981075246555,"20":-0.1937872849236627,"21":0.26093018695714437,"22":-0.22156511563975828,"23":0.13051735005218892,"24":0.1329306143609119,"25":-0.16382372521511376,"26":-0.00007942198203639934,"27":0.024183130354219314,"28":0.032643090246444656,"29":0.027658488411840897,"30":-0.06635313255808137,"31":-0.006006984659311299,"32":0.04404783039231676,"33":0.08107337234177975,"34":0.09213692409265203,"35":0.02498273062844318,"36":-0.06065726290774847,"37":0.020366264350804898,"38":0.033609723994280166,"39":0.06409467741247844,"40":-0.11449536034096458,"41":-0.026736350153436405,"42":-0.056944176408421046,"43":0.07976493375309142,"44":0.18498650957269108,"45":-0.09112276636718938,"46":0.01208925879275464,"47":-0.013733735506122021,"48":0.07182475952430399,"49":0.06512665168129618}},{"sx":1,"sy":1,"depth":50,"w":{"0":-0.0053191546035992205,"1":0.15206929363469568,"2":-0.04535714894987151,"3":-0.15188818618898772,"4":0.06798290832311044,"5":-0.014157323516389686,"6":0.11752256418650038,"7":-0.18109949140747908,"8":-0.16104427228388857,"9":0.03040722994891186,"10":-0.14397849926386094,"11":0.03761710477814189,"12":0.17660547659362877,"13":-0.07687864194206344,"14":0.031147121594005615,"15":-0.0028937662410521837,"16":0.04586502588872634,"17":0.25530268517031507,"18":0.1675556536713626,"19":0.12170851332178755,"20":-0.23060287916074998,"21":0.04968159967128087,"22":-0.07741529957924849,"23":0.08288768013202683,"24":-0.030984412462395302,"25":-0.06836946834323447,"26":0.20273388905131737,"27":-0.018480184027063685,"28":-0.12296188565917798,"29":0.06445117440699757,"30":0.11588240930360687,"31":0.02742351052382938,"32":-0.03936062314873505,"33":-0.04322920998605086,"34":0.03356920015464411,"35":-0.026303392832674025,"36":-0.04128094712731189,"37":-0.08230266515078404,"38":0.08899283277636687,"39":-0.09478670560905945,"40":-0.04376838479389085,"41":0.08306553153156788,"42":0.2105992040561564,"43":0.22050591418886595,"44":0.05485634272797426,"45":-0.015387986407279295,"46":-0.06300233703582771,"47":-0.139581396280232,"48":0.12284014181924102,"49":0.11231069176043522}},{"sx":1,"sy":1,"depth":50,"w":{"0":0.042081886837396075,"1":0.23927474826613102,"2":0.11230090694792802,"3":0.12181021903939222,"4":0.05756659884124838,"5":0.14156103422645205,"6":0.004335641923051927,"7":0.19602022014732012,"8":-0.0181313074121264,"9":0.23029766300866247,"10":-0.1903829497961501,"11":0.008401571238147025,"12":0.19702960053755728,"13":-0.11646151962097162,"14":-0.02687364114829849,"15":-0.08208329222765301,"16":-0.30748281955204504,"17":0.050209708831454196,"18":-0.03267360694000784,"19":-0.2564512808332429,"20":0.3331092222068538,"21":0.05344531198817488,"22":-0.14216011829414507,"23":0.1781334684704264,"24":-0.12858208124445325,"25":0.14214207231242817,"26":-0.06406492171472117,"27":0.12883176426786228,"28":0.11462276232845536,"29":-0.05728022957656106,"30":0.0034335847882117645,"31":-0.20359192002552007,"32":0.23457318048323136,"33":0.052023579354579415,"34":-0.13968967279380198,"35":0.008173484586572164,"36":-0.021609203876220544,"37":-0.01920295314451672,"38":0.06853896809901985,"39":0.2584432386036712,"40":0.1665429563888015,"41":-0.019895168281204332,"42":-0.22021937669150687,"43":0.04966471308055432,"44":-0.05019809607068624,"45":0.22684210359183904,"46":0.15599438347948485,"47":0.044880076455620324,"48":-0.0181972901064357,"49":-0.08489473974767982}},{"sx":1,"sy":1,"depth":50,"w":{"0":0.010809861124006122,"1":-0.0025635113823437583,"2":0.11265728447465763,"3":-0.1276229909800047,"4":-0.26992771404821125,"5":0.025498493476989,"6":-0.0626680647793713,"7":-0.12558401636330044,"8":-0.14610911421089784,"9":0.013893286481849959,"10":0.01200977119231671,"11":0.0172010400268515,"12":0.18187247994702452,"13":-0.04180928470158747,"14":-0.013916507647736455,"15":0.01745406086557443,"16":0.003959868760081623,"17":0.11616042123871745,"18":-0.024018475964614303,"19":0.050542885552333654,"20":0.10278905238666176,"21":0.12254560159826626,"22":0.06761990083556728,"23":0.06742723851837869,"24":-0.11147101629398819,"25":0.030800258202362936,"26":-0.17587569975503206,"27":-0.017433615188005486,"28":0.09159886579999782,"29":0.07061596633254513,"30":0.014473615515582057,"31":-0.08051011359505528,"32":-0.057518018751778116,"33":-0.055722479912000474,"34":-0.04083000672788953,"35":-0.2353252697731563,"36":0.0638282129029259,"37":0.19953619847609916,"38":0.07027298853552727,"39":-0.2304904720206872,"40":-0.1554772993898165,"41":0.004605256674595008,"42":-0.1862539832027343,"43":-0.04161896674548758,"44":0.044185227216104024,"45":-0.03878367148300797,"46":-0.016851272442027814,"47":-0.02459923147472446,"48":-0.2899819583099766,"49":-0.1416708338164906}},{"sx":1,"sy":1,"depth":50,"w":{"0":-0.04443273941330377,"1":0.060042523277953806,"2":-0.14959140830909926,"3":-0.11074952993251753,"4":-0.04557735566419801,"5":-0.10123648847540742,"6":-0.1726216573730989,"7":-0.039414795007697144,"8":0.09507647760994661,"9":-0.1138635449011331,"10":-0.08759521751656432,"11":-0.24648489823925238,"12":0.04941010856255675,"13":0.008255996206528433,"14":-0.16203848991522815,"15":0.10443061580781231,"16":-0.13391996431033343,"17":0.127326782627891,"18":-0.1530230035138394,"19":-0.08694906494582569,"20":-0.027790846058493617,"21":-0.11055304705124194,"22":0.21381793216087058,"23":-0.15457287908439615,"24":-0.038543880390473996,"25":-0.05154209137893077,"26":0.04150236130102615,"27":-0.0346415468274803,"28":0.026751721613301995,"29":0.008192710902191166,"30":0.11917298063896233,"31":-0.0946349554043117,"32":0.09920686643808659,"33":-0.04871743585804075,"34":-0.10238473421261583,"35":-0.1544788616833959,"36":0.026985422235309496,"37":-0.02810893870660242,"38":0.1319055698261019,"39":0.006042780033026088,"40":0.007304419415286721,"41":-0.007774177961644994,"42":-0.10295744893057049,"43":0.13643936783690308,"44":0.020263018381297567,"45":-0.05718220048642732,"46":-0.0027437579133105386,"47":0.10038632414336661,"48":0.16405517670046807,"49":0.015800841021394774}},{"sx":1,"sy":1,"depth":50,"w":{"0":0.07973595072508183,"1":-0.06282139121035073,"2":-0.04217993774235114,"3":0.08479851696856082,"4":0.17392816441914702,"5":0.0691986649212542,"6":0.04874163182600347,"7":0.11615373598720126,"8":-0.1911927829489054,"9":-0.03366393907037524,"10":0.2700745672307642,"11":-0.11716026413150883,"12":0.08948389313739993,"13":0.10944574964167585,"14":0.10504870888884979,"15":-0.04159804967970883,"16":0.027970771551303973,"17":0.10241684106848244,"18":0.11599737810949097,"19":-0.13094753171514026,"20":0.016086574644766136,"21":0.25335834172801264,"22":-0.08198309484882688,"23":0.034454348011948764,"24":-0.20848579526933375,"25":-0.04320021467985248,"26":0.22673094446344474,"27":-0.06360418047268887,"28":0.3149842932846873,"29":-0.039236642594127576,"30":-0.060270639569217084,"31":0.02165655790947968,"32":-0.1361703582926402,"33":0.005761324518349031,"34":0.11245525213585399,"35":-0.11040185215909154,"36":-0.1795765573544164,"37":0.02524292731567479,"38":-0.05699193172392634,"39":-0.06096610265791097,"40":-0.1583709183490136,"41":-0.43467804539765675,"42":0.18039578031643957,"43":-0.1649425856423194,"44":0.051235978082544806,"45":-0.16008009281238683,"46":0.2075363485760403,"47":0.033014109300575224,"48":0.09865962018954084,"49":-0.08708621959638023}},{"sx":1,"sy":1,"depth":50,"w":{"0":0.0981197988318783,"1":0.20139791931785728,"2":-0.08686347070862745,"3":-0.08477863247019063,"4":-0.03088115817286335,"5":0.14488011775332052,"6":0.05125940657845825,"7":0.0043793571383878085,"8":0.04515178052774495,"9":-0.027000989625828458,"10":-0.18112253008488474,"11":0.019597327034527084,"12":-0.016803014923323475,"13":0.026796310309023654,"14":-0.030295218346878795,"15":-0.12137935593707178,"16":0.001118267547359029,"17":0.03657614433066949,"18":0.16165494076805284,"19":0.08707175193824455,"20":-0.03846001343843714,"21":0.2279488388057895,"22":-0.029366502393975393,"23":0.3658605626681769,"24":0.21104080435898237,"25":0.1235967762874479,"26":-0.1983193343258206,"27":0.029622080646629752,"28":-0.07636788857955662,"29":0.01655620093158533,"30":0.01573618867901607,"31":0.2623297750179533,"32":-0.089275166783804,"33":-0.03461983053699463,"34":-0.09746898219107446,"35":0.09083365209957368,"36":0.0255437332925235,"37":-0.03920339615252629,"38":-0.0007518075018381402,"39":0.09718058445319526,"40":0.08772926967653714,"41":0.11212393236288615,"42":-0.20435701070930115,"43":-0.1392481508114216,"44":0.059962056082215436,"45":0.07380585505424428,"46":-0.06798659104698035,"47":0.024034348214812075,"48":-0.07587712871589515,"49":-0.09148749396228051}},{"sx":1,"sy":1,"depth":50,"w":{"0":0.19891161004226202,"1":-0.07582917268019392,"2":-0.2073949199718252,"3":-0.08150375373082769,"4":-0.07474951582085619,"5":-0.05478426706354983,"6":-0.04350067716902279,"7":0.09362146174078745,"8":0.03853294049602876,"9":-0.015300394238635946,"10":0.2563170468261744,"11":-0.012297224940204295,"12":-0.11040889798047837,"13":0.020277051139919396,"14":-0.08839553553870419,"15":-0.22109099093254747,"16":0.02567626032788795,"17":0.15987554825210665,"18":0.1534278112167451,"19":-0.12887510663287918,"20":0.07117914548711876,"21":0.14302307472451822,"22":-0.004964506925803419,"23":0.0821879679551888,"24":-0.07829021111342974,"25":-0.023210687983294318,"26":-0.028866708348461775,"27":0.006569721797711996,"28":0.31794537999550815,"29":-0.10407017259743201,"30":-0.0044894634819668015,"31":0.009591370542302463,"32":0.1769507659264755,"33":0.1565398145022848,"34":0.11052011014194307,"35":-0.1692437703569496,"36":0.13058007989752635,"37":-0.10161084642409461,"38":-0.21238031868099821,"39":0.12445090111840588,"40":-0.1794843857948894,"41":-0.2581014992155384,"42":-0.027520687770916222,"43":0.021462731398731828,"44":0.13148986224683115,"45":-0.1658103239592137,"46":-0.00783890719516528,"47":-0.002493014075708255,"48":-0.08859569416645278,"49":-0.0565363950305535}},{"sx":1,"sy":1,"depth":50,"w":{"0":0.10172078578034609,"1":-0.05336718535087106,"2":-0.054023131448947104,"3":0.2201659947858014,"4":-0.20745594626329658,"5":-0.22889753901671037,"6":-0.04083397035261865,"7":0.16885914174184632,"8":0.004883603373761505,"9":-0.11648819804192306,"10":-0.011826885461631294,"11":-0.06557819894511906,"12":-0.09508048780433251,"13":-0.06556251421591622,"14":-0.07641915114730585,"15":0.1146159819448515,"16":0.018767457556719058,"17":-0.15944087981972757,"18":-0.15986880152774013,"19":-0.03726981669212627,"20":0.04912267266759713,"21":0.15681384292189382,"22":-0.010588277569775508,"23":-0.013468795670039968,"24":-0.2996041650400471,"25":-0.016530494060152726,"26":-0.13273823883512995,"27":0.011485594003008893,"28":-0.04284083027877232,"29":0.13236962618722398,"30":-0.13788863760201792,"31":0.0481272821452398,"32":0.1196953102391793,"33":-0.02607846688722601,"34":-0.0005652235947263569,"35":-0.05700811684435101,"36":-0.0088796815380672,"37":-0.11872244445520617,"38":0.06287024215320902,"39":0.09293082542410454,"40":0.03832399234230842,"41":-0.04145407239563559,"42":0.1142829049659104,"43":0.0562658147452135,"44":0.003804435879276823,"45":0.02610520237229139,"46":-0.07980525067013863,"47":-0.03962737814912688,"48":-0.013084593496125957,"49":-0.11311721672537553}},{"sx":1,"sy":1,"depth":50,"w":{"0":0.05633118060854517,"1":0.04022918695542118,"2":0.1508325535241312,"3":0.07575282875854959,"4":0.12305514239710781,"5":0.047046629841078984,"6":0.01895622466829309,"7":-0.08332899972011587,"8":0.0017712318069085038,"9":-0.1404108651804622,"10":0.0506589392035924,"11":-0.04818061621053424,"12":0.1579107781767687,"13":0.11740350047718594,"14":-0.02631609913099728,"15":0.19820174333263516,"16":-0.09625310214597452,"17":-0.016449759458733667,"18":0.0595388136572,"19":-0.08180045865675487,"20":0.12907361999170466,"21":0.02286706712655731,"22":0.09566708214586633,"23":-0.03678760059128203,"24":0.0940070009832605,"25":-0.00942836161365123,"26":-0.04715065954955571,"27":0.05606605605339023,"28":0.09434454412823949,"29":-0.024280039138720115,"30":0.06532465962833359,"31":-0.02723828229815305,"32":-0.01910336089729171,"33":0.06651465099812301,"34":-0.15022556448317734,"35":-0.017095376322962527,"36":0.0125742669710935,"37":0.13694551568912441,"38":-0.011951898003405181,"39":-0.04694164816600514,"40":-0.04698542525941156,"41":0.017005952188586724,"42":-0.14618351320064382,"43":-0.2081389186793289,"44":0.016712903225500602,"45":0.08527351848152885,"46":-0.017485185795534784,"47":-0.01858629776211592,"48":-0.051583376579445187,"49":-0.009074340111057346}},{"sx":1,"sy":1,"depth":50,"w":{"0":-0.12188109461595888,"1":-0.022642746930493677,"2":0.11468219870082086,"3":-0.006308365154997391,"4":0.08776406239550325,"5":-0.22802394035226273,"6":0.17343925014568026,"7":0.074310033734325,"8":-0.15305338462403445,"9":-0.03077253706598003,"10":-0.062022694490744566,"11":-0.18571405987405382,"12":-0.1353350764498824,"13":-0.15570319919029663,"14":0.013347603856725208,"15":0.04308074194252295,"16":0.10876211034344113,"17":-0.1323122570872785,"18":0.09000611927822276,"19":0.00966349159461338,"20":0.05421774009063764,"21":0.009055870205377606,"22":0.2963093132216888,"23":0.08169534027584978,"24":-0.1329029100665627,"25":-0.02905371486478406,"26":-0.10664323540308036,"27":0.0014560584554264822,"28":0.03862065159757944,"29":-0.08044661534006155,"30":-0.1320682466003991,"31":-0.11141474351466682,"32":0.0821155435047634,"33":-0.20471800118094977,