{"layers":[{"out_depth":59,"out_sx":1,"out_sy":1,"layer_type":"input"},{"out_depth":50,"out_sx":1,"out_sy":1,"layer_type":"fc","num_inputs":59,"l1_decay_mul":0,"l2_decay_mul":1,"filters":[{"sx":1,"sy":1,"depth":59,"w":{"0":-0.16026223656625035,"1":0.18967560257960428,"2":-0.11669835726052875,"3":0.20255561310837097,"4":-0.17775962206293483,"5":0.08319306881053681,"6":0.01793496302944981,"7":-0.05153941220250985,"8":-0.12403482011882745,"9":-0.0351714207334942,"10":0.03492664851787041,"11":-0.053660341297479444,"12":-0.018994961233936396,"13":0.09237350454938266,"14":0.018609012366239488,"15":0.026254380936524692,"16":0.03120711677769254,"17":-0.03421453583699766,"18":-0.044975904437369374,"19":-0.1658640266768292,"20":0.023725907833730957,"21":0.25083259363613886,"22":0.25501635578311305,"23":0.02428448577788179,"24":0.28660821297751854,"25":-0.10550714520242956,"26":0.06397250962351528,"27":0.0902578853593383,"28":-0.02867080842091357,"29":-0.08523224563206591,"30":-0.025487454825153657,"31":-0.12754746738922534,"32":0.08735391360358007,"33":0.17544282753156404,"34":-0.13519491409311613,"35":-0.04031210694686352,"36":-0.07618266505437005,"37":0.02137003134965066,"38":0.07819286149336392,"39":0.0607986061733488,"40":0.133398364921699,"41":0.04104707299871582,"42":0.1449845385931152,"43":-0.023328245692706133,"44":-0.10186525759299628,"45":0.1769077617604792,"46":-0.1219965936928111,"47":-0.12054046847138615,"48":-0.11137086817908347,"49":0.11199371192787295,"50":0.013772910133937824,"51":-0.23291730337885416,"52":0.10576783036965402,"53":0.14758721450940457,"54":0.00845460044060624,"55":0.11901925366081756,"56":0.24992869578010485,"57":0.11291269655420032,"58":-0.19845144702518208}},{"sx":1,"sy":1,"depth":59,"w":{"0":-0.1507798638003142,"1":0.18463133904966725,"2":-0.0826170671279958,"3":-0.00044784325352525625,"4":0.15144723935684865,"5":0.12423467187870738,"6":0.15868102736129155,"7":-0.2599035033036699,"8":0.003359556784252471,"9":-0.19757677656349243,"10":0.07790828871702679,"11":-0.0849178281442795,"12":0.0771671887851448,"13":0.04387943217685106,"14":-0.08024700979348513,"15":0.054937177744219745,"16":-0.09372139573009723,"17":-0.20925647041814677,"18":-0.09763717894298554,"19":0.08910043126267107,"20":-0.08456930721305353,"21":-0.11904655424515487,"22":0.0807468896957758,"23":0.01703748125872567,"24":-0.27688806696028323,"25":-0.1845857387726473,"26":-0.016263360020183866,"27":-0.13317678202144018,"28":-0.15621997140908225,"29":-0.05234871947171654,"30":0.017113028142847247,"31":-0.10741423779928942,"32":-0.1602100868010865,"33":-0.26467423346165897,"34":0.03323924185066595,"35":-0.24298146883114805,"36":0.07365674097799303,"37":0.22281845457667132,"38":0.07630372076881509,"39":0.004356690921331201,"40":0.013423856974338204,"41":0.136197912325562,"42":0.0666356747521326,"43":-0.005381054308705564,"44":0.20059348075808936,"45":0.08409927262340786,"46":0.09947518740814866,"47":0.07978509858987445,"48":0.161953720476721,"49":-0.2583405212133462,"50":0.14202650506340384,"51":0.14604379665956996,"52":0.15636985892024244,"53":0.09825384558351748,"54":-0.09718778837750575,"55":-0.08486817178577934,"56":-0.08906490263648272,"57":-0.1430702350806747,"58":-0.0411578991430643}},{"sx":1,"sy":1,"depth":59,"w":{"0":0.006047728681101452,"1":-0.031879239860985405,"2":0.09835768047959997,"3":0.15402389822531348,"4":0.0769783832110953,"5":0.03881869325684495,"6":-0.2260698207863222,"7":0.016229142144614763,"8":0.13636259399710698,"9":-0.17040885093848288,"10":-0.027509298682178628,"11":-0.2242814013133039,"12":-0.06454772116591019,"13":-0.06431239378556458,"14":-0.16243208354621774,"15":-0.08219485901071563,"16":0.1003200304327477,"17":-0.00476292843811689,"18":0.029254034417745968,"19":-0.15954180895737594,"20":-0.05814660200519468,"21":-0.07800349083457732,"22":-0.15270497322086335,"23":-0.1022348549627435,"24":0.13473944657875464,"25":0.02684583757423516,"26":-0.262799388598265,"27":-0.10860172912265205,"28":-0.055255849127323314,"29":0.07030865290379207,"30":0.045611580128067174,"31":0.03225611825726274,"32":0.17614923209652308,"33":0.048701625597719594,"34":0.17537543430907485,"35":0.31338729309374413,"36":-0.07151990768867172,"37":-0.0744693179563985,"38":0.12887478327182744,"39":0.165282425791867,"40":0.07026763388821587,"41":0.07710454940376402,"42":-0.002374808840378583,"43":0.1964994279806631,"44":0.014630976570477015,"45":0.061190676018370097,"46":0.11986881210780079,"47":0.1572068002982521,"48":-0.04256026951980874,"49":-0.041345557898191596,"50":0.27725780061816513,"51":0.09055069962405286,"52":0.08712307089216564,"53":0.14236146027967525,"54":-0.1052248112660848,"55":-0.11205082196907767,"56":0.0009799970607575206,"57":0.007728071026056488,"58":0.4038545804761263}},{"sx":1,"sy":1,"depth":59,"w":{"0":-0.1216130429658196,"1":0.12659165285450483,"2":0.14818193989265982,"3":-0.3020824937587801,"4":-0.168048174631228,"5":0.11896237186554749,"6":-0.20821407684074,"7":-0.08155501510054859,"8":0.009216404693351613,"9":-0.19518213168640486,"10":0.2423592378457786,"11":-0.3144186253565587,"12":0.06147272420619987,"13":0.15181874785545837,"14":-0.1819711634665763,"15":-0.004200328646288739,"16":-0.007784694248766724,"17":-0.03706832251902135,"18":-0.23944613331815565,"19":-0.04163578015729449,"20":-0.22673178805890415,"21":0.1269995131921292,"22":0.07931993081149769,"23":0.05654844647654912,"24":-0.038877179458903885,"25":0.04045329919732124,"26":-0.03986336859157808,"27":-0.15444507930640883,"28":-0.08988167788016306,"29":0.13426918040027233,"30":-0.05547168657361736,"31":-0.2616757498864815,"32":-0.20617323064086235,"33":0.18892190672835696,"34":0.0769621391973016,"35":-0.07939718843949499,"36":-0.20342643569897015,"37":0.09953415936693648,"38":-0.13577054237260783,"39":-0.14780379439261923,"40":0.12851687363141287,"41":0.021518650101509627,"42":-0.02877125623167971,"43":0.07845593123349957,"44":-0.11557495436216617,"45":-0.20194882809080975,"46":-0.11263823712881049,"47":-0.07016045454534092,"48":0.0543638928346101,"49":0.019526444080155105,"50":-0.10730562631954237,"51":-0.01500762200820446,"52":0.014574782998340873,"53":0.051613671263466575,"54":-0.021733408418544972,"55":0.04215599163088407,"56":-0.08356475861710877,"57":0.07610620881466579,"58":0.02147328990523821}},{"sx":1,"sy":1,"depth":59,"w":{"0":0.2244090141170506,"1":0.048033743315009786,"2":-0.06152383997679521,"3":0.16216242877003892,"4":0.17018013329623582,"5":0.19748699311235957,"6":-0.1868356826548262,"7":-0.24632783796812244,"8":0.0012631809036551414,"9":0.11192222561592677,"10":-0.11125409618607032,"11":-0.17307243835530983,"12":-0.16948174540059385,"13":0.002139421514290113,"14":-0.2255815092907936,"15":0.2899336229915245,"16":-0.010011747591599089,"17":-0.060595709901578775,"18":0.05669286326297657,"19":0.10646687113626448,"20":0.14862579756842578,"21":-0.25693361098973283,"22":0.05468287655392074,"23":-0.08468413110694986,"24":0.10027915503218308,"25":0.08442069562941415,"26":-0.03171275844005157,"27":-0.1792756890005217,"28":-0.12049129051258083,"29":-0.020952225901521307,"30":0.019687607161353052,"31":-0.19433776824850818,"32":0.0800627159375998,"33":0.20158858437540306,"34":-0.11093069677535207,"35":-0.03785364855348397,"36":0.20785549072853618,"37":-0.11793835678640885,"38":0.11497800895569274,"39":0.13885924536689678,"40":0.21898639382855126,"41":0.063429532616665,"42":0.016000665626200356,"43":-0.11576470390665201,"44":0.10167574080483603,"45":-0.18265662141680625,"46":0.29717714027946585,"47":-0.11114356758608589,"48":-0.03762735603903723,"49":-0.00790087698101293,"50":0.0270755815436489,"51":-0.02868341025909412,"52":-0.032767054706505344,"53":0.08862745830382147,"54":0.05200888398730049,"55":0.25967990960927767,"56":0.003072067838782178,"57":0.002834021894808839,"58":-0.04570483635326989}},{"sx":1,"sy":1,"depth":59,"w":{"0":-0.1467091777616905,"1":0.08604777282961482,"2":0.01622086468448879,"3":0.14691492280887058,"4":0.027356455839965186,"5":0.1515398108603295,"6":-0.18191072642148237,"7":0.09807207124988822,"8":0.18307940634672484,"9":0.23436618478773133,"10":-0.10524959103629322,"11":-0.1655029355266747,"12":0.09642107638054118,"13":-0.070254431522048,"14":0.11757850881868244,"15":0.22598437173108757,"16":0.13324461140971053,"17":-0.11998840617722008,"18":0.08261278103109938,"19":-0.12742238137202744,"20":-0.0569499828965606,"21":-0.37618345546417875,"22":-0.13516287905602267,"23":-0.05787665529366094,"24":-0.10989720681596768,"25":-0.12645766967392236,"26":-0.1052004504502595,"27":0.08685143224736985,"28":-0.05310238166848123,"29":0.27546352523033235,"30":0.2056158049164688,"31":0.05427322372575885,"32":0.17436800038473887,"33":0.1080856360835623,"34":0.1330017307404689,"35":0.12469989809686538,"36":-0.03423820836353381,"37":-0.17630812027320772,"38":0.16803253479292377,"39":0.011762615803015066,"40":-0.0847138976762089,"41":-0.11342886865590544,"42":0.08413151599401086,"43":0.13276517688184528,"44":0.017917310064685086,"45":-0.10835755310816181,"46":0.050566552064915116,"47":0.31218201055229156,"48":-0.062305929715721325,"49":0.24225580747977463,"50":-0.07520339651505054,"51":-0.139555015480164,"52":0.044130865190439766,"53":-0.004321127719886871,"54":0.14832217881880516,"55":0.006860865865949035,"56":0.09351313707140867,"57":0.0053857656485586484,"58":0.03968015716128405}},{"sx":1,"sy":1,"depth":59,"w":{"0":0.16663171130075652,"1":-0.08422185681850196,"2":0.16564292506868716,"3":0.27739373710203125,"4":0.009332526910936277,"5":-0.12397769133843024,"6":-0.1372409586174891,"7":0.16693433950794537,"8":0.01432654769264697,"9":-0.07601114883997676,"10":-0.29376059117846853,"11":0.2261800977337483,"12":0.02074942779329326,"13":0.11828517969481145,"14":0.07630810446815701,"15":0.15956126417831518,"16":0.3132009769415716,"17":-0.046798420008224456,"18":0.17440286390721835,"19":0.07760592576675823,"20":-0.0924060920474624,"21":-0.07105681294223642,"22":-0.0031746705820622106,"23":-0.10885771248003578,"24":0.21337763569486015,"25":-0.10233373777644375,"26":-0.138976082348452,"27":0.0962424232436138,"28":0.11112596077091123,"29":-0.006210858149642675,"30":-0.19955677916949682,"31":0.052431515286432424,"32":0.018529095907166192,"33":-0.037158514710984955,"34":-0.0213513505882213,"35":-0.27129772003767233,"36":0.2071978256402528,"37":-0.29140638646277084,"38":0.10449966046627601,"39":-0.0508124957860423,"40":-0.049640982723036665,"41":0.05394881670724759,"42":-0.03191058950557495,"43":0.06487672724621836,"44":0.06118107455812923,"45":0.03426405254690217,"46":-0.11156701427108402,"47":0.13244959292480213,"48":-0.026996042234070552,"49":0.10261028283670037,"50":0.09481379441356762,"51":-0.0008717318382113467,"52":0.11651860290317531,"53":0.21179332689829808,"54":-0.04131045066446086,"55":0.019098641237485715,"56":0.052117122464875126,"57":0.3351009098278241,"58":0.04232031221775232}},{"sx":1,"sy":1,"depth":59,"w":{"0":-0.08140551890798692,"1":0.028137470190829274,"2":0.09757994824209355,"3":0.10147427899675393,"4":0.129466534962335,"5":0.024788069726498177,"6":-0.10228891152633778,"7":-0.15525321818022356,"8":0.14078125543947095,"9":0.052103163981688363,"10":-0.02282804605257454,"11":0.06734664972597813,"12":-0.1962153942507715,"13":0.08052345484593225,"14":0.21880070865479295,"15":-0.033280711752475226,"16":0.020719336422831934,"17":-0.06823313595950116,"18":-0.0698814516065757,"19":0.1288042545077645,"20":0.035140342850082155,"21":0.1589910505126193,"22":-0.3212487887750891,"23":0.023263848383635505,"24":0.10989796831186144,"25":0.11405037433337166,"26":-0.07390127092903946,"27":0.009974877035109778,"28":0.1313632051877603,"29":0.1539650077513126,"30":-0.05320339351070858,"31":0.03091249722125908,"32":0.12476895836577397,"33":0.10670635986234059,"34":-0.024358823143246965,"35":-0.09512082801716856,"36":0.002443196374779047,"37":0.07624464327393263,"38":-0.022696833778029366,"39":0.04997006608646743,"40":-0.059167268814732055,"41":-0.12741565935775556,"42":0.03703525405163443,"43":-0.0886641890191331,"44":0.24926545754930565,"45":0.015939163621285758,"46":-0.11205539690082701,"47":-0.1800030214587901,"48":0.14041412954858545,"49":0.2316293340251285,"50":-0.3082976171323832,"51":0.06825217722393187,"52":0.18303557073943377,"53":-0.10865836641321269,"54":-0.22816488852722194,"55":0.1422116816172196,"56":-0.06638681339587538,"57":-0.01971613773697594,"58":0.03740021331225585}},{"sx":1,"sy":1,"depth":59,"w":{"0":-0.07290018677101635,"1":-0.013299412787263334,"2":0.018189709178879375,"3":-0.14004849203614678,"4":0.10043923188459117,"5":0.16977875382905752,"6":-0.08094612882765559,"7":0.09598579425090234,"8":0.03824095379729513,"9":-0.010826844604869256,"10":-0.09147492293915205,"11":0.09776334639373842,"12":-0.12172101995668037,"13":-0.16181029961709012,"14":0.014720279028465594,"15":-0.13777769631833625,"16":-0.14095418910513519,"17":-0.015364312492370415,"18":-0.12213624401544879,"19":-0.09156919831619538,"20":0.04199213362257494,"21":-0.028153252477386283,"22":0.10690235148341844,"23":0.2588727810853599,"24":-0.048157614462828555,"25":0.045197506330218774,"26":-0.02386843091680503,"27":-0.043778042945694644,"28":-0.20797561120211772,"29":0.07037352917623356,"30":-0.005710491805303875,"31":0.19440881434686724,"32":-0.15748100465233386,"33":-0.05571699650578249,"34":0.04929885002839213,"35":-0.09790008080000966,"36":0.19443376317066446,"37":-0.0022408750387755885,"38":0.13822708051801363,"39":0.08634846652476437,"40":0.17433170056161237,"41":0.2099759235892958,"42":0.1318865275116829,"43":0.14980188065815883,"44":-0.1188092911328145,"45":-0.06631482123156746,"46":0.13931951724869415,"47":-0.09265255755336423,"48":0.18939206361014044,"49":-0.2494954291895669,"50":-0.0814481427349354,"51":-0.13154816178263712,"52":-0.005924673678304831,"53":0.12841480272829348,"54":-0.05231072804742111,"55":0.08247537339836898,"56":-0.037240254438122164,"57":-0.2760882854406002,"58":0.00716259413418724}},{"sx":1,"sy":1,"depth":59,"w":{"0":0.06625893463316382,"1":0.2032647047482612,"2":0.16775949736174287,"3":-0.1927898381231783,"4":0.1959811052927913,"5":0.09079143919612931,"6":-0.14094419945274095,"7":-0.12469683998180728,"8":0.054257005443779115,"9":-0.044930551018565246,"10":0.24619538085713977,"11":0.27013162961844384,"12":-0.16611087004054273,"13":-0.052009611521089405,"14":-0.14163017453259244,"15":0.12495761884007076,"16":-0.05220071014488808,"17":0.013832080923834965,"18":-0.08630686652435168,"19":0.050040520538001614,"20":0.31705992647621983,"21":-0.11465488287783229,"22":0.11229070237879694,"23":0.08050232884220869,"24":0.008165164727906063,"25":0.0856662420703621,"26":0.033889493056988705,"27":0.09732424551881973,"28":-0.16390828617030392,"29":0.054529386194247194,"30":-0.11739684600142744,"31":0.2844883965701191,"32":0.006253429926419028,"33":0.04594719674937492,"34":0.06744446412743739,"35":0.027452613785123016,"36":-0.09129912772981619,"37":0.07275651318453764,"38":-0.07657508896730858,"39":0.15902847518559118,"40":0.08910287660228065,"41":0.032064322700834695,"42":-0.03271232580726921,"43":-0.10677396024890827,"44":0.2304944362530108,"45":0.035785786016051147,"46":-0.060156025386207845,"47":0.011130595681608745,"48":0.042497004954621276,"49":-0.01980780389474837,"50":0.1081983060804032,"51":-0.11393741817619053,"52":-0.08274727177582379,"53":-0.1317282365364585,"54":0.16567604011985682,"55":-0.20838590044069993,"56":-0.09992165402778085,"57":0.07029299079974714,"58":-0.27415299181493497}},{"sx":1,"sy":1,"depth":59,"w":{"0":-0.02377001045243393,"1":-0.0919182652359812,"2":-0.007071825026299595,"3":0.1748875287784237,"4":0.030659505559647582,"5":0.11067080167616483,"6":0.12942833853208593,"7":-0.00447922278089616,"8":0.007904313829640266,"9":0.06866635982002976,"10":-0.10271841861622237,"11":-0.3551122525459617,"12":0.054227580737495826,"13":0.053591646107779715,"14":-0.04829662455876817,"15":-0.12690088955445036,"16":-0.007584533666160804,"17":0.3003018516514437,"18":-0.012187413323050848,"19":0.1355913518133996,"20":-0.20979913751189816,"21":-0.11155336925136648,"22":0.18648727228584602,"23":-0.2366055449029822,"24":-0.0663120809265776,"25":-0.13006893962233587,"26":0.2301352477156706,"27":0.1733515925243721,"28":0.1350480468383295,"29":0.06769726022003326,"30":-0.07568305168233558,"31":0.13644033327996025,"32":-0.057410759011057896,"33":-0.010971996784488135,"34":-0.07919622517210415,"35":0.21244544599307139,"36":-0.04322016166830919,"37":0.04307855784431332,"38":0.09483579280400178,"39":-0.11890097026637862,"40":0.14756455832032525,"41":0.0988485459185526,"42":0.04680971830238732,"43":-0.07296486319001579,"44":-0.08523660076203206,"45":-0.15025128492685974,"46":-0.25448925796634997,"47":-0.022202009687427113,"48":-0.13872557066410843,"49":0.16044790196736836,"50":-0.12326711055778104,"51":-0.14162223211738853,"52":0.14300625067575773,"53":-0.19665348396130924,"54":0.1331716599550238,"55":0.056406527655716986,"56":0.1352916083704359,"57":0.14018844130093508,"58":-0.05211200181709123}},{"sx":1,"sy":1,"depth":59,"w":{"0":0.12667684672519927,"1":-0.08017183472199901,"2":-0.1385746057248273,"3":-0.11537871166540722,"4":-0.07551602548241217,"5":0.024626425047876415,"6":-0.002754368566958691,"7":0.13043206043513617,"8":-0.044887075798764234,"9":-0.003186823977815054,"10":-0.03323700669000113,"11":0.02912137078982775,"12":-0.14130178985758562,"13":0.10451459005337496,"14":-0.13944172595335697,"15":0.005929384982992782,"16":-0.012386814261599773,"17":-0.022023365016186746,"18":-0.06572700124660398,"19":-0.07474662992273948,"20":-0.05454501948211115,"21":0.08523521233063518,"22":0.02158587128206441,"23":-0.02133608575346203,"24":-0.08335419464804421,"25":0.08824288304892006,"26":-0.1824628605898404,"27":-0.04173113962509843,"28":-0.11831277065387076,"29":0.02108506654672353,"30":-0.15089520460990902,"31":0.08284053358846132,"32":-0.05887298791324005,"33":0.039881593103683936,"34":0.08595596922225321,"35":0.1345047452877778,"36":0.07645954937131268,"37":0.1415149993289396,"38":-0.1571523496678786,"39":0.12887507936642756,"40":-0.15716334071954188,"41":0.1651841673453853,"42":0.09180522253862226,"43":0.05298321018042159,"44":-0.043324479893734974,"45":0.04308021104289341,"46":-0.11663277965997547,"47":0.17916942071934447,"48":-0.024102807866426976,"49":0.06609964061838848,"50":-0.06740099146047095,"51":-0.033222615613661216,"52":0.2185622106854252,"53":-0.05662211206391238,"54":-0.04405654929542719,"55":-0.03491262034913631,"56":0.027975986078255306,"57":-0.01895798446307928,"58":-0.11505387012776552}},{"sx":1,"sy":1,"depth":59,"w":{"0":-0.11107115417404975,"1":-0.0941545968771619,"2":0.17358294655174902,"3":-0.10838789938712876,"4":0.0030605449089834923,"5":0.16445656003910894,"6":0.0701159551764907,"7":0.02424022967938516,"8":0.07197137010989355,"9":0.2005364057788443,"10":0.04700452181772323,"11":-0.02730980356757515,"12":0.10800895865703773,"13":0.11608554496450522,"14":-0.10826879351308646,"15":-0.0702876999536595,"16":-0.044876540264696216,"17":0.12467946639781925,"18":-0.26163227684976514,"19":-0.03091812392895246,"20":0.12975811776091925,"21":-0.1333083829743041,"22":-0.03164461878281672,"23":-0.05039667109538697,"24":0.1814296935840371,"25":0.01899498285175074,"26":0.06276385641058045,"27":-0.13187507002341986,"28":-0.08828675330747111,"29":-0.1056752524119301,"30":-0.12455354365321952,"31":0.1070414568901921,"32":0.015590059598642507,"33":0.0028080831788017406,"34":-0.021963802900157887,"35":-0.05558790696620764,"36":-0.05139591329926844,"37":-0.118249529037299,"38":0.08168630636718954,"39":0.08600111030450587,"40":-0.006938762026642078,"41":-0.017971202976942262,"42":-0.11463002924890561,"43":0.07186139868583362,"44":-0.10757231807862021,"45":0.018732169576289884,"46":0.19030151463881312,"47":-0.024833221248985314,"48":-0.27102638471809837,"49":-0.12346452797135316,"50":0.11760278644879234,"51":-0.14838663993862714,"52":0.09235570300501963,"53":0.19383635794606022,"54":0.12414549049497113,"55":-0.05449018492792008,"56":-0.11338944113962489,"57":-0.13150840114242265,"58":0.09686668262159669}},{"sx":1,"sy":1,"depth":59,"w":{"0":-0.08659229330091324,"1":0.0857621156623391,"2":-0.005664917144605987,"3":-0.12424568050550279,"4":0.0992363818444926,"5":-0.12640931196883043,"6":-0.23652496453376937,"7":0.1948526663747529,"8":0.2362417147956535,"9":-0.240336277921159,"10":-0.21309655317837672,"11":-0.012781066938708126,"12":-0.23229721553641333,"13":0.1948215130349047,"14":-0.11660583192387203,"15":-0.06527766759403911,"16":-0.10469106254497174,"17":-0.04402085267337969,"18":-0.043424955125522795,"19":-0.01443417667589608,"20":0.0391236893221449,"21":0.04794110001980839,"22":-0.16002971332324367,"23":-0.20579889290738984,"24":-0.34641009947312934,"25":0.10492042340250042,"26":-0.03435896863133011,"27":-0.13074068373280104,"28":0.044082221058669484,"29":0.022656146283584717,"30":-0.21317975084894789,"31":0.10572557883010442,"32":-0.0022391774904653586,"33":0.018882112934880846,"34":0.06834043822837678,"35":0.30844231866401806,"36":0.1315357599097826,"37":-0.11268271198592764,"38":-0.19606555455469438,"39":-0.00028371537781026986,"40":0.053130234620475704,"41":-0.1370513598835534,"42":-0.030255590014499237,"43":-0.23633758018300668,"44":0.005385844280629473,"45":0.09911134309821745,"46":-0.21223646936941898,"47":-0.07309300436804822,"48":0.05131696559798954,"49":-0.035203297115566086,"50":0.022137983666731916,"51":0.2668400942214101,"52":0.01933298835122135,"53":0.3179108820883265,"54":-0.04751405036647512,"55":0.12524405418911802,"56":0.06664022074258898,"57":0.15738599935687278,"58":-0.01997825008968698}},{"sx":1,"sy":1,"depth":59,"w":{"0":0.1968032123125538,"1":-0.15076685190030725,"2":-0.11661954369652178,"3":-0.00733038227870185,"4":0.04060366214104576,"5":0.050529813156050984,"6":-0.10091532860214833,"7":0.06153765742400196,"8":-0.05948067165442982,"9":-0.24081531623364882,"10":0.06244183326396657,"11":-0.06263235965840822,"12":0.08250360909602623,"13":-0.30600419236040316,"14":0.018042932737572702,"15":0.15802324645770294,"16":-0.12937429199862815,"17":-0.12705764955293272,"18":-0.027165983241040637,"19":-0.24680974532672748,"20":-0.13462545244862156,"21":0.0118392186500434,"22":-0.2669142517340584,"23":-0.027796207578202045,"24":0.3153968415938242,"25":-0.10132047123022433,"26":0.32454127198103633,"27":-0.10635928182536228,"28":0.0667462390799577,"29":-0.19459952934685754,"30":0.3301560145481792,"31":0.10109592594602246,"32":-0.05817083168121639,"33":-0.06111743475629004,"34":0.16013372174054483,"35":0.22870005270816957,"36":0.18624277034554818,"37":0.03662838378424726,"38":-0.05015004458418305,"39":0.2284429709238734,"40":-0.20838397635545758,"41":-0.13664433423216482,"42":-0.07893165884571507,"43":-0.0956112779415256,"44":-0.0881475771070693,"45":-0.12051528283749509,"46":-0.17296223866961855,"47":0.1485055294536908,"48":0.10352530518493223,"49":-0.017098259572683138,"50":-0.12636160727731408,"51":-0.038947970220419646,"52":0.22467510549731207,"53":-0.18681745721003964,"54":0.04125905861410201,"55":0.038789401433436906,"56":-0.003613411294160664,"57":-0.26736252158316176,"58":0.0867697629182988}},{"sx":1,"sy":1,"depth":59,"w":{"0":0.26464287477032655,"1":-0.28271721852368303,"2":-0.20305409336017652,"3":0.15104731881235842,"4":-0.10606560663412938,"5":0.000121704255062897,"6":0.02721084219010486,"7":0.17260897156717953,"8":0.07894780393124258,"9":-0.10344817431590453,"10":0.009249099230376014,"11":-0.08384083503019203,"12":-0.09747422020093584,"13":-0.03616263884213254,"14":-0.17055762680051328,"15":-0.01018699065274791,"16":-0.1507663576889503,"17":-0.19564697984762228,"18":-0.21157409101179064,"19":0.044396652013908196,"20":-0.1018785384758801,"21":-0.17343861619112014,"22":-0.13634250830110356,"23":0.0036034221972940242,"24":0.11555516978010542,"25":0.09164517885316346,"26":0.0011675413558137567,"27":0.11994089481210944,"28":0.026871708369008353,"29":-0.1951007829481954,"30":0.08358511237096093,"31":0.18009559639791484,"32":0.14405553449245434,"33":-0.09319056335697236,"34":-0.04694114075492988,"35":0.036485608329042594,"36":-0.04855262222655988,"37":0.04925724009688124,"38":0.21789198484969508,"39":0.07062245884917168,"40":0.06428787152884406,"41":0.010743068515842594,"42":0.087219319428019,"43":0.15541679915827167,"44":-0.1004306397663346,"45":-0.2515433145121176,"46":0.0790259210592297,"47":0.2216500423847659,"48":-0.0392999222176104,"49":0.013131055642171291,"50":-0.0877998363624491,"51":0.11869325028706434,"52":0.1798704175927586,"53":0.043575961965728854,"54":0.12002382964207528,"55":-0.033462476121588064,"56":0.2075033838175597,"57":-0.09965058770455794,"58":0.12416795315587204}},{"sx":1,"sy":1,"depth":59,"w":{"0":0.16812290728460078,"1":-0.06503466527269255,"2":0.08183043995820813,"3":0.08669227173631143,"4":0.00470525841214751,"5":-0.060242283145791185,"6":0.19448492961065927,"7":-0.11722004461412022,"8":0.10210630172087884,"9":0.18588421989962337,"10":0.0389833117497546,"11":0.10299145839171266,"12":-0.010467306280172948,"13":0.08328389758031082,"14":0.0010589889949609162,"15":0.038568954346982307,"16":-0.07521150163393003,"17":0.08612917363431295,"18":-0.19741951578994707,"19":0.08292113147129652,"20":0.04584716024565906,"21":-0.08043521851020594,"22":0.014016909680971626,"23":0.29507652177549754,"24":-0.2164518669671284,"25":-0.00855985966083002,"26":0.07980435525385413,"27":0.10728903802739892,"28":0.3259137586243413,"29":-0.2710826853810949,"30":0.00013640647543464052,"31":-0.009441297862071714,"32":0.11554182008735718,"33":-0.18139376719725592,"34":-0.19924471291166482,"35":0.07941227725143699,"36":-0.2720673954244473,"37":0.08185060221530283,"38":-0.29449993736863633,"39":0.07438885136386267,"40":0.0845316471254749,"41":-0.051791381115474454,"42":-0.16533107970406533,"43":0.11381368613533009,"44":0.14812419517370015,"45":-0.015981071283465792,"46":0.15334142730612527,"47":0.11841860931090496,"48":-0.0479469139406077,"49":0.026424583749598683,"50":0.0591368163926749,"51":0.060868790225933354,"52":-0.09377400616865901,"53":-0.07381918048195614,"54":0.12141270357720406,"55":0.10473508449378366,"56":-0.01433762535324722,"57":-0.09487519284400346,"58":-0.15596806716252684}},{"sx":1,"sy":1,"depth":59,"w":{"0":-0.033099149867049524,"1":0.0001048137015134852,"2":-0.09567768730215365,"3":0.005396551847761232,"4":-0.08648214718331876,"5":0.0920596523206138,"6":0.03030571005152517,"7":0.11630842452453138,"8":-0.008675395189333803,"9":0.09844317314843441,"10":-0.060677077515459935,"11":0.24795880626684377,"12":-0.15537171740482036,"13":0.10655263056880802,"14":-0.03215358152229809,"15":-0.13852372986294556,"16":-0.041229102003052145,"17":-0.04206243134504512,"18":-0.13311743643394314,"19":-0.01272452862814441,"20":0.005365001524696762,"21":0.09298692113909843,"22":0.06843609660619918,"23":-0.12403905843235172,"24":0.07481676755157926,"25":-0.12795210480760094,"26":0.04002806413927333,"27":-0.06866477437290568,"28":0.2196262478359222,"29":-0.10872460724458523,"30":-0.18076547264457296,"31":-0.0886475722820739,"32":-0.05216301109268793,"33":0.007120926944389775,"34":-0.14174487394788646,"35":-0.17421609746476083,"36":0.0921738726570685,"37":0.1783626841557653,"38":-0.01590849158388897,"39":-0.052074942331288565,"40":-0.03061160206993167,"41":0.03306143286454983,"42":0.011857256874470718,"43":0.05384338596632151,"44":-0.16396854444351106,"45":0.006747981488056786,"46":0.06213146482424627,"47":0.07694685776493661,"48":0.012552941528471476,"49":0.02186417732792596,"50":-0.028050237914576195,"51":-0.05082252084191827,"52":0.07438271525839849,"53":-0.006698923951965562,"54":-0.0459328326220718,"55":-0.06902248764464569,"56":-0.013996654085910876,"57":0.13369108206764752,"58":-0.2572821364345774}},{"sx":1,"sy":1,"depth":59,"w":{"0":-0.16898894359885788,"1":0.05715941932291079,"2":0.11841239031513744,"3":-0.19966540005237013,"4":0.07497095576508664,"5":0.03414026508974828,"6":-0.013768988265429669,"7":-0.05141381497380029,"8":-0.001667928360156528,"9":0.07886368892111188,"10":0.0627514873674152,"11":-0.014415991261000157,"12":0.010068264413645821,"13":-0.10765228481570399,"14":0.18026361753429646,"15":0.14021420559449027,"16":0.19167381911351944,"17":0.08969088454494266,"18":-0.05611436353154987,"19":-0.043348824876185986,"20":0.14955379985618283,"21":-0.07456457210729966,"22":0.052403628234137266,"23":0.087339040822953,"24":0.14383159628472028,"25":0.09537560299270588,"26":-0.1324218654629563,"27":-0.1508002881447006,"28":-0.14430229386004342,"29":0.08940554124590368,"30":0.07912391308229653,"31":0.03670132504851606,"32":-0.069971803812799,"33":-0.0729575984835594,"34":0.44884502581161706,"35":-0.08616822371549854,"36":-0.1494931110681251,"37":-0.031473008649392106,"38":0.23520071093005332,"39":-0.12624020514531684,"40":0.030469780344106384,"41":-0.084510478302789,"42":0.15827083660076974,"43":0.0926631222781441,"44":0.003299139165940811,"45":0.1144542527766596,"46":0.0823251657843286,"47":-0.1279250828135469,"48":0.21741087535107706,"49":-0.043442277609212016,"50":0.09181680314237584,"51":-0.06594281000106912,"52":0.3569209028192498,"53":0.05418148363572661,"54":0.0630888303238128,"55":-0.05057593142187864,"56":-0.00563559288210154,"57":-0.05958565600331513,"58":0.08967136124388807}},{"sx":1,"sy":1,"depth":59,"w":{"0":-0.09303049065890759,"1":-0.1247375927326779,"2":0.13251522434983123,"3":0.12456109322172837,"4":0.1343166476345869,"5":-0.1106497633990069,"6":-0.0628692427061779,"7":-0.06267453282781424,"8":0.14966124312623194,"9":0.0970454128779003,"10":0.21392731589393846,"11":-0.016624209108438346,"12":-0.0633060300578016,"13":-0.0002943365146666699,"14":-0.100449655880039,"15":-0.19848632692490234,"16":-0.016974882194818845,"17":-0.12789431591782266,"18":0.12965131410819922,"19":-0.02862471849264232,"20":0.12683289350627236,"21":0.14886674815883144,"22":0.20193683506446752,"23":0.3164994161519143,"24":-0.2799767013138089,"25":-0.14469746723696972,"26":0.017957036708145795,"27":0.17859669684964613,"28":0.04598081820826791,"29":-0.07026067071336006,"30":0.12979904189302427,"31":0.07266116348318198,"32":-0.0539764146070935,"33":-0.08270185221494951,"34":-0.18098013414243136,"35":0.05369271323221272,"36":0.21900912808952044,"37":-0.1213691234633055,"38":0.1085922414116606,"39":-0.3376851965366441,"40":-0.182435805007988,"41":-0.21913833095381766,"42":0.09257572474245214,"43":-0.12637848906267046,"44":-0.1638845080989586,"45":-0.22902083902807968,"46":-0.024670605506835242,"47":-0.13393958311154364,"48":-0.1862880998192281,"49":-0.008347800068907089,"50":0.21551527066528173,"51":-0.1984874911798481,"52":-0.007683392826191059,"53":-0.2090634541848121,"54":0.10551232453199738,"55":-0.02611534929383131,"56":0.024458397672733872,"57":-0.07952219900485327,"58":0.025232710370627937}},{"sx":1,"sy":1,"depth":59,"w":{"0":-0.0895049249893878,"1":-0.011290819788474682,"2":0.0533694180331708,"3":0.07474616805754782,"4":-0.019359740910734807,"5":0.04573548150481407,"6":0.21974025637793146,"7":0.08849446461055963,"8":0.10380578343684664,"9":-0.020625906695371836,"10":0.061163004687414334,"11":-0.10662517626426854,"12":-0.08715257984749386,"13":0.032193706206487545,"14":-0.04262688203487875,"15":-0.15305535026548198,"16":0.26479142956600943,"17":-0.13902471421132712,"18":-0.06032043116329887,"19":0.08125270879596008,"20":-0.06049707980727091,"21":0.002376899087214532,"22":-0.13501332651832998,"23":0.20503828388009454,"24":0.1379584893071598,"25":-0.04313208070946055,"26":0.08225771140059403,"27":-0.12241771367135779,"28":0.033397626649005925,"29":-0.09442951939344629,"30":0.035155411906043973,"31":0.042615060483987464,"32":-0.07626647242681477,"33":-0.08311817109910587,"34":-0.09225800613582844,"35":0.05413161360150325,"36":-0.04083046680193311,"37":-0.039707626583548754,"38":0.12070916423703834,"39":0.08140765692023777,"40":-0.12400801571799057,"41":0.0858881198570094,"42":-0.17905111615607497,"43":0.021961863125784617,"44":-0.07382573184838606,"45":-0.15958770862572846,"46":0.020149059746147835,"47":0.07853121501067487,"48":-0.030697905806855292,"49":0.017518996842314907,"50":-0.043171287093365526,"51":-0.006797073508984434,"52":-0.05161768688049587,"53":-0.2286710602340203,"54":-0.1660249266108214,"55":0.20040980316115006,"56":0.013726687002908617,"57":0.11527381765081943,"58":-0.13360449976988092}},{"sx":1,"sy":1,"depth":59,"w":{"0":-0.03761555737707106,"1":0.13308463480566668,"2":0.021482579782208956,"3":0.06689559546400209,"4":-0.02442761443943733,"5":-0.19675146258629247,"6":-0.07732219516783283,"7":-0.056907499512006875,"8":-0.014043362778232735,"9":0.11394169827228075,"10":0.07617023435895132,"11":0.16495109146669978,"12":0.027719200898985177,"13":0.14511006381517044,"14":0.006080134919061624,"15":0.17292523307432156,"16":0.12360971605572882,"17":-0.00370039457096685,"18":0.08792837582128607,"19":0.06725082253351444,"20":-0.09083979682352442,"21":-0.11823694128132374,"22":0.07208161926141178,"23":-0.036068946577665906,"24":0.24879196530063905,"25":0.17537522361956137,"26":-0.16773344063153472,"27":0.13202273281571622,"28":-0.10215689939585021,"29":0.11076739921602255,"30":0.12013460738062186,"31":-0.043739010804201464,"32":0.1833421398353889,"33":0.09001851929186214,"34":-0.0004548872843484095,"35":-0.014546470632253547,"36":0.024204625490871913,"37":-0.10300375777289747,"38":0.05714605121619793,"39":-0.026433850400436467,"40":-0.01772942811013477,"41":-0.05372406231731431,"42":0.1404506021533185,"43":-0.05767927554674886,"44":0.04927524967868256,"45":0.0921643987440698,"46":-0.061125052933167986,"47":-0.07335219931312244,"48":0.03816168228014525,"49":0.034118808137253015,"50":0.03958840475110091,"51":0.010029422148487748,"52":-0.09487241383402525,"53":-0.08335299461121266,"54":-0.1275762977520953,"55":0.0033416038135084787,"56":-0.007030807064118697,"57":-0.07575526514385297,"58":-0.16975519259571367}},{"sx":1,"sy":1,"depth":59,"w":{"0":0.0541351843265543,"1":0.15241164513595865,"2":-0.011245989578980658,"3":-0.09538036221917054,"4":-0.15491794725294258,"5":-0.024463071241411637,"6":-0.1769940693708843,"7":0.08232183579294068,"8":0.07798849466080816,"9":0.05184884635325323,"10":-0.02411475588330436,"11":-0.19224752625546251,"12":-0.0836450620789784,"13":-0.09815699869244383,"14":-0.037848226546875786,"15":-0.01075278979816451,"16":0.06752433151974054,"17":-0.02891281051251634,"18":0.16825301076019736,"19":-0.06017228259864554,"20":0.10956829913875331,"21":-0.09658740020874253,"22":-0.08459635591247257,"23":-0.018354742291580045,"24":-0.05275744394988178,"25":-0.06529195676490257,"26":-0.38999029464324536,"27":0.06233674842826152,"28":0.28898543091627565,"29":0.0648540196510949,"30":-0.08016371322908146,"31":0.060913950463386816,"32":-0.24534084373804618,"33":0.10096860373856563,"34":0.09482429563894196,"35":-0.005301653694542951,"36":-0.3257557570351744,"37":-0.07109820522049153,"38":0.204866644710397,"39":-0.33664090851824213,"40":0.1373991509467488,"41":0.06661564619163513,"42":0.18210097696033398,"43":-0.02120968284121035,"44":0.04370812869756151,"45":0.08579521495005696,"46":0.0357878625286589,"47":-0.052987426123445334,"48":0.17567301305078661,"49":0.2606595168968917,"50":-0.13085302660062526,"51":0.025947529674362587,"52":0.0969861807844519,"53":0.04674268788337089,"54":-0.14681097949782992,"55":0.009462940406775687,"56":0.03880860808440044,"57":0.24163735594789246,"58":-0.15443017828563918}},{"sx":1,"sy":1,"depth":59,"w":{"0":0.03683002972787899,"1":0.10458279328568597,"2":0.0686887108344237,"3":0.022273830741381236,"4":-0.04519724762470999,"5":0.030008852827948018,"6":0.1070143264354596,"7":0.1569426787734503,"8":-0.20849390644225688,"9":-0.0477960888467254,"10":-0.010146732157961039,"11":-0.02831466053817806,"12":0.16215757489953483,"13":-0.01451428936134741,"14":0.3290768650462119,"15":-0.008392922006150653,"16":0.012669915466801563,"17":0.034100591189079134,"18":-0.11539003913483095,"19":-0.09773145012663705,"20":-0.12563391054409218,"21":0.22633043650406348,"22":-0.13165596885665962,"23":0.21641097408676568,"24":0.07779011513615607,"25":-0.07173361149952714,"26":-0.1624645043481922,"27":-0.09170373251665664,"28":0.07469403945203705,"29":-0.016439647257779588,"30":-0.06553955285576793,"31":-0.2681611493197099,"32":-0.06492915294250179,"33":-0.01938611661127489,"34":0.08449714607750063,"35":0.11291655202940973,"36":0.06978999076700157,"37":-0.22154427947027266,"38":-0.14068999578481292,"39":0.11331772043362565,"40":-0.06547231710995209,"41":-0.12057195941406772,"42":-0.07007160866388948,"43":-0.22296798166227005,"44":0.03834599056106422,"45":0.16462272904350983,"46":0.043910374696409786,"47":0.24307084435732143,"48":-0.09317587945642704,"49":0.07855789455246782,"50":0.25700165909277645,"51":-0.06772943535607463,"52":0.0062684668412172975,"53":-0.014926799995479882,"54":-0.21254241038740268,"55":0.10102440141186071,"56":0.018235332975541297,"57":-0.018980340943040543,"58":-0.10314250788003278}},{"sx":1,"sy":1,"depth":59,"w":{"0":0.11720005917046578,"1":0.15288459521464026,"2":-0.05789271533435729,"3":0.1287350428261948,"4":-0.1482790604860471,"5":0.04747317408340889,"6":0.24301816284466574,"7":0.08664354214142808,"8":-0.19106468906593566,"9":0.08069834525211259,"10":-0.24426578463186427,"11":0.13087414423674484,"12":-0.11414608319797397,"13":-0.09933997091177048,"14":-0.09572832867962427,"15":-0.010513991179749006,"16":-0.3172487240190078,"17":0.05661849343142754,"18":0.28752566013896796,"19":-0.06808010935291785,"20":0.20562734662646195,"21":-0.23369228444919168,"22":-0.13205205950114163,"23":0.24198261227947432,"24":-0.04711995085649983,"25":0.1037709708000096,"26":-0.24978839025709748,"27":-0.09126198496129367,"28":-0.13613615170825813,"29":-0.17500517248385877,"30":0.15845306623111022,"31":-0.16665507137196167,"32":0.06454916999165015,"33":0.12352015607755651,"34":0.20186783232884634,"35":-0.19381209948622893,"36":0.0043394369325120774,"37":0.07542503668784936,"38":-0.04530109950683702,"39":0.057760586601825314,"40":-0.06275193241662629,"41":-0.06961577691099935,"42":-0.0021391526773665436,"43":0.15450147934638692,"44":-0.16554117108338304,"45":0.003452685578175495,"46":-0.25597942099453735,"47":-0.29992069581759695,"48":0.01541197472525315,"49":-0.18635303518138804,"50":0.08294789401636651,"51":-0.045111095695661706,"52":-0.3005102296591292,"53":-0.08017701767641768,"54":-0.18858290689667567,"55":-0.09102342355005533,"56":-0.060599698883710564,"57":0.13266902052384102,"58":-0.06028048465899733}},{"sx":1,"sy":1,"depth":59,"w":{"0":0.3747134630417767,"1":-0.08779708170893574,"2":0.0026711407430555843,"3":0.17278355810493498,"4":0.22645294735908497,"5":-0.18490337221227693,"6":-0.2348019990632081,"7":-0.12231029211693649,"8":0.13951862687834685,"9":0.019016686562968343,"10":0.08402013321564641,"11":-0.009183720745085253,"12":0.060233189061041026,"13":0.345705636165122,"14":-0.1460987207941055,"15":0.09053478105328244,"16":-0.0316082440830078,"17":0.03607121717448137,"18":0.12915101904380683,"19":0.04181059691954846,"20":0.12400226017024489,"21":0.03293898587683378,"22":-0.10994327888347048,"23":0.28977944784872034,"24":0.032428788343612035,"25":0.07206326600759928,"26":0.031905431456110495,"27":-0.08821182226314311,"28":-0.32700504536744257,"29":-0.16990869710627976,"30":0.1554242138340382,"31":-0.03665965932162912,"32":-0.16105497112814313,"33":0.10383091109021597,"34":-0.09655360691044154,"35":0.010274979097093281,"36":-0.07055667864963591,"37":0.012368493017046843,"38":-0.1607554140504594,"39":-0.2740968901042543,"40":-0.012659047175761542,"41":-0.022542495120711815,"42":0.08968281111104756,"43":0.09579989116137677,"44":-0.007167472696420041,"45":-0.01802283477101177,"46":-0.24932700728324778,"47":-0.008005593941382687,"48":0.0018132827082333078,"49":0.026380176125555873,"50":0.01985664384063613,"51":0.21160603811393458,"52":-0.00039220452362280245,"53":0.06997187690088019,"54":0.15359004236265958,"55":0.08889280328928179,"56":-0.06327940997894342,"57":-0.008682327285131453,"58":0.1188534696572923}},{"sx":1,"sy":1,"depth":59,"w":{"0":0.02027343048291511,"1":-0.07222354453206516,"2":0.1997184080910462,"3":0.0005257239963937575,"4":0.2112182440855919,"5":0.04069186843968612,"6":0.16217285933004694,"7":-0.009303258140628164,"8":-0.05818885318339688,"9":0.0008527064915573079,"10":0.1568823310072865,"11":-0.25295162759364814,"12":0.01212320866952005,"13":0.057049769913777214,"14":0.1435827773741506,"15":0.004021268866665106,"16":0.18453513868012145,"17":-0.03418804495642186,"18":0.05998356206518488,"19":-0.1552944593798816,"20":0.12027364166304483,"21":0.11134239198842896,"22":0.2491264889792795,"23":-0.013416239736107555,"24":0.09386673123893527,"25":-0.061792125794323936,"26":-0.06162355620906574,"27":-0.027390099517238798,"28":0.0931161780932215,"29":-0.3190150984705525,"30":0.20958893300465922,"31":-0.029746327040490878,"32":-0.011825654453336108,"33":0.045650499265086096,"34":-0.26606819460389014,"35":-0.217888236943804,"36":-0.050460399121475735,"37":-0.21702000331828475,"38":-0.04618383486507498,"39":-0.10099400532189615,"40":0.07845466360969931,"41":-0.11609302737030446,"42":-0.0032838446515068664,"43":-0.16687493667690145,"44":0.052507687780650174,"45":0.1512694203850526,"46":-0.046615737870332824,"47":-0.0233163565424223,"48":0.24231984461985234,"49":0.03634714623050484,"50":0.023186699485270575,"51":-0.14337832218282184,"52":-0.20747463031451308,"53":0.028884186564042638,"54":-0.09024449391692761,"55":-0.0717095991660928,"56":-0.018797688045058134,"57":0.17473919985513806,"58":-0.19767992789012043}},{"sx":1,"sy":1,"depth":59,"w":{"0":0.09517712755875317,"1":0.08189160236077421,"2":0.1238324230380375,"3":0.048056289164747454,"4":-0.2130460136624076,"5":0.017925536754662193,"6":-0.004165526293149116,"7":0.044804957109702094,"8":0.046645491219036446,"9":-0.06238650988743501,"10":-0.08918073540798462,"11":-0.024468538550411943,"12":-0.2325867873295224,"13":-0.08413618019061322,"14":0.39575700484119847,"15":-0.0645005562595952,"16":-0.14507077989276437,"17":0.15639456563591142,"18":0.07139610979333107,"19":-0.0019586710730805576,"20":0.16600513535035244,"21":-0.03717724246454123,"22":0.31778500417084476,"23":0.04551088899467365,"24":-0.016685631489946996,"25":-0.08196360750106274,"26":-0.14548696151766524,"27":-0.0773434670028534,"28":-0.09394510330011951,"29":-0.24607021375872878,"30":-0.051013264964900405,"31":0.0010918924952975318,"32":-0.07180346648080072,"33":0.2251983831721223,"34":0.06462707502171243,"35":0.23160061281460056,"36":-0.18919325331746678,"37":0.10933888215597926,"38":-0.014115785115247748,"39":0.10536629475538539,"40":-0.19495518191637085,"41":0.14774051585137365,"42":0.2112811218402276,"43":0.05163668685598445,"44":-0.050990812289491816,"45":0.052464160778410415,"46":0.06627868248709937,"47":0.03151607057503219,"48":0.020192965306999315,"49":-0.056562549941107994,"50":0.0560325298373857,"51":-0.04767639390695194,"52":-0.05256838796141804,"53":0.1016420592888317,"54":0.06242470071757552,"55":0.021688121677232157,"56":0.021481506207448455,"57":0.12831446495011933,"58":0.21268451817879475}},{"sx":1,"sy":1,"depth":59,"w":{"0":0.16797013963720875,"1":0.07564613362778844,"2":0.03412981025864784,"3":0.06984065731797043,"4":-0.36283199284788253,"5":-0.1428009091548474,"6":-0.10271362095455548,"7":-0.03297634392015544,"8":-0.20360557658329775,"9":0.011955940783371071,"10":-0.056825176172966944,"11":-0.11265439129892048,"12":-0.027141290734790973,"13":0.14383479594985335,"14":0.19697970328463954,"15":0.16969374283647456,"16":-0.2907268880476032,"17":0.029537994209733267,"18":0.21588104179025663,"19":-0.048648591916212625,"20":0.35783147834430024,"21":0.19436023728030832,"22":0.07100424078919924,"23":0.12323657367532265,"24":0.11052601250909162,"25":0.08989889131312426,"26":-0.009802670202951879,"27":-0.012973152723031837,"28":-0.18595775627704783,"29":-0.14558389879230732,"30":-0.1831276653132365,"31":-0.12000143543888138,"32":-0.09498545353335897,"33":-0.02253032446071808,"34":0.03168543523166405,"35":0.20820879148839785,"36":-0.11267714412582225,"37":0.07844948985872412,"38":-0.07679200439142356,"39":0.0096299242026367,"40":0.009852581546224117,"41":-0.11208152958060404,"42":0.05501513426478411,"43":-0.12363404739709634,"44":0.06597471572683543,"45":0.17815855675580636,"46":-0.015521745908594085,"47":0.07803320424231759,"48":0.04196400001639406,"49":0.10491626679662337,"50":-0.033445926652810994,"51":0.09855985475324144,"52":-0.16101190982342853,"53":0.22121864656927495,"54":0.07198671444841073,"55":0.02444098726697652,"56":-0.16129293180980164,"57":0.16811908826308625,"58":0.20332560090827337}},{"sx":1,"sy":1,"depth":59,"w":{"0":0.31498003129319707,"1":0.1061697434973489,"2":-0.002924897970196645,"3":-0.019419106530815123,"4":-0.018496233805876016,"5":0.05468455716663416,"6":-0.20068044652355757,"7":0.18846841999670771,"8":0.03938453442750845,"9":-0.046655853610121374,"10":0.05634366471135077,"11":0.0070074851621119835,"12":-0.13303445688363036,"13":0.0006442718636423757,"14":0.3327380788481861,"15":-0.03209669939681826,"16":-0.18840192683779217,"17":0.2724370492775702,"18":0.18981473459037437,"19":0.016694730725041348,"20":-0.40010446919078574,"21":0.2105521127026018,"22":0.10635524358166487,"23":-0.014002622081832691,"24":-0.09036660799749333,"25":0.029503787784131888,"26":0.28337517235015325,"27":0.22829709811886206,"28":-0.07430761844074237,"29":0.04443592381861994,"30":-0.004555206116684288,"31":-0.04665852622477806,"32":0.0506868222199587,"33":-0.03520983559810063,"34":-0.03684271118381254,"35":0.1226569935317756,"36":-0.14980775106379318,"37":0.23400749226624154,"38":-0.18032055214655893,"39":-0.13736909562985122,"40":0.1256186049652762,"41":-0.04842371946979069,"42":0.18976131430481352,"43":0.0942633478878698,"44":0.06748314279780854,"45":-0.3140621587425262,"46":-0.04429540811713772,"47":-0.06984243124774842,"48":-0.3154301630308541,"49":-0.4192845544689344,"50":0.1610896567507731,"51":-0.07560944211500656,"52":0.08504043549918704,"53":-0.15126932324555534,"54":-0.045841106102672405,"55":0.01945734189094386,"56":0.15462171233622624,"57":0.08840132950712813,"58":0.011930094100911892}},{"sx":1,"sy":1,"depth":59,"w":{"0":0.11262016918976903,"1":0.18135408566695987,"2":0.083687289413996,"3":-0.11485272693402448,"4":0.05262764422969609,"5":-0.030301805030107508,"6":-0.16373300305426333,"7":0.031142963683578478,"8":-0.004104827556235152,"9":-0.06519529630827978,"10":0.25187982654234736,"11":-0.019062384473095786,"12":-0.08728410832518185,"13":-0.16213552194581565,"14":0.13236839423019656,"15":0.013150856188337095,"16":-0.08771941177609845,"17":-0.02618559743203331,"18":-0.1148134938751725,"19":0.07575287171931759,"20":0.15388387142402218,"21":0.12304530951142373,"22":-0.04743918319468197,"23":0.1175758911896326,"24":0.013277736100975495,"25":-0.12182711030343055,"26":-0.034802914668067106,"27":0.22755296758993826,"28":0.18470966193354238,"29":-0.05869442465876595,"30":-0.07922244478593753,"31":0.14233694575865954,"32":-0.042447873882871356,"33":0.10990891761588202,"34":-0.21464927346284066,"35":-0.02797060939532339,"36":0.18122864516287918,"37":0.18546115105855035,"38":-0.1343908584308072,"39":-0.10997396835208328,"40":-0.06529442251830099,"41":-0.16727871576771672,"42":0.05111273978157908,"43":-0.007239744143259393,"44":-0.05354884550894207,"45":0.009112774807633936,"46":-0.08680947826167436,"47":-0.19302313777343563,"48":-0.20974299143429664,"49":-0.06215599005204462,"50":-0.054441703992316,"51":-0.20229080632908222,"52":0.02194251682398216,"53":0.053895289735922544,"54":-0.08297900556289334,"55":-0.107566237782721,"56":-0.13198404771064023,"57":-0.2504065883003673,"58":-0.09111598563901752}},{"sx":1,"sy":1,"depth":59,"w":{"0":0.20341829898018893,"1":-0.2516573569915284,"2":0.05007166515422867,"3":0.05781725383685004,"4":-0.029322205933381654,"5":-0.11992843065349154,"6":-0.005068951768537228,"7":-0.04696926282753071,"8":-0.10739888492477044,"9":0.18123614699069499,"10":-0.13270799510460324,"11":0.007772889610102658,"12":-0.12416250635988935,"13":0.00807926490336665,"14":0.1684477478306154,"15":0.054474902041057906,"16":-0.02213502917828964,"17":-0.029577382346678314,"18":-0.02553123333172756,"19":0.19187512430017312,"20":0.11001715111192543,"21":-0.34931317535041057,"22":0.17072125159201265,"23":0.028631932570161115,"24":-0.10405720396545313,"25":0.28070455013915274,"26":0.3301969339828411,"27":0.015070197147245319,"28":-0.09380953347828803,"29":-0.06015172004993891,"30":-0.16206373450476233,"31":0.22758956661591984,"32":0.03455159033310164,"33":0.16259575170396917,"34":-0.026801034015793306,"35":0.1790115624170428,"36":-0.06920546776055918,"37":-0.12366723830549335,"38":-0.11589724092524915,"39":-0.05196963395570331,"40":-0.1843046702117548,"41":0.15555372940358353,"42":-0.024928513513305328,"43":-0.10887023577426717,"44":0.050670965267971026,"45":0.18411584388631067,"46":-0.017578844171173183,"47":0.008105556462677797,"48":0.14743234291261947,"49":-0.1180696562949404,"50":0.20491560693061237,"51":0.05645079368302936,"52":0.22930441905663157,"53":0.07844677848930683,"54":-0.08851349024725426,"55":-0.08427762721836346,"56":0.14737960809588832,"57":0.1023657990789677,"58":-0.061451983077237135}},{"sx":1,"sy":1,"depth":59,"w":{"0":0.2103309371777079,"1":-0.03769124531461917,"2":0.002870166422921261,"3":-0.032450074434514496,"4":-0.037746263941727885,"5":0.14873877092534327,"6":0.16485476298590993,"7":0.04348760800302524,"8":0.07646859217890489,"9":-0.02376850736618345,"10":-0.026180787149326232,"11":-0.24359285163645888,"12":-0.101402552440409,"13":-0.08330017882573149,"14":0.13512652222036717,"15":0.07661101784815715,"16":-0.13786294543460786,"17":-0.08327158033035571,"18":0.09188832891387566,"19":-0.08178190242216869,"20":0.17950283595459757,"21":-0.09620242600372494,"22":0.09500305327220825,"23":0.26879782872961383,"24":-0.0011312905924595706,"25":0.14128794235070685,"26":0.12806359696414066,"27":-0.1892894372735316,"28":-0.0339557632522261,"29":-0.020458678631065798,"30":-0.05044901133828805,"31":-0.003941869625590179,"32":-0.1971206590257495,"33":0.15555195390337595,"34":-0.020911015945111844,"35":0.03510450580268489,"36":-0.007319004217061571,"37":0.14124392506160025,"38":-0.1497698445184964,"39":0.03543581829943567,"40":0.006096006079995196,"41":0.01676110800039204,"42":-0.04998649280414388,"43":-0.10063862077409498,"44":0.17889431828475968,"45":0.2486501846912108,"46":-0.10764818161739233,"47":-0.003852481424675976,"48":-0.0680112076896353,"49":0.16636270041991333,"50":0.06810468224189382,"51":0.05855423914866274,"52":-0.2675830383832257,"53":-0.16132057674217024,"54":0.05431339504455099,"55":-0.09131148754397879,"56":0.01803254198568377,"57":-0.08524035018192302,"58":-0.03489286382084563}},{"sx":1,"sy":1,"depth":59,"w":{"0":-0.040277922203771535,"1":0.14574111619688532,"2":-0.0032337081726600482,"3":-0.26860146375212945,"4":0.0006406903587131874,"5":0.17133670866406667,"6":0.08676018170580592,"7":-0.17436540891423657,"8":-0.026168284867577375,"9":-0.05700531537244172,"10":0.15934494516785658,"11":-0.08368882456488558,"12":0.059484764375009026,"13":0.13767858100145514,"14":-0.09039158182700194,"15":0.040452118572906676,"16":-0.1191055444131915,"17":-0.23891668144974584,"18":-0.10694169029669139,"19":0.15724155710040333,"20":0.03968631737246806,"21":0.05185718323957747,"22":0.013601899778895343,"23":-0.035593439408505456,"24":-0.10667333137567622,"25":0.25305972564410967,"26":-0.0934456602911783,"27":-0.042910726116744013,"28":-0.14879149404309894,"29":-0.05282502335803538,"30":0.03299658895940737,"31":0.02011441685829599,"32":0.06986546973578925,"33":0.07858051555085359,"34":-0.28721400442489026,"35":0.24293384303517598,"36":0.22479934529791237,"37":0.00727820898751961,"38":-0.1202822549861063,"39":0.14505979539320918,"40":0.1265466487523521,"41":0.06453323058961087,"42":-0.008433544631208248,"43":0.02860648074950575,"44":-0.01812644758717749,"45":-0.023244655337928685,"46":0.06414262896645992,"47":-0.21146313020662508,"48":0.11461181378869706,"49":0.034679178904307745,"50":-0.14149602489996016,"51":-0.02177441817130035,"52":0.049098419437774224,"53":0.35839577294430897,"54":-0.002369680194166069,"55":0.019396202739825626,"56":-0.09513837517114125,"57":-0.08059688708550444,"58":0.040529076926970706}},{"sx":1,"sy":1,"depth":59,"w":{"0":0.042912537353351946,"1":0.14934566258887652,"2":0.05204321110535075,"3":-0.00874087539005464,"4":-0.2377701963229809,"5":-0.1982369257093046,"6":-0.10320789351156048,"7":-0.05675653312632538,"8":0.04547776621402226,"9":-0.01062138427945578,"10":-0.004208931930269679,"11":-0.12434082700845342,"12":0.04563799361339823,"13":-0.09940108708586395,"14":-0.05431692103636564,"15":-0.056404711296977376,"16":-0.20188924627093197,"17":0.07326368931386419,"18":-0.08191227539427438,"19":-0.13572845320258334,"20":0.0023271681644200996,"21":0.18753410299109693,"22":-0.04288062304487183,"23":0.057294219791456304,"24":-0.02756883639036641,"25":0.0735450477572577,"26":0.24966771768478074,"27":0.06643588853538923,"28":0.07217026507513935,"29":-0.04279572010380491,"30":-0.027299669111216503,"31":-0.04560957510877855,"32":0.15952148819083642,"33":-0.07466827900738758,"34":-0.027031153731716627,"35":0.21413892130835213,"36":0.04582465038034637,"37":0.2160175904901755,"38":0.01888905918161046,"39":0.008304778097778954,"40":-0.143036274943549,"41":-0.10723540669365024,"42":-0.2272132081005583,"43":0.19180265739101668,"44":-0.06352844668982713,"45":0.04440994691375202,"46":0.07430881372087315,"47":0.06027524361164635,"48":-0.09543808536030676,"49":0.14454329042572012,"50":-0.06770384745643217,"51":0.06873063145057146,"52":0.002164680179841533,"53":0.20747270385305705,"54":-0.08707426560659003,"55":0.11778043285334022,"56":-0.10915205153426356,"57":-0.029101855644358632,"58":-0.26508596095829545}},{"sx":1,"sy":1,"depth":59,"w":{"0":-0.14407315490930922,"1":0.055720934068472644,"2":-0.06445582445568428,"3":-0.2153530110641909,"4":-0.042095013951895466,"5":-0.19472108662785106,"6":-0.13525033958584792,"7":-0.0485755612363512,"8":0.1228215511822093,"9":0.01687642166064237,"10":-0.13490648099160754,"11":0.12876471428720557,"12":0.024308836734311636,"13":-0.23049927990843314,"14":0.11723577135550622,"15":-0.07939672037651636,"16":-0.04375783006715954,"17":0.03164738397595371,"18":0.016604120120177104,"19":-0.24510501088738973,"20":-0.18382046996025656,"21":-0.09157549994745723,"22":-0.08301379826973701,"23":0.018835522209964425,"24":-0.323892616440294,"25":-0.04398928739568814,"26":0.07085475943399398,"27":0.027314578086437155,"28":-0.14170498650114624,"29":0.20455762537390343,"30":0.06584177377246618,"31":0.09488092008101316,"32":0.1522887272626263,"33":0.03326318506223081,"34":-0.010800804215294632,"35":0.0912141381568406,"36":0.25912015598057,"37":0.11056494378779108,"38":-0.03127202481795004,"39":-0.08119252111290214,"40":-0.19880655520159957,"41":-0.011417746834578094,"42":0.007097975859419445,"43":-0.25384406457543257,"44":-0.03776770610553914,"45":0.025233144578321688,"46":-0.32541577938690464,"47":-0.023511433368896367,"48":0.05834536473257648,"49":0.08112463026993648,"50":0.08581417832379383,"51":-0.2037816920440228,"52":0.021313460387111766,"53":-0.06941100047428587,"54":-0.06446766179192398,"55":0.012293098976447933,"56":0.15108594160650807,"57":-0.15221965553629635,"58":0.008790536536441886}},{"sx":1,"sy":1,"depth":59,"w":{"0":0.08978905674909665,"1":-0.0832455105980235,"2":-0.011189167139997399,"3":0.13032857476704698,"4":-0.02744989639600849,"5":0.1140188309748948,"6":0.07353257317803154,"7":0.048570079621382246,"8":-0.07495509757552297,"9":-0.11114983557535177,"10":0.26696113299587804,"11":0.02022686362675042,"12":-0.0016070331266702838,"13":-0.011904828454662881,"14":-0.16012528156350792,"15":0.053712247797460394,"16":0.07222092861022769,"17":-0.01249170731183333,"18":0.09449690080732367,"19":-0.1489254723061143,"20":-0.04623021987101317,"21":0.11307193751040653,"22":-0.26409790868802047,"23":0.08928698948953703,"24":0.0006729657436944809,"25":0.009427690711610379,"26":0.2219183923922762,"27":0.08893578883005412,"28":-0.26696643384721874,"29":-0.009544449058557235,"30":0.17124768085312533,"31":0.19124143428160026,"32":-0.22306469096699733,"33":0.24898705793696627,"34":-0.3107652311476732,"35":-0.06048114792924176,"36":0.21447863077310225,"37":0.09976551696071022,"38":-0.047186334368358576,"39":-0.021201041636524212,"40":0.16764884508386746,"41":-0.0872376327165819,"42":-0.2647602124178864,"43":0.264790501023378,"44":-0.016237239716913345,"45":0.30126346028850404,"46":-0.1613289306812927,"47":-0.19711641772959562,"48":-0.05821045967924489,"49":-0.01681946696198243,"50":-0.1475367778831625,"51":0.04718244661246647,"52":-0.018269127873038988,"53":0.11230237563357906,"54":-0.22290414881991757,"55":0.05566258674644101,"56":-0.03190707184059963,"57":-0.07300242381244737,"58":-0.027117200359848877}},{"sx":1,"sy":1,"depth":59,"w":{"0":-0.13911029585174764,"1":-0.30327175934442235,"2":0.18038643262303994,"3":-0.01317513156168999,"4":0.24141475987221842,"5":-0.046522706943382786,"6":0.03477299624428847,"7":0.15801106416918484,"8":0.04797606105871536,"9":0.020004307521766976,"10":-0.08215940234926315,"11":0.04505279990320529,"12":0.0446960106432182,"13":-0.06252641735685238,"14":0.07553480053800939,"15":0.11490346451077942,"16":-0.05342620924190971,"17":-0.07756370888360492,"18":-0.09737588488885804,"19":0.05970314734205011,"20":-0.03970521593228954,"21":-0.037956115040114605,"22":0.17422645381894947,"23":0.23925583342766107,"24":0.11541126476274248,"25":-0.018535527637004123,"26":0.007211866619308007,"27":0.060568513218890334,"28":0.037540457807211214,"29":0.06677064517086309,"30":0.012688430982814334,"31":0.06689879994287257,"32":0.08819153521331174,"33":-0.33021872749124465,"34":-0.0734396705064539,"35":0.06978458006074188,"36":-0.04474530710782925,"37":0.08707451723848406,"38":-0.009094817335048733,"39":-0.22074514940492285,"40":0.05380390140517592,"41":0.15376609438933536,"42":0.08121413599696102,"43":0.06108166676285321,"44":-0.21116796764191956,"45":0.06618065773699766,"46":0.21886984045175184,"47":-0.08893912962233516,"48":-0.13346290612253237,"49":0.058646881262126506,"50":0.12428411996206243,"51":-0.06571145700432057,"52":-0.09546246201993783,"53":0.021450716429974318,"54":-0.0488978755996302,"55":0.03872317122275937,"56":-0.009940248641599293,"57":0.11178705131080063,"58":-0.11666385738177516}},{"sx":1,"sy":1,"depth":59,"w":{"0":-0.0547534863687607,"1":-0.06270596401710508,"2":0.16767809709635717,"3":-0.032354291588018134,"4":0.018705509487040993,"5":-0.06419281328518484,"6":-0.00847231836843097,"7":-0.052243787337031826,"8":-0.19244155399912388,"9":-0.0038856267043027633,"10":0.007805611666014457,"11":-0.12444994634852534,"12":-0.10925316795422696,"13":-0.03584205000253693,"14":0.05549621191628484,"15":0.15951292423927352,"16":0.054928568723663175,"17":-0.1169179205041066,"18":0.009294143896772574,"19":0.0405403187856926,"20":0.0625557800845353,"21":0.06141455832191616,"22":0.022041979685349357,"23":0.13042686654014105,"24":-0.04725240076464491,"25":-0.11345027480430954,"26":-0.045459304576333154,"27":0.05184588876923801,"28":0.1474800895509844,"29":-0.17810085867296738,"30":0.3153786601874814,"31":0.22017049401367644,"32":-0.1937289978715282,"33":-0.21768051763135488,"34":0.03863388099342707,"35":0.11823453486047626,"36":0.042864275902366515,"37":-0.22187602861570938,"38":-0.16008147047022492,"39":-0.029380603703547926,"40":0.2079066955459385,"41":-0.03461308123244557,"42":0.12094046699628647,"43":0.09342191531020023,"44":0.006685263588915709,"45":0.08406296050509386,"46":-0.1772774871873245,"47":-0.06920293721945765,"48":0.06291455008714747,"49":-0.1203021078729665,"50":-0.05265564401176276,"51":0.013669811056195769,"52":-0.011323771442049596,"53":0.11594824663847908,"54":0.015392222178056972,"55":0.10206021111240979,"56":0.10320396378074725,"57":0.11488234092070236,"58":0.030753476159544494}},{"sx":1,"sy":1,"depth":59,"w":{"0":-0.019622574504129284,"1":-0.02799447762004446,"2":0.047840101764921206,"3":-0.03662072362329569,"4":0.18761478597278677,"5":0.05284000246378447,"6":0.057740147279164926,"7":-0.16866393799226645,"8":0.025838055397065608,"9":0.01648919682944864,"10":-0.11084808373880069,"11":-0.05518268935104251,"12":-0.009778240307485035,"13":0.21533911261130834,"14":-0.10102318899035646,"15":0.017523500441588447,"16":0.03027278818147057,"17":-0.010931107979222737,"18":0.027942964659726344,"19":-0.05364198263802606,"20":0.11488709957704375,"21":0.03998012395980242,"22":0.030641368051947997,"23":-0.018356115541054187,"24":0.14584674434254294,"25":0.14713741833133182,"26":0.010035282573666435,"27":-0.15816490132337607,"28":0.04115138364501294,"29":-0.16953518083024408,"30":0.13683414337541752,"31":-0.014598692517019047,"32":0.08571581032489502,"33":0.13370314186146964,"34":0.021538511023492562,"35":0.2406748949243569,"36":-0.04841062714723707,"37":0.029398773388711483,"38":0.13032653680625714,"39":-0.028804122415478632,"40":-0.15665362123438958,"41":0.026402226360247003,"42":0.0046883143909763605,"43":-0.041802557597789336,"44":-0.1824136948521971,"45":-0.16827035674744747,"46":0.28914063879855106,"47":0.12164283156335068,"48":0.12440915481272645,"49":0.09074652832247658,"50":0.1040622648782384,"51":-0.07449386699999239,"52":0.16802937550024993,"53":-0.12279583801858196,"54":0.03412212666698596,"55":-0.10887863267545496,"56":0.19620648595918996,"57":0.3305187552239102,"58":0.15662794557224657}},{"sx":1,"sy":1,"depth":59,"w":{"0":0.07458713475617891,"1":0.19636398096567081,"2":0.1021530968305622,"3":0.09305736509474712,"4":0.07170381369894822,"5":0.1780546907327147,"6":0.14125759121938156,"7":-0.06710320633265007,"8":-0.05864231910705545,"9":0.26012125349891824,"10":0.015488024794678142,"11":0.08019447237812544,"12":-0.04062740950866601,"13":0.01569486899239292,"14":-0.016039388070485182,"15":-0.029146400800405464,"16":-0.07574452417049445,"17":-0.03715542821318317,"18":-0.0981608184931421,"19":-0.05764642794285686,"20":0.11542819586835232,"21":-0.046365754057733854,"22":-0.01748916337112936,"23":-0.08732133852805876,"24":0.11054367850459892,"25":-0.06669548121124244,"26":0.02017744047986106,"27":-0.008812895816818413,"28":-0.08018210769651689,"29":0.11734052952676008,"30":0.028164744310739065,"31":-0.21356403147958347,"32":0.2528072119677176,"33":-0.04800593199210573,"34":-0.030336380157088852,"35":0.10053069825704078,"36":-0.12967551073677847,"37":-0.0016539689470710186,"38":0.028998398646040844,"39":-0.13573452593178392,"40":0.022204873675931137,"41":0.05623178986224737,"42":-0.13946714980685074,"43":-0.017694214076477956,"44":0.05328789111083663,"45":0.15914882654410673,"46":-0.18945621021755568,"47":-0.10317327126442612,"48":0.20998442901621683,"49":0.14536609929724417,"50":0.07014771387728073,"51":-0.10751234892937894,"52":-0.04586138686704202,"53":-0.10870973341365685,"54":-0.13010546764341338,"55":-0.013517842536222003,"56":0.33964907464306443,"57":-0.017270941094529414,"58":-0.1357914021244907}},{"sx":1,"sy":1,"depth":59,"w":{"0":0.12075016258796431,"1":0.2253935904325801,"2":-0.005437226993561339,"3":-0.0704086058926197,"4":-0.18382818648762564,"5":0.08977670376976285,"6":-0.10033541235932823,"7":-0.021701008169620093,"8":0.1256171232042814,"9":0.23256707750588237,"10":-0.1863990339101296,"11":-0.10551628203628485,"12":0.07291571129556211,"13":-0.09336520031958852,"14":0.060483766483608196,"15":0.17705408046191531,"16":-0.28771280564724977,"17":0.049048941812312896,"18":-0.18016528119841033,"19":-0.04146992991756002,"20":0.03891987537175956,"21":0.22003195650987986,"22":-0.07141787805468856,"23":-0.20231781365394436,"24":0.1932945016010489,"25":0.04555407948439641,"26":0.05757822759329663,"27":0.004474352440962753,"28":-0.050490685726105995,"29":0.1289089949615438,"30":0.06840996969878135,"31":0.021748473457904132,"32":0.08648225487727393,"33":-0.19746127733816365,"34":-0.140164423124314,"35":0.07998386497695636,"36":0.11355353852327296,"37":-0.06412733070988459,"38":0.09277476580143401,"39":-0.2649958762839406,"40":-0.08145706871934354,"41":-0.014911468536932216,"42":0.12138203550022629,"43":-0.07132123383691844,"44":0.019390960338658246,"45":0.03954645630858685,"46":-0.0626293658185499,"47":-0.011659029582461535,"48":0.10958808567561404,"49":0.1918367011372984,"50":-0.04212919366645578,"51":0.06522314617774494,"52":-0.22026860724238218,"53":-0.10740196371675977,"54":0.04215346445899325,"55":0.17230084735533957,"56":0.0009164638331097925,"57":-0.10475829264626112,"58":0.10652011208451684}},{"sx":1,"sy":1,"depth":59,"w":{"0":-0.1628292917337405,"1":0.023472231152467278,"2":0.0186589610427864,"3":-0.06572102696791196,"4":-0.04594688534040382,"5":0.05425495321270079,"6":-0.03912287608389792,"7":-0.08832642233100867,"8":-0.04355547694757419,"9":-0.22832012683001365,"10":-0.07726823478287016,"11":0.027797982357882032,"12":0.09355325404042729,"13":0.1016259157235466,"14":0.026115195781942095,"15":0.24369180731319431,"16":0.14678349523454348,"17":0.05995356786555208,"18":0.04517418399708991,"19":-0.012124742200477516,"20":0.27725919798341775,"21":0.12759863855813985,"22":-0.02815747762466463,"23":0.15035709979687412,"24":-0.014844656199770469,"25":-0.051225369635166954,"26":0.26772312600953896,"27":-0.0458279986729951,"28":0.07828084704324204,"29":0.012875441379558124,"30":-0.045930394401323245,"31":0.16208341221834743,"32":-0.11870877761921501,"33":0.13044243065602049,"34":0.0452019023715264,"35":-0.036520674552654175,"36":-0.13291167600979,"37":0.029055462869366146,"38":-0.056245094483496294,"39":-0.05050528374804288,"40":0.25641566513526187,"41":0.13012700774460317,"42":0.13034279382820416,"43":-0.20026955436963625,"44":-0.13712551834279113,"45":0.058958388525581655,"46":0.10612332177080015,"47":0.14873491062913965,"48":0.08008382171917909,"49":0.10251219400057261,"50":0.2365741537446889,"51":0.10571875158232227,"52":0.018055307366029928,"53":0.007239979313459449,"54":-0.004779180356183534,"55":-0.09756316525412127,"56":0.027210741148564744,"57":0.05742912367384982,"58":0.23320516634671587}},{"sx":1,"sy":1,"depth":59,"w":{"0":-0.13689839062294665,"1":-0.2497650200075232,"2":0.14667330941342557,"3":-0.11519888893889417,"4":0.2040935908102031,"5":-0.18375257999629868,"6":0.11251743296355987,"7":0.052941464146884616,"8":-0.04621851747129332,"9":-0.15171620296213617,"10":-0.06012657457795048,"11":-0.13429328390032352,"12":-0.1400100833235217,"13":0.12397731329464388,"14":0.07619542352825867,"15":-0.083180726735222,"16":-0.1738618226787663,"17":0.03532503067416149,"18":-0.1294772279853203,"19":-0.1412322817584889,"20":-0.04732149473266771,"21":0.10366785320506142,"22":-0.21169018619329488,"23":0.020289308875450985,"24":-0.034473832778880505,"25":0.0949999262592406,"26":0.08434100067344245,"27":0.3099967335328933,"28":0.11968844791002864,"29":0.1380659492791608,"30":0.07910313990935872,"31":-0.08839121971916779,"32":-0.21715435023396584,"33":-0.15867426400462706,"34":-0.05522407575729677,"35":0.008406141823447757,"36":0.024506850388280512,"37":0.2137783051727497,"38":-0.1223294780254468,"39":-0.05631694465875573,"40":0.07266966442786922,"41":-0.038165148806308676,"42":-0.051950193241051636,"43":0.05470110235839373,"44":0.00032995663568786954,"45":0.018269815655079107,"46":-0.06770380134594574,"47":0.06925929858477331,"48":0.006117473898603481,"49":0.12232577447856827,"50":-0.044567885907594855,"51":0.18997271120118445,"52":-0.09334857155781871,"53":0.13243402727364526,"54":0.15598678302598967,"55":0.07292430453988778,"56":0.04997757185536899,"57":0.263626268816632,"58":0.18842079148760355}},{"sx":1,"sy":1,"depth":59,"w":{"0":0.08981919587296514,"1":-0.0689325586806676,"2":-0.06721184821422316,"3":0.12295954668417247,"4":0.16302500842283157,"5":-0.126299292963707,"6":0.051061295103899625,"7":0.09750837347688304,"8":-0.1838298564571444,"9":-0.12514771049929865,"10":0.13828577136121104,"11":-0.14002871746660012,"12":0.18944290437383488,"13":-0.0008756638899897058,"14":0.24541031435800328,"15":-0.08062870228996807,"16":-0.00030334901627210846,"17":0.0652974695010949,"18":-0.02875974141738904,"19":-0.035056844243236775,"20":0.05802977316399921,"21":-0.2404444656276266,"22":0.07113695070679238,"23":0.05999140147387114,"24":0.11162002416020629,"25":-0.1666548617513253,"26":0.0819349867785891,"27":0.06700830960358597,"28":-0.14328929552305683,"29":0.2034745083929114,"30":-0.2122260105462632,"31":0.23748039668432164,"32":0.13138597878879768,"33":0.05149772415748827,"34":0.16208987145696843,"35":0.1480994452747953,"36":0.024975637334330524,"37":0.3056865099928741,"38":0.019971590360516784,"39":-0.2896433105052078,"40":0.03705766886858732,"41":-0.19493282577899634,"42":0.10450028465199816,"43":-0.06408410903665093,"44":0.018988661644961106,"45":0.20678094098913433,"46":0.1546739388920942,"47":0.005846007618872936,"48":0.08704567396102257,"49":0.013664265929395047,"50":0.07317865469104173,"51":-0.08371242957476285,"52":0.06018286616993765,"53":-0.22948282249882124,"54":-0.3007172828851895,"55":0.07692476713241478,"56":0.2052945375124274,"57":0.06828225923097123,"58":-0.008567735823697065}},{"sx":1,"sy":1,"depth":59,"w":{"0":-0.005066902268818508,"1":0.04738544954273916,"2":-0.056151878281078496,"3":0.3020595572131701,"4":-0.07486269969291034,"5":-0.22988591532207975,"6":-0.02043604631698436,"7":0.10448922067553268,"8":-0.10495617244915062,"9":0.08134858426563363,"10":0.17305507857266514,"11":-0.09363098229436397,"12":-0.11113354340634873,"13":-0.25219950696034565,"14":-0.06750532164142084,"15":0.0742928723102645,"16":0.028764457254558264,"17":0.2188504294892962,"18":0.21533284067571806,"19":0.1939687891444087,"20":0.052709136087609174,"21":0.13864436046129872,"22":0.013562833624863557,"23":0.21709722950191365,"24":-0.17316101811369494,"25":0.19577595967777517,"26":-0.13320576111281113,"27":0.04279277023869752,"28":0.22032144437868043,"29":-0.18829251958978493,"30":-0.06797828444026352,"31":0.09098093223066338,"32":0.1773507237310425,"33":0.18056746890860886,"34":-0.12477835489090355,"35":-0.05599315050586323,"36":-0.11303722382051151,"37":-0.005905469271832785,"38":-0.020841476768570757,"39":-0.16793855886377704,"40":0.013303842681371384,"41":-0.1113604194862805,"42":-0.06127989863712509,"43":-0.11489585813350206,"44":0.09864354108327743,"45":-0.05989379430949825,"46":0.2055014013028917,"47":0.02538460361608473,"48":-0.1994019899708383,"49":-0.12025043511282141,"50":0.018348819964927227,"51":0.13267976352267893,"52":-0.1205433661405732,"53":-0.02233295613794267,"54":-0.012991518736143608,"55":0.11750305533520163,"56":-0.20512885534234035,"57":-0.05046959541263948,"58":0.11245974712978747}},{"sx":1,"sy":1,"depth":59,"w":{"0":-0.10992644127966726,"1":-0.0027888182187612996,"2":0.09081654576207689,"3":0.127267536566135,"4":-0.15759631496043539,"5":-0.13625414204787695,"6":0.007741400502726291,"7":-0.0010966462194164724,"8":-0.13658686440527548,"9":0.0640817407736852,"10":-0.04435571800404887,"11":-0.12305299542999645,"12":0.1041058805940873,"13":-0.15398954317307026,"14":-0.03682225792316901,"15":-0.22816499438553933,"16":0.05525397721402084,"17":-0.16946792652827336,"18":0.11357464973186471,"19":-0.2349521134721423,"20":0.058479384691094434,"21":-0.03400119589051381,"22":0.013178928575791645,"23":0.0406359605722852,"24":0.1000608553251995,"25":-0.03093725476715228,"26":-0.14003336508706893,"27":0.000511244137805978,"28":0.17366867390319768,"29":0.1268082544216598,"30":0.05359811384395707,"31":-0.11255984282401246,"32":-0.1382477727697522,"33":-0.16701903011235408,"34":0.04458235035460429,"35":-0.07709599763972773,"36":0.0511017539397434,"37":-0.09182914781054075,"38":-0.010379286073762537,"39":-0.11967054698029803,"40":-0.11825298156490223,"41":-0.15190687768293595,"42":0.006148375422361887,"43":-0.04163488479329943,"44":0.07322654243204833,"45":-0.008147876471127328,"46":-0.0566084503236357,"47":-0.01941146612510241,"48":0.255136938613802,"49":-0.09341109599237013,"50":0.1305729460072346,"51":-0.05334639419443433,"52":-0.07193392169116436,"53":0.21079868073565536,"54":-0.03155931314082061,"55":-0.07679329053574409,"56":0.03654731847070087,"57":0.1260829239970252,"58":0.010226006349009305}},{"sx":1,"sy":1,"depth":59,"w":{"0":0.1452082086406928,"1":0.08228748203426564,"2":-0.2208296945764962,"3":-0.021095560260769503,"4":-0.17288974429042878,"5":-0.04330409429854121,"6":0.11097819804544562,"7":-0.044372805418129435,"8":0.11954189792441272,"9":-0.13014340019881962,"10":-0.1746409052407193,"11":-0.11474934530091854,"12":-0.13523020071114913,"13":-0.09777539427692819,"14":-0.21925006094193114,"15":0.00028192263241272184,"16":0.2502677361783894,"17":-0.22133166841886043,"18":0.017350956506387658,"19":-0.09113751890182908,"20":-0.3075367143946068,"21":-0.1744354171620998,"22":-0.032025268800794475,"23":0.10102859052391981,"24":0.09135651998861778,"25":-0.20519816970919888,"26":-0.08968646059591422,"27":-0.1884993432219941,"28":-0.12755635350317976,"29":0.1402711640804957,"30":0.04280808647674215,"31":-0.031246498301259015,"32":0.18874786666519372,"33":0.1245249033018396,"34":-0.1929493471880179,"35":-0.18667630177646238,"36":0.07074595092943696,"37":-0.10041947589734913,"38":0.10771314625616019,"39":-0.07210196127527313,"40":-0.1807488552048762,"41":-0.06100959826581908,"42":-0.05146896785543881,"43":0.1895618669860553,"44":-0.08285645102407553,"45":0.2149992556095093,"46":-0.09137083052624635,"47":0.13484499140804865,"48":0.022457736274204887,"49":0.004294036227638016,"50":-0.09461766817549401,"51":-0.0968071207971428,"52":-0.012128769384146504,"53":0.023022808785456053,"54":-0.08637879742787476,"55":0.26834262705898115,"56":-0.1266790980618229,"57":-0.3244884716166048,"58":0.0892975566884775}},{"sx":1,"sy":1,"depth":59,"w":{"0":0.2130112569499106,"1":-0.18617233876881534,"2":0.02878352249146973,"3":-0.036201539012605206,"4":0.15637957950305886,"5":-0.0032857005529769163,"6":0.03678487915324873,"7":0.005496029682892057,"8":-0.07223042452483558,"9":-0.10043069558501667,"10":0.1763966675217226,"11":-0.04291246849985632,"12":0.0945746265992268,"13":0.22295730930666965,"14":0.15771862092388958,"15":0.031137025282603193,"16":-0.12562495231088217,"17":-0.03992646023666932,"18":0.22033335185363212,"19":-0.08540094973524104,"20":-0.06353534567230217,"21":-0.0976735194964903,"22":-0.06045557572930269,"23":-0.001722789946508848,"24":-0.1331101872145341,"25":-0.15769887136530877,"26":-0.09172412316956845,"27":0.1884343971879242,"28":0.009564158964179888,"29":-0.01772093357522996,"30":-0.0679658431681302,"31":0.07426192162798567,"32":-0.0860442739637704,"33":0.028704276347843075,"34":-0.32478798427768674,"35":-0.1454920734382782,"36":-0.1070139818082279,"37":-0.13906603803781825,"38":-0.220757772169709,"39":-0.09011446313256699,"40":0.08398664801327166,"41":0.05283565654394944,"42":0.1389493406908365,"43":-0.08896546205289615,"44":0.24394890815576448,"45":0.14538424184937898,"46":0.005629725009250939,"47":-0.04951265606635395,"48":0.08060032687499534,"49":0.06702170636228112,"50":-0.17011407804992626,"51":0.00573451790411484,"52":-0.1878484546826199,"53":-0.06370579777282001,"54":0.008818950374891625,"55":0.055926753377490555,"56":0.0272476599862859,"57":-0.041118091703734774,"58":0.2103615202555911}},{"sx":1,"sy":1,"depth":59,"w":{"0":0.0521589205661958,"1":-0.06969852413696642,"2":0.20231014543893275,"3":0.09603486290317112,"4":-0.1229622728890132,"5":-0.036968215929729216,"6":0.03642007352395253,"7":0.06462375989945625,"8":0.020335734931709232,"9":-0.20227927428995704,"10":0.008155847795820913,"11":0.09023617937839733,"12":0.028904209186585473,"13":0.13797493003102732,"14":0.19625440990262258,"15":-0.05882001864360093,"16":-0.08651065294329091,"17":-0.3105039953575505,"18":-0.30843015367801807,"19":-0.008939467054962926,"20":0.13301774301273184,"21":0.12273529818683708,"22":0.07965739687198824,"23":0.019784620140974745,"24":0.05187586999636672,"25":-0.14999596105527552,"26":-0.12877478263850828,"27":0.10479748771542391,"28":-0.03614558777771789,"29":-0.05401423139449645,"30":-0.1400207870166863,"31":0.2166729257664512,"32":0.14661191191220255,"33":0.05156172475291642,"34":0.08818621664686084,"35":0.13502783639850374,"36":0.06259021748595951,"37":-0.025973241815876128,"38":0.13769775554302563,"39":-0.07877620521709074,"40":0.18104914569003647,"41":0.0694539246314882,"42":-0.24917729895658833,"43":0.42482217935945615,"44":0.24142164304488073,"45":0.23024865632697789,"46":0.12963434040545568,"47":0.005744117480895845,"48":-0.30099745923870674,"49":0.11917192721419963,"50":-0.08493423781402261,"51":0.06254813515701026,"52":0.24327404896676386,"53":0.02501885180068972,"54":-0.05909654306134513,"55":0.022222740584348227,"56":0.09200362318650801,"57":-0.03646603980969314,"58":-0.23645516764341915}}],"biases":{"sx":1,"sy":1,"depth":50,"w":{"0":0.1,"1":0.1,"2":0.1,"3":0.1,"4":0.1,"5":0.1,"6":0.1,"7":0.1,"8":0.1,"9":0.1,"10":0.1,"11":0.1,"12":0.1,"13":0.1,"14":0.1,"15":0.1,"16":0.1,"17":0.1,"18":0.1,"19":0.1,"20":0.1,"21":0.1,"22":0.1,"23":0.1,"24":0.1,"25":0.1,"26":0.1,"27":0.1,"28":0.1,"29":0.1,"30":0.1,"31":0.1,"32":0.1,"33":0.1,"34":0.1,"35":0.1,"36":0.1,"37":0.1,"38":0.1,"39":0.1,"40":0.1,"41":0.1,"42":0.1,"43":0.1,"44":0.1,"45":0.1,"46":0.1,"47":0.1,"48":0.1,"49":0.1}}},{"out_depth":50,"out_sx":1,"out_sy":1,"layer_type":"relu"},{"out_depth":50,"out_sx":1,"out_sy":1,"layer_type":"fc","num_inputs":50,"l1_decay_mul":0,"l2_decay_mul":1,"filters":[{"sx":1,"sy":1,"depth":50,"w":{"0":-0.03588259042538511,"1":0.12865440033584535,"2":0.1437180402114221,"3":0.11832296438415911,"4":-0.07871609396723629,"5":0.13751605070392628,"6":0.07918109369508242,"7":0.24620041310227406,"8":-0.012401867406993422,"9":0.029771757054332864,"10":-0.10864800072585314,"11":0.1527646281115993,"12":0.05254720239342409,"13":-0.11176811990248485,"14":-0.06449864798463124,"15":0.16483807337139283,"16":0.13212059149187072,"17":0.037172382245676004,"18":0.1555599985543555,"19":0.18557617951444497,"20":0.3203602659094175,"21":-0.24635951530245204,"22":0.01954568590697443,"23":-0.10636791266113738,"24":-0.06002433122450458,"25":-0.08541389297584569,"26":0.0479329787716527,"27":-0.2231306210631867,"28":-0.09639009567171924,"29":0.13941581150581558,"30":-0.22774407684387685,"31":-0.02143530571848472,"32":-0.007987903477753059,"33":-0.002310676198243274,"34":-0.11210506064379772,"35":0.09501563842850083,"36":0.12997135628243087,"37":0.25986871741069917,"38":0.001666917514681832,"39":-0.14936763768991407,"40":0.19583085855762786,"41":0.1896581780286673,"42":0.17607219040474717,"43":0.17867338163602947,"44":-0.23648038453916154,"45":-0.11409958461873848,"46":-0.06720784750479289,"47":-0.02741165450142219,"48":-0.011381566777653162,"49":0.04961005332406666}},{"sx":1,"sy":1,"depth":50,"w":{"0":-0.03982378360509352,"1":-0.1350506380071829,"2":-0.09142731309994719,"3":0.2865469653640952,"4":0.01758098917605893,"5":-0.08209634469483582,"6":0.06943083758793554,"7":0.06809661547560172,"8":-0.00533349318685484,"9":-0.004571851192670088,"10":0.00432568532505912,"11":0.2240893597500871,"12":-0.19749478145758967,"13":-0.08602322839956648,"14":-0.06288229437473121,"15":0.06861331389975912,"16":-0.04962632697043565,"17":0.1254720171704584,"18":-0.11688804501913386,"19":-0.1967291740115128,"20":0.10555803612029964,"21":0.047688281211604545,"22":-0.077601309975644,"23":-0.12069535939131537,"24":0.005522422959603901,"25":0.24481137980708376,"26":-0.02582055415883873,"27":0.047880026160881585,"28":-0.08630415103707112,"29":0.1774794785571456,"30":0.08351991187160118,"31":-0.11737628599866386,"32":0.02304305815614016,"33":0.01196903478147909,"34":0.07513886087920207,"35":-0.022774139722918703,"36":0.12090092483989626,"37":0.017026663807266015,"38":0.007359093042137731,"39":-0.250837029639991,"40":-0.16467114333555968,"41":0.003720204570417431,"42":0.07394212015141687,"43":-0.3503685772838274,"44":0.11386750971876111,"45":0.24973988038236666,"46":0.010119293583673535,"47":-0.026328326090715386,"48":-0.11238544041639596,"49":0.04198906800498306}},{"sx":1,"sy":1,"depth":50,"w":{"0":-0.10512071251102847,"1":0.04307838753586529,"2":0.31178802435039965,"3":-0.23563859434700435,"4":0.270096888183114,"5":-0.06456586157773911,"6":-0.01941176409656634,"7":0.31468665937163226,"8":0.0809971807621968,"9":-0.03426587112257155,"10":0.2744492780109356,"11":-0.026601436789840924,"12":0.04432010657362429,"13":0.008384325226119751,"14":-0.15430395887697804,"15":-0.035960048160116255,"16":0.16835425694377948,"17":0.04805453704165507,"18":-0.06207984426919648,"19":0.0827367562989136,"20":0.038565754153867184,"21":-0.17931380259691765,"22":0.20035310117688623,"23":0.019686838446374182,"24":-0.000651195970733999,"25":-0.04280298133502271,"26":-0.17951857972673788,"27":0.22145020897916345,"28":-0.04202659493732037,"29":-0.18188194072920147,"30":0.21866248231446495,"31":0.11272571000525751,"32":0.0670565127629343,"33":-0.07927553583790084,"34":0.016947272261793454,"35":0.16419029970958393,"36":0.05650366577977104,"37":-0.03379968529943942,"38":-0.15857478583833148,"39":-0.06436940719388617,"40":0.15584790582876368,"41":0.03491827263009558,"42":-0.004968939394180876,"43":0.025506000564673663,"44":-0.11169885956976065,"45":-0.11748748091597326,"46":0.10117637492394213,"47":0.22530684934302134,"48":-0.1190200430779029,"49":0.1119015665282751}},{"sx":1,"sy":1,"depth":50,"w":{"0":0.04338092954206141,"1":0.17942132393654622,"2":0.15143607984196858,"3":-0.17905545508043744,"4":-0.02465537078825086,"5":-0.048216793178068894,"6":0.1642119913199373,"7":-0.04993753423848488,"8":-0.004149575114644933,"9":-0.09187505340812455,"10":-0.28446887524584014,"11":0.010915898827617882,"12":-0.0767766712449865,"13":-0.07752473823114855,"14":-0.19233953777190846,"15":-0.043030167488591065,"16":-0.17904773636873536,"17":-0.2877067807800609,"18":0.0689669227266009,"19":0.04471050703864645,"20":-0.20037295514108053,"21":-0.1861625979173522,"22":0.1319069469476543,"23":-0.09403611954524951,"24":-0.07406721525005092,"25":0.0016492683634816996,"26":0.014472868684773403,"27":-0.001644143215126431,"28":0.014453588523469339,"29":0.11607835938248039,"30":0.1548971086061839,"31":-0.008100309568258543,"32":-0.25433929678204603,"33":-0.15327254333531976,"34":-0.09697890912886505,"35":-0.12544385301679722,"36":-0.19560945927363846,"37":0.18764805772962756,"38":0.20030877254475338,"39":0.06070079801841456,"40":-0.1536451699573114,"41":0.09687245407521283,"42":0.10399285890887737,"43":0.01660849182613824,"44":0.22043330709089007,"45":-0.06291305565319986,"46":-0.215411187388592,"47":-0.05219183496080175,"48":-0.08448072527263092,"49":0.1072925578857804}},{"sx":1,"sy":1,"depth":50,"w":{"0":0.07021610777687204,"1":0.05541173440490891,"2":-0.11585767828083382,"3":0.13037351988821938,"4":-0.311519301829853,"5":-0.08621785563239184,"6":-0.04202164851468796,"7":-0.2889588344578861,"8":0.1271062102098419,"9":-0.017464305374562242,"10":0.12221672299030728,"11":-0.23317998158066947,"12":0.04105452672957922,"13":0.035958349202826485,"14":-0.11666429251709112,"15":-0.2002663072626218,"16":-0.1869654745069045,"17":0.12950569259331904,"18":0.16401069317679973,"19":0.15242448656673552,"20":0.08716699435846345,"21":-0.01578809896159595,"22":-0.04936027967624847,"23":-0.09371659154697715,"24":0.04053257274561009,"25":-0.04077394941739944,"26":-0.08255179322960926,"27":0.29276344231307255,"28":0.18217967256554865,"29":0.12123246633259777,"30":-0.3915762770623258,"31":0.07489495716015974,"32":0.04183111526169019,"33":0.06019314272481388,"34":-0.07202713059024912,"35":-0.09076422978685804,"36":-0.013408236421020953,"37":-0.0578767981185437,"38":-0.12235626365410245,"39":0.043684243014301155,"40":0.12409831087127249,"41":-0.13808370828414646,"42":0.08062862034594721,"43":0.02254206722492203,"44":0.0027612706374559584,"45":-0.13499174804236252,"46":-0.07903691404271658,"47":-0.058536721038792476,"48":-0.09981127171374458,"49":-0.06261649906137233}},{"sx":1,"sy":1,"depth":50,"w":{"0":-0.022954529984023676,"1":0.19545107499798203,"2":0.030020007181860972,"3":0.04119936189696595,"4":0.14805568048589862,"5":0.06778880589145128,"6":-0.07725471997191496,"7":-0.16607411536080746,"8":-0.1032976639310328,"9":-0.10041131564834967,"10":-0.09092112890164931,"11":-0.1327076789443196,"12":0.017188634274855247,"13":0.3493897923953072,"14":0.338696285290782,"15":-0.23375663062394228,"16":-0.1392579154961827,"17":-0.14797276774818327,"18":-0.001989935542399076,"19":0.2632164871897613,"20":0.21110598142997203,"21":-0.16173095648301677,"22":-0.1048394099162963,"23":0.061216311489798,"24":0.1292657141699826,"25":-0.09418622464913787,"26":-0.06145447730312938,"27":-0.10377063520026596,"28":-0.0114232607600877,"29":-0.11233496497824663,"30":-0.08074449472212113,"31":0.1264054028340199,"32":-0.01819307529631377,"33":0.07906742003501531,"34":-0.1960281396650251,"35":-0.1431193410714816,"36":0.1350740815654787,"37":-0.09645768643557273,"38":-0.0797600485620866,"39":0.161663432129101,"40":0.010137916764180374,"41":0.0448101966515067,"42":0.17468701756632515,"43":-0.08877062593176592,"44":0.12627516096766309,"45":-0.21162884093418435,"46":-0.2824128311586766,"47":-0.12550010797491074,"48":-0.13606466067546233,"49":0.028911418867085016}},{"sx":1,"sy":1,"depth":50,"w":{"0":-0.08763561042760448,"1":-0.05285049318624055,"2":0.08098975145416842,"3":0.2155551653514815,"4":0.06786932202350016,"5":-0.11775554485164783,"6":-0.0970558426070118,"7":-0.21988371861336395,"8":-0.12203152810008677,"9":0.15836587899326193,"10":0.1715873120154788,"11":0.15307952939412717,"12":-0.024072550094823723,"13":0.21798587536714722,"14":-0.005118194778237969,"15":-0.06154414344578316,"16":0.10464665338314988,"17":-0.12331358761045637,"18":-0.031022799660135738,"19":0.06890791064562643,"20":-0.0014254361368413505,"21":-0.005751692850433311,"22":-0.08246215781876717,"23":-0.058377758907853364,"24":-0.04482890709728693,"25":-0.11919408407971259,"26":-0.07610692695026892,"27":0.30793233596980213,"28":-0.14833363637832725,"29":0.1482199176569697,"30":-0.1285812699260643,"31":-0.30018793100400465,"32":-0.1902330535734758,"33":0.10303653687547877,"34":0.11692068990124797,"35":0.21755857729624745,"36":0.08653842091791003,"37":0.058049656588619186,"38":0.18721764538250196,"39":0.23996393579917216,"40":-0.11866068640477014,"41":-0.009894407878171061,"42":-0.14968050540297004,"43":0.02408264497544273,"44":0.10423222283608437,"45":0.12018432638449608,"46":0.031923338199388744,"47":0.11268312364610776,"48":-0.20079196972588328,"49":0.16668146221629832}},{"sx":1,"sy":1,"depth":50,"w":{"0":0.13829880554733873,"1":0.01660708119815818,"2":0.13925135237594027,"3":-0.09762195582926614,"4":0.356488352691661,"5":-0.21027744973385817,"6":-0.0996247869082412,"7":-0.08514513537252484,"8":-0.09264809216000316,"9":-0.16169643956496227,"10":0.010444177146080572,"11":-0.0018505777651014268,"12":-0.08514207654133756,"13":-0.2701431587136911,"14":-0.1820962284046613,"15":0.21112066564363585,"16":-0.05245035561280874,"17":-0.09025203387050679,"18":0.05527486105134352,"19":-0.0423609343928172,"20":-0.05450924491363189,"21":-0.14809924955303228,"22":-0.13811618862813294,"23":-0.08008421121935867,"24":0.18008538722449513,"25":0.15833526588577226,"26":-0.04810447974858834,"27":-0.0619117204768844,"28":-0.028524149962542968,"29":0.16716046957655378,"30":-0.277788519977795,"31":0.09368193404746301,"32":-0.061864744270705596,"33":-0.1491324140070276,"34":0.14876434941564223,"35":-0.04858869829311608,"36":0.0315095707814446,"37":0.1240857537126501,"38":0.1593063094049875,"39":-0.009850900956340483,"40":0.01234230612480365,"41":-0.007464194945301034,"42":0.1383502929757047,"43":-0.20327561047552756,"44":0.1605796394135739,"45":-0.1997280479464061,"46":0.16551485999115712,"47":0.0059650636846767646,"48":-0.07410034764384382,"49":0.08563503319860745}},{"sx":1,"sy":1,"depth":50,"w":{"0":0.08840998670069514,"1":-0.01134092095638351,"2":0.0428955519152677,"3":-0.4297871075462676,"4":-0.11263741916515145,"5":-0.16403227860698985,"6":-0.050683421931043006,"7":0.18479178448764222,"8":-0.14654073469154807,"9":-0.11265694192393788,"10":0.13853181885268948,"11":-0.07933669798703037,"12":-0.08356337073725179,"13":0.0017548963183092255,"14":0.11638349625897505,"15":0.05356314589875363,"16":-0.20540033609963057,"17":-0.10368550535660669,"18":-0.09576439920961147,"19":0.17481380706028732,"20":0.1095758534968265,"21":-0.003928371553528892,"22":-0.032847765620352354,"23":-0.01760139617588088,"24":-0.034035090346586264,"25":-0.20930930904645711,"26":0.19729303857236308,"27":-0.059754766908978345,"28":-0.09769031299341388,"29":-0.26012923327378545,"30":0.20467144261687448,"31":-0.21691956897789716,"32":-0.04014115233455828,"33":-0.04956127196627499,"34":-0.015111456802932587,"35":-0.16546698886563402,"36":0.2253027847724759,"37":0.06741292793041365,"38":0.16562066456466767,"39":0.08368626727153651,"40":-0.0965088285143444,"41":0.21014440264556689,"42":0.051464317799425265,"43":-0.005205103478559218,"44":0.1803407678658494,"45":-0.07630926579001782,"46":-0.008738595757026683,"47":-0.03735515682159596,"48":0.0011891784068513505,"49":0.10345713960635784}},{"sx":1,"sy":1,"depth":50,"w":{"0":-0.12960253035077762,"1":0.08239090511250075,"2":0.004875863179244723,"3":-0.14374496290977623,"4":0.0485423210672301,"5":0.09875704703256266,"6":-0.15528462911783292,"7":0.2887447332664612,"8":-0.07023702129772649,"9":-0.36639726424135627,"10":0.039469792078196515,"11":0.221099480893964,"12":-0.07828490574314147,"13":-0.03044152467339353,"14":-0.08110922735769104,"15":0.05208581260426857,"16":-0.2313560074195018,"17":0.21325036738330472,"18":-0.20917865888881276,"19":0.20045036507996525,"20":-0.09194954402657587,"21":0.09138542801195598,"22":0.19580656656766862,"23":-0.1636091458328687,"24":0.0702529083556933,"25":-0.07092900682183247,"26":0.1866077206831287,"27":0.048083174903610595,"28":-0.20401127594253254,"29":-0.13736042423649486,"30":0.1838188974193075,"31":0.04352548431744978,"32":-0.09666985939445674,"33":-0.16658968973816812,"34":0.18928036576402243,"35":0.0794183143739214,"36":-0.1711316060423019,"37":-0.004179814889989828,"38":0.16109944972390294,"39":0.1647829467645446,"40":-0.09134368474921573,"41":0.05590540864749446,"42":-0.11254232765393393,"43":0.023262674227853566,"44":-0.0714939079344212,"45":-0.11772617668910772,"46":0.08322106194410055,"47":-0.12350605192967024,"48":0.07318380661244238,"49":0.07178636150224904}},{"sx":1,"sy":1,"depth":50,"w":{"0":0.07838358972296695,"1":-0.16554638178797224,"2":-0.15451027496630348,"3":0.0638309426915095,"4":-0.08185256082373474,"5":-0.1178348978252758,"6":-0.06954751560242531,"7":0.09982847694278288,"8":0.1176362476468476,"9":0.20625574448545336,"10":0.1262529176246463,"11":0.13965119709162974,"12":0.10430166844530232,"13":-0.0752842295257651,"14":-0.028282091672682946,"15":0.1925665110200136,"16":0.020328271966325962,"17":-0.1466698214222231,"18":-0.13275907606514395,"19":0.13364666240043277,"20":0.1598041894699868,"21":0.09860298418203568,"22":0.03658208082826422,"23":0.21107871819922253,"24":0.09948682946943786,"25":-0.061845295830328544,"26":0.10279887722067717,"27":0.11539429307510322,"28":0.0008629942255220504,"29":-0.19713124923468384,"30":0.03741923676282958,"31":-0.14094075937525455,"32":-0.1758240991855665,"33":-0.008541890301556807,"34":0.07248356800755287,"35":-0.03988959531687348,"36":-0.08214842306063498,"37":-0.20767560381741987,"38":0.11000951313538365,"39":0.20023667035071996,"40":0.11878954908053052,"41":0.10371278200894384,"42":0.013880830644308206,"43":-0.07905545041848842,"44":-0.008550841893197655,"45":-0.047757665829123955,"46":0.06708816848753858,"47":-0.05655607894321827,"48":0.09630104705773032,"49":-0.1654410650998343}},{"sx":1,"sy":1,"depth":50,"w":{"0":0.13546961704221047,"1":0.04587084614331661,"2":-0.001265880313225404,"3":0.09695121155452335,"4":0.044423165750362974,"5":0.06580852409325087,"6":-0.17005281408042622,"7":-0.16793876948621345,"8":0.294534467712244,"9":-0.10489535190026889,"10":-0.13137586596502981,"11":0.03631418952129539,"12":-0.03643256278892194,"13":-0.17842811225328684,"14":-0.10209550057879656,"15":0.17598862100987264,"16":0.10214554964263882,"17":-0.0696122900913038,"18":-0.06380639138613926,"19":-0.02746197702307451,"20":-0.040448100218512945,"21":0.08967024358170674,"22":-0.02227632284377563,"23":0.03413394120251443,"24":0.08939659417592405,"25":-0.14032000814102952,"26":0.030379210318688815,"27":-0.05113026925262208,"28":-0.03455820847870855,"29":-0.27774109755301896,"30":-0.06707588080032538,"31":0.018736503181357923,"32":-0.07350854281041486,"33":0.22244261397900206,"34":0.017703640514102923,"35":-0.018562963139992124,"36":-0.01498015884349262,"37":0.3381444300651627,"38":0.13968289664030273,"39":0.13926421071433487,"40":-0.04946911905635906,"41":0.04969340678607205,"42":-0.20412543687671136,"43":0.1914183993199722,"44":-0.17825435737283946,"45":0.012338339850554048,"46":0.031622648446010815,"47":-0.022618519746242197,"48":0.12379601273310273,"49":0.022577614070828166}},{"sx":1,"sy":1,"depth":50,"w":{"0":-0.14459712046772252,"1":0.028827457358767534,"2":0.006870184706960615,"3":-0.2092711356482849,"4":-0.02809927072441569,"5":0.11090610614578689,"6":0.08059677102950569,"7":-0.0031149290437594655,"8":0.23458649329887982,"9":-0.19484787901385342,"10":0.030352518548186838,"11":0.0020191837800207137,"12":-0.10939709917335999,"13":-0.21517576580245976,"14":0.22055513667524412,"15":-0.24033334863104586,"16":0.20197451807067102,"17":-0.07334738178973346,"18":0.029094423181645478,"19":0.01612064444869906,"20":-0.002904473293442147,"21":0.059810998162465295,"22":0.06202921845680137,"23":-0.014012360928840667,"24":-0.06050654074652284,"25":0.06597717379071996,"26":0.01672979183859218,"27":-0.13495632435246338,"28":0.05485859160638522,"29":-0.19426471466238732,"30":-0.07399323661992388,"31":-0.037262724802660616,"32":-0.11716226543986084,"33":-0.022472368894204914,"34":0.014102209105334794,"35":-0.09632501787485524,"36":-0.2439309128726237,"37":0.04313676677056692,"38":0.04137348216106541,"39":0.0663990863947831,"40":0.07981299448107558,"41":0.0137247228530081,"42":0.043794736561104296,"43":0.04064427651026213,"44":-0.04172822188619199,"45":-0.22502979420838992,"46":-0.21886742648382243,"47":0.04391778182331896,"48":0.027309004989053517,"49":-0.05922439742049306}},{"sx":1,"sy":1,"depth":50,"w":{"0":-0.016747314834733417,"1":-0.08028992342498234,"2":0.06123700471253409,"3":0.0617549901319448,"4":-0.14408160021202518,"5":0.03645026137941539,"6":-0.24724831360894292,"7":0.09788587623648287,"8":0.15551550897859331,"9":0.13058482243250366,"10":0.21352460295978035,"11":0.16646902223780946,"12":-0.09317746160368973,"13":-0.09205610251776931,"14":0.22680207297811977,"15":-0.1346313126510258,"16":-0.1453061647531281,"17":0.261147812828189,"18":0.13820908280134614,"19":-0.09137371971461158,"20":0.08569863235202504,"21":0.10977916791150569,"22":-0.39419694058676985,"23":-0.05470272520294337,"24":-0.039122171805408765,"25":0.30748766918835674,"26":-0.11715444017648034,"27":0.08437203818222733,"28":-0.13317678068336902,"29":-0.040355367766799516,"30":0.11580971687165513,"31":0.10187020940576261,"32":0.089580279929638,"33":-0.004727912819979896,"34":-0.0011077520040911277,"35":-0.02844357154000158,"36":0.01478914005456822,"37":0.06284054287458084,"38":0.2182046828701809,"39":-0.22251142846826266,"40":0.08979091973353726,"41":0.06062098090428254,"42":-0.3492822628774943,"43":0.13623733552577338,"44":0.06515025882455021,"45":0.12227607912984859,"46":-0.1399706181019252,"47":-0.01109778781078752,"48":-0.12320739463617093,"49":0.14305429907325778}},{"sx":1,"sy":1,"depth":50,"w":{"0":-0.18726740104342043,"1":0.14916729964600292,"2":-0.12032938167791302,"3":0.2162244125769482,"4":-0.1258364074474988,"5":-0.01981911335300328,"6":0.06759342852153803,"7":0.15795828055179006,"8":-0.23394951712324552,"9":-0.11162169497681072,"10":-0.37020947147278976,"11":-0.2659122213893244,"12":-0.02015406982426503,"13":0.0479910423042518,"14":-0.07722370080716406,"15":0.1843336096177602,"16":0.06522371018492489,"17":0.03138969453272269,"18":-0.07451810331355152,"19":-0.21274738584816336,"20":0.03631639366514453,"21":-0.0877808692907881,"22":-0.23325277608558112,"23":-0.21865988167933662,"24":-0.02539166569757316,"25":-0.0070881934774200215,"26":0.39739106496380777,"27":0.05876341438385801,"28":0.007095873107674121,"29":-0.11741984164215777,"30":-0.26508449602407463,"31":0.24772436372548975,"32":0.029378793199334247,"33":0.19982523177359368,"34":0.13014932713781155,"35":0.1433116248108641,"36":-0.07931702638930631,"37":-0.004226415493424621,"38":0.10623386566295455,"39":0.041017531366280786,"40":0.03763949518379168,"41":0.14989370651063938,"42":-0.09710686643300816,"43":-0.01518999172007491,"44":-0.057735446986170835,"45":0.0655452166913655,"46":0.17414607994907855,"47":-0.18788859027532634,"48":-0.1632615843195456,"49":-0.10251427417342057}},{"sx":1,"sy":1,"depth":50,"w":{"0":0.10880875813791759,"1":-0.25270295020169586,"2":-0.12352695082338991,"3":-0.19414484122609657,"4":0.22971514003889432,"5":-0.0007495157668445564,"6":-0.08008441938343219,"7":0.19354011113160396,"8":-0.03347401447451771,"9":0.1529833287634803,"10":0.215017584763171,"11":0.04338723400290338,"12":-0.012796235986023875,"13":-0.1193389262644144,"14":0.1599767952966894,"15":0.1499774816723543,"16":-0.10864447304825454,"17":0.24744074494572219,"18":0.1309493195993312,"19":-0.16697330761669893,"20":0.0754184578235056,"21":-0.14528774313670623,"22":0.10782488316398407,"23":-0.26264869021617865,"24":0.08794624436332155,"25":0.4145850385472789,"26":-0.04122130518166001,"27":-0.11783648582361848,"28":0.01653702391770437,"29":0.023518303501699943,"30":0.10845357570741822,"31":-0.15568517805240142,"32":-0.07965593845163217,"33":-0.08815181355648347,"34":-0.11861430868604961,"35":-0.03264210059121538,"36":0.01955992679114255,"37":-0.01152257694839127,"38":-0.08625215585346785,"39":-0.20727784046515185,"40":-0.10176121296745892,"41":0.027418959928088994,"42":0.10661324299543823,"43":0.16357520734383096,"44":-0.16453410169615879,"45":0.10243210876019125,"46":-0.05992314633300075,"47":0.1581598014297292,"48":-0.1305288189804066,"49":0.22100121684369278}},{"sx":1,"sy":1,"depth":50,"w":{"0":0.06752930923192055,"1":0.09164350049027051,"2":-0.2447365890680074,"3":0.06518903102629509,"4":-0.09494657414820151,"5":0.0771110431513768,"6":0.17780813978541576,"7":0.06509939127204008,"8":-0.16907728036146777,"9":0.17544761311445684,"10":0.2181730734880101,"11":-0.07885317447198183,"12":-0.0036163854821025295,"13":0.016602468252417308,"14":0.014495031936800415,"15":-0.06827165015139235,"16":0.08279577411435357,"17":0.1322618553699358,"18":-0.008801165708977354,"19":0.2253856499119049,"20":-0.20005511577019774,"21":-0.13209863673994424,"22":-0.02736001861379497,"23":0.011714122175523999,"24":-0.08043809010441132,"25":-0.0570808719729347,"26":0.10168634187335736,"27":-0.2716576910266547,"28":0.005448566482628505,"29":0.00929822448218711,"30":0.007514820491925809,"31":0.06281725038298709,"32":-0.15806225283836428,"33":0.09972908780666945,"34":0.14765452426101225,"35":0.033764016291815364,"36":0.2450321062779652,"37":0.07062806296324314,"38":0.1962277681648546,"39":0.059476564034597224,"40":-0.06802375108456553,"41":-0.0432658209924869,"42":0.21728469619543325,"43":-0.050830298363901794,"44":0.0031550758842333842,"45":0.21056131273343817,"46":0.22111392996576884,"47":0.15055836947930304,"48":0.11728307174781516,"49":0.1586905945320685}},{"sx":1,"sy":1,"depth":50,"w":{"0":0.12032172821348139,"1":0.13402837209476703,"2":0.0732526204192777,"3":0.1096190092536119,"4":0.0023828842769412746,"5":0.30460112063631545,"6":-0.10977292455079617,"7":0.052581646955090634,"8":0.12775466945327774,"9":-0.1763775443682185,"10":0.06362052533477976,"11":-0.03738961070184571,"12":0.08124400715183731,"13":-0.045224346064654135,"14":-0.020638821906875958,"15":0.09908070697920189,"16":-0.12812556384488172,"17":-0.11197480588452045,"18":-0.234662350025446,"19":-0.06195513750778599,"20":-0.11807459340843032,"21":-0.07797770451805669,